{"voxel_size": 0.00425, "block_size": 30, "grid_width": 800, "grid_height": 800, "grid_depth": 800, "atlas_width": 2048, "atlas_height": 2048, "atlas_depth": 32, "num_slices": 8, "min_x": -1.7, "min_y": -1.7, "min_z": -1.7, "atlas_blocks_x": 64, "atlas_blocks_y": 64, "atlas_blocks_z": 1, "input_height": 800.0, "input_width": 800.0, "input_focal": 1111.1110311937682, "worldspace_T_opengl": [[-1.0, 0.0, 0.0, 0.0], [0.0, 0.0, 1.0, 0.0], [0.0, 1.0, 0.0, 0.0], [0.0, 0.0, 0.0, 1.0]], "ndc": false, "0_weights": [[0.6109001636505127, -0.003996923565864563, -0.4886913001537323, 0.09491384774446487, -0.18963925540447235, -0.11473367363214493, -0.313321053981781, 0.10444055497646332, 0.30346792936325073, 0.2414950132369995, 0.06627030670642853, -0.16845674812793732, -0.005211474373936653, 0.1809898167848587, 0.4925229549407959, 0.017105435952544212], [-0.23143240809440613, 0.3004921078681946, 0.04366942122578621, -0.09820892661809921, -0.0285597275942564, -0.4335966110229492, -0.43558597564697266, 0.06776575744152069, 0.27392491698265076, -0.34587472677230835, -0.07549599558115005, 0.11351703852415085, 0.22200284898281097, 0.4967692196369171, 0.09172248095273972, 0.4936327636241913], [0.20261220633983612, -0.19661544263362885, 0.05793919414281845, 0.5250588059425354, -0.06801502406597137, 0.2156939059495926, 0.2584323287010193, -0.02250339277088642, -0.185669407248497, 0.33945760130882263, 0.1391698569059372, 0.07723776251077652, -0.369808167219162, -0.5170934796333313, -0.029410602524876595, -0.3021215498447418], [0.5582325458526611, -0.22913621366024017, -0.23308753967285156, 0.19536198675632477, -0.23220814764499664, 0.19105546176433563, 0.1702825278043747, 0.2503712475299835, 0.5866032838821411, 0.18875019252300262, -0.2688509523868561, -0.2443591058254242, -0.2388923317193985, 0.20276133716106415, 0.06301560252904892, 0.16994069516658783], [-0.15600033104419708, -0.1937500685453415, 0.3231843411922455, 0.18959298729896545, 0.3366023898124695, -0.4251713156700134, -0.08267783373594284, 0.13761991262435913, -0.11217452585697174, 0.0577845573425293, 0.12051654607057571, 0.012824536301195621, -0.07477953284978867, 0.16541357338428497, 0.2760775089263916, -0.05199851095676422], [-0.033177174627780914, -0.16822634637355804, 0.10020869970321655, -0.14300741255283356, -0.20708906650543213, -0.027479540556669235, -0.34223422408103943, -0.09153839200735092, 0.2679850459098816, -0.23627212643623352, -0.11596463620662689, -0.04598880186676979, 0.15662886202335358, -0.15882036089897156, -0.309769868850708, -0.23966509103775024], [0.07729962468147278, 0.08768393844366074, 0.13329535722732544, 0.3752272427082062, 0.1645883172750473, 0.17927414178848267, -0.3501277267932892, 0.14264611899852753, 0.16485190391540527, -0.23484861850738525, 0.11463417857885361, -0.20742619037628174, -0.09818686544895172, 0.14251217246055603, 0.2049187570810318, 0.3067341148853302], [0.03570030629634857, 0.22141125798225403, 0.3268074095249176, -0.35002365708351135, 0.04632224142551422, 0.17591944336891174, -0.44950664043426514, -0.044402286410331726, -0.2077323943376541, -0.2515360713005066, 0.04698576405644417, 0.30617111921310425, 0.23351943492889404, 0.5395663976669312, -0.1011643335223198, 0.21612603962421417], [-0.41156819462776184, -0.024132484570145607, 0.22627872228622437, 0.39878565073013306, 0.07065506279468536, 0.009052170440554619, -0.10047105699777603, 0.09287064522504807, -0.1815580278635025, 0.14738142490386963, -0.028184525668621063, 0.04988962411880493, -0.04447675868868828, 0.11517992615699768, -0.13779105246067047, -0.02955116145312786], [0.12227460741996765, -0.13399291038513184, 0.172572523355484, -0.3145641088485718, 0.21894903481006622, 0.18477606773376465, -0.4834139943122864, 0.0045027052983641624, 0.10189338028430939, -0.0063005066476762295, -0.13543559610843658, 0.13979586958885193, 0.11595742404460907, -0.3987061679363251, 0.21099530160427094, -0.4512178301811218], [-0.2673538625240326, 0.08965697884559631, -0.33020952343940735, 0.08912122994661331, 0.039771150797605515, 0.09755285084247589, 0.06239912658929825, 0.16945384442806244, 0.10799885541200638, 0.25484713912010193, -0.11727382242679596, -0.1824386715888977, -0.10202840715646744, -0.17141486704349518, 0.08693702518939972, -0.12330364435911179], [0.055046938359737396, 0.13504253327846527, 0.0002605486079119146, -0.059569038450717926, -0.08060486614704132, -0.34084799885749817, -0.03946558013558388, 0.18375052511692047, -0.1529444307088852, 0.09240860491991043, 0.2247709482908249, 0.16958755254745483, 0.03188946470618248, 0.48581254482269287, 0.0919422060251236, 0.3502638339996338], [0.10605388134717941, -0.23051421344280243, 0.022873390465974808, 0.7316290140151978, 0.25179144740104675, 0.04807991161942482, -0.22877584397792816, -0.11189690232276917, 0.04360511526465416, -0.00723794661462307, -0.006241681985557079, -0.07820358872413635, -0.008189267478883266, -0.46095210313796997, 0.14668966829776764, -0.24040910601615906], [-0.09554047137498856, 0.14657087624073029, 0.12464893609285355, 0.5337713360786438, 0.05042878910899162, -0.09091473370790482, -0.12286059558391571, -0.21402569115161896, -0.018396703526377678, -0.01067678164690733, 0.18071100115776062, 0.03208759054541588, -0.023217953741550446, 0.026096690446138382, -0.040000006556510925, 0.018714826554059982], [-0.013433931395411491, -0.11022261530160904, -0.10400226712226868, 0.097025565803051, 0.1916780322790146, -0.03801868483424187, 0.006389540620148182, 0.36188793182373047, -0.020289093255996704, 0.13295923173427582, -0.0562296137213707, -0.020603317767381668, 0.04447173327207565, -0.1911599040031433, -0.10090374946594238, -0.07542800158262253], [0.40890321135520935, 0.2535640299320221, 0.24474860727787018, -0.4449308216571808, -0.34128665924072266, 0.45449212193489075, 0.3431415259838104, -0.2043236792087555, -0.2809663712978363, -0.19402068853378296, 0.2208157777786255, -0.059372447431087494, -0.10908639430999756, 0.49460163712501526, -0.23444119095802307, -0.24776671826839447], [-0.1421993225812912, -0.152548149228096, 0.2543235719203949, -0.35521915555000305, -0.1446194052696228, 0.10851345956325531, 0.3913889229297638, -0.24214287102222443, -0.2234642058610916, -0.40760481357574463, 0.06517262011766434, 0.3484772741794586, -0.19977083802223206, 0.4609415531158447, 0.1643955260515213, -0.08354842662811279], [-0.05119206756353378, -0.2421184927225113, -0.3252299726009369, 0.12410983443260193, -0.393411248922348, 0.37183934450149536, 0.1470857560634613, -0.1943638026714325, -0.2935046851634979, 0.13356532156467438, 0.3333735466003418, 0.007118473760783672, 0.30152004957199097, -0.05420881137251854, 0.1044035479426384, -0.3927653133869171], [0.30201736092567444, 0.21688221395015717, -0.27772095799446106, -0.07632318139076233, 0.20323613286018372, 0.24622894823551178, -0.17058995366096497, -0.1622641235589981, -0.5835074186325073, 0.3253845274448395, -0.11708753556013107, 0.025564176961779594, 0.11514695733785629, -0.011678941547870636, 0.0019385182531550527, 0.1855097860097885], [-0.09514743834733963, 0.23881393671035767, 0.2503530979156494, -0.6055322289466858, 0.20021910965442657, -0.07752152532339096, -0.06257488578557968, 0.1221979558467865, 0.16245265305042267, -0.042639635503292084, -0.15567927062511444, 0.00020249189401511103, 0.20696650445461273, -0.14050798118114471, -0.2448549121618271, 0.3636840879917145], [-0.09831389784812927, 0.22024838626384735, -0.14447134733200073, -0.33354076743125916, -0.333137184381485, -0.053497862070798874, 0.21385958790779114, -0.17655938863754272, -0.019860371947288513, 0.026897119358181953, 0.25128281116485596, 0.21994014084339142, -0.0787518247961998, -0.2716008722782135, 0.5123394131660461, -0.04687560722231865], [0.515497088432312, -0.14449483156204224, -0.03639718517661095, 0.03430658206343651, 0.20635336637496948, 0.04066212847828865, -0.1457875519990921, 0.09816471487283707, -0.12639488279819489, 0.04328446462750435, 0.030973874032497406, -0.11585863679647446, 0.02881036140024662, -0.2191600799560547, 0.14377060532569885, -0.08435851335525513], [-0.19616317749023438, -0.15761122107505798, -0.16811497509479523, 0.13895629346370697, -0.15365971624851227, -0.06010909751057625, -0.28771933913230896, -0.1583031713962555, -0.14891470968723297, 0.014973029494285583, 0.27576348185539246, -0.08389396965503693, -0.12715284526348114, -0.02497081831097603, 0.10428915917873383, -0.030919959768652916], [0.19005008041858673, -0.37700536847114563, -0.0456373393535614, -0.21248117089271545, 0.03654712438583374, 0.0912908986210823, 0.5634593963623047, 0.3178118169307709, 0.15379995107650757, 0.1326214224100113, 0.3000222146511078, -0.44609346985816956, 0.01385316252708435, 0.03741823881864548, -0.14520078897476196, -0.047839269042015076], [-0.36964109539985657, 0.1716572791337967, -0.09887922555208206, -0.4795951843261719, -0.1760118007659912, -0.08881647139787674, 0.1415022313594818, -0.1101890504360199, -0.20050762593746185, -0.03193482756614685, -0.013021511025726795, 0.0042511094361543655, -0.06098117679357529, 0.3698980510234833, -0.04834168776869774, 0.2811970114707947], [-0.29770103096961975, 0.13834507763385773, -0.027163490653038025, 0.5910035371780396, -0.17596973478794098, -0.026806624606251717, -0.002786052878946066, -0.26389041543006897, -0.040837038308382034, 0.022841455414891243, 0.035368356853723526, -0.004937289282679558, -0.05524684861302376, 0.16233812272548676, -0.06639567762613297, 0.11446802318096161], [-0.21719549596309662, 0.2876661419868469, 0.07395732402801514, 0.7630613446235657, -0.03042379952967167, -0.05215441808104515, -0.19246584177017212, -0.1529417186975479, 0.06507862359285355, 0.012773116119205952, 0.3121139705181122, -0.101176917552948, -0.05766323581337929, 0.2480047047138214, 0.030345458537340164, 0.12217109650373459], [-0.7060517072677612, -0.3087909519672394, 0.7230130434036255, 0.3326839506626129, 0.35613173246383667, -0.08819981664419174, -0.1521221399307251, -0.4033483564853668, -0.11595319211483002, 0.47520574927330017, 0.4129781424999237, 0.3594531714916229, 0.2148735672235489, 0.3082125186920166, 0.7749378085136414, 0.4903763234615326], [-0.5358661413192749, -0.18659256398677826, 0.005229757633060217, -0.13731148838996887, 0.35705968737602234, 0.018398748710751534, 0.28454726934432983, -0.20955632627010345, -0.3412512540817261, 0.6451921463012695, 0.27550050616264343, 0.40694791078567505, -0.07644344121217728, 0.03388071805238724, 0.24012601375579834, 0.4736892282962799], [-0.7370387315750122, -0.34115809202194214, -1.4776296615600586, 0.5010050535202026, 0.3905702829360962, 0.27903658151626587, -0.21035033464431763, 0.013572401367127895, -0.6453884840011597, 0.7458672523498535, 0.049426399171352386, 0.5232579112052917, 0.24895881116390228, 0.888369083404541, 0.0791652724146843, 0.010603341273963451], [-0.7102659940719604, -0.11511660367250443, 0.3111332356929779, 0.34703463315963745, 0.5225182771682739, 0.5274930596351624, 0.35089781880378723, 0.01076147798448801, 0.6760410070419312, -0.29568225145339966, 0.4195692837238312, 0.12636102735996246, 0.1810692697763443, 1.2801945209503174, 1.2284730672836304, 0.05354363098740578], [-0.4519272744655609, -0.4629325270652771, 0.3483709990978241, 0.029686560854315758, 0.9060882329940796, 0.24134714901447296, -0.2920466363430023, -0.48623546957969666, 0.580337405204773, -0.4247409999370575, 0.07000904530286789, -0.09423749893903732, -0.5143561959266663, 0.7749643921852112, 0.458282470703125, 0.6046013832092285], [0.3945970833301544, 0.04008486866950989, -0.11870016157627106, -0.535577654838562, -0.005436882376670837, 0.9300603866577148, 0.3569168150424957, 0.27741706371307373, 0.4074742794036865, -0.9299593567848206, 0.3992302119731903, -0.5454700589179993, -0.6081423759460449, 0.2322838008403778, -1.1583988666534424, 0.540169894695282], [-1.407880425453186, 0.47363802790641785, 0.4084588885307312, -0.44665729999542236, -0.16670523583889008, -0.2580100893974304, 0.16623279452323914, -0.337309330701828, 0.4093262255191803, 0.2900114357471466, -0.36740538477897644, -0.660703718662262, 0.7574285268783569, -0.4570285677909851, 0.1700119972229004, -0.4020569920539856]], "1_weights": [[-0.3654162287712097, -0.3535580337047577, -0.25010108947753906, -0.34983938932418823, -0.5876676440238953, -0.3077853322029114, -0.20227625966072083, -0.3726823925971985, -0.5556654334068298, -1.272602915763855, 0.19527257978916168, -0.5476267337799072, -0.16054974496364594, 0.17938105762004852, 0.15261976420879364, -0.5493127703666687], [0.34947729110717773, 0.10970532894134521, 0.22742074728012085, 0.7263054847717285, -0.09105245023965836, -0.20980191230773926, -0.14498130977153778, 0.3933124244213104, -0.17239288985729218, 0.22637303173542023, -0.2492937594652176, -0.20004957914352417, 0.40078532695770264, 0.1895131915807724, 0.00020329946710262448, 0.22276756167411804], [-0.4075523316860199, 0.47372981905937195, 0.5887455344200134, -0.014936914667487144, 0.12824368476867676, -0.016641836613416672, 0.3242637515068054, 0.6292383670806885, 0.3182762563228607, 0.4710395932197571, -0.032755523920059204, 0.22552302479743958, -0.4643985331058502, -0.24842636287212372, -0.21819305419921875, -0.12524691224098206], [1.1266218423843384, -0.6458181142807007, -0.7313551306724548, 0.03434288129210472, -0.5831502676010132, -0.6796243786811829, -0.45121973752975464, -0.30093833804130554, 0.0954357236623764, -1.474592685699463, 0.31575098633766174, -0.5810956954956055, 0.9291983246803284, -0.04379364103078842, -1.9160743951797485, 0.08920789510011673], [0.07478725165128708, -0.05354171618819237, -0.20013213157653809, 0.0029991837218403816, 0.3737184405326843, 0.01125804241746664, -0.20409643650054932, 0.3309902846813202, 0.7530147433280945, 0.07824992388486862, -0.11009746044874191, 0.2869078516960144, 0.26419201493263245, -0.3601376712322235, -0.4682306945323944, 0.49224382638931274], [-0.172852024435997, 0.17187687754631042, -0.25862589478492737, 0.39508140087127686, 0.3142251670360565, 0.1489374190568924, 0.1512790024280548, -0.08065297454595566, -0.0772407054901123, 0.14555712044239044, -0.3680950105190277, 0.3575434982776642, -0.20385952293872833, -0.4906039535999298, 0.12640345096588135, 0.4158473610877991], [0.04654503986239433, -0.12451660633087158, -0.004637779202312231, 0.15188568830490112, 0.36591628193855286, 0.0599982924759388, 0.1673794835805893, 0.059047430753707886, 0.32537779211997986, 0.5181476473808289, 0.03702931106090546, 0.3986954987049103, -0.6834784746170044, 0.2245686948299408, 0.10796739906072617, -0.17804965376853943], [0.5445361137390137, -0.5418519973754883, 0.38167691230773926, -0.6808276176452637, -0.7953479290008545, -0.6957300901412964, -0.8588526248931885, 0.4626438319683075, 0.34454333782196045, 0.13987714052200317, -0.0811551883816719, -0.4019719958305359, 0.44248825311660767, 0.013388726860284805, 0.32943516969680786, -0.3335556089878082], [-0.15447284281253815, 0.8987478017807007, 0.022106753662228584, 0.3959864675998688, 0.24983340501785278, 0.5023743510246277, 0.5112788081169128, -0.09634263068437576, -0.2506335973739624, 0.7561349868774414, 0.2135772556066513, 0.3682498633861542, 0.22187288105487823, 0.3475598990917206, -0.07158146798610687, 0.44932761788368225], [0.11111708730459213, 0.5670857429504395, -0.13125643134117126, -0.7085544466972351, 0.3629123866558075, 0.36733993887901306, 0.2707609534263611, -0.37761572003364563, -0.1564059555530548, 0.48525142669677734, 0.13960067927837372, 0.5349078178405762, -0.3116162121295929, 0.3966214656829834, -0.5354008674621582, 0.630858302116394], [-0.009766796603798866, -0.09154617041349411, -0.22000938653945923, -0.14966635406017303, -0.06304460763931274, 0.3661932945251465, 0.045570310205221176, -0.5135119557380676, 0.08284451067447662, 0.0038756157737225294, -0.33773431181907654, 0.13695456087589264, 0.16797302663326263, 0.09763530641794205, -0.03925616666674614, -0.07927259057760239], [-0.002406211569905281, 0.49920958280563354, -0.39441123604774475, -0.47582313418388367, 0.6403751373291016, 0.7750046849250793, 0.529763400554657, -0.23307883739471436, 0.0048294756561517715, -0.21187599003314972, -0.0422576405107975, 0.20403867959976196, -0.5323622226715088, 0.6040595173835754, -0.0032218988053500652, 0.20051081478595734], [0.1985369324684143, 0.21006543934345245, 0.48696476221084595, -0.289571076631546, -0.5018844604492188, -0.5167405009269714, 0.1841478943824768, -0.19818313419818878, -0.7513258457183838, 0.36677566170692444, 0.0028826985508203506, -0.0677524134516716, -0.28493183851242065, 0.6039428114891052, 0.4532727301120758, -0.19364987313747406], [0.22245481610298157, 0.40599408745765686, -0.32091015577316284, -0.4259498417377472, 0.5465847849845886, 0.1643574982881546, 0.3535367548465729, 0.14038385450839996, -0.10591471195220947, 0.4952167868614197, -0.414141446352005, 0.2982196807861328, -0.10440467298030853, -0.29363203048706055, 0.3644493818283081, 0.3188432455062866], [0.49212250113487244, 0.22601047158241272, 0.040463678538799286, -0.2771637439727783, -0.0217670276761055, 0.0829368308186531, 0.05007443577051163, -0.7730834484100342, -0.18844598531723022, -0.15656507015228271, -0.30412012338638306, 0.16463419795036316, 0.5457543134689331, 0.632585883140564, -0.3658701479434967, 0.22844600677490234], [-0.03728967532515526, 0.09729485213756561, 0.3587201237678528, 0.20179681479930878, 0.6183499097824097, 0.01627461425960064, 0.2993978261947632, -0.21106135845184326, 0.2821807563304901, 0.4396534562110901, -0.14619959890842438, 0.45121973752975464, -0.15052585303783417, 0.09353849291801453, 0.25135236978530884, 0.34525370597839355]], "2_weights": [[0.605114221572876, 0.5444768667221069, 0.5563932061195374], [0.26456260681152344, -0.4692803621292114, -0.7613650560379028], [-0.3929792046546936, 0.671869158744812, -0.26970812678337097], [-0.9113359451293945, -0.9004453420639038, -1.0203611850738525], [-0.5486998558044434, -0.659139096736908, -0.6226286292076111], [-0.6809796094894409, -0.7536175847053528, -0.19724436104297638], [-0.6244829893112183, 0.06826428323984146, -0.4797019362449646], [0.8536463379859924, 0.8397879600524902, 0.733148455619812], [-0.3231300115585327, -0.5312925577163696, -0.8231614232063293], [0.6842807531356812, 0.6624893546104431, 0.5125336050987244], [0.5250396132469177, 0.14963103830814362, 0.11357483267784119], [-0.30781784653663635, -0.44904428720474243, -0.29358962178230286], [0.5963531732559204, 0.5972961187362671, 0.6479237675666809], [-0.8359274864196777, -0.5787647366523743, -0.16890451312065125], [0.3748983144760132, 0.28848186135292053, 0.6697975397109985], [-0.5013868808746338, 0.009787187911570072, 0.31592294573783875]], "0_bias": [0.14247384667396545, 0.03065396286547184, -0.06301605701446533, -0.1837071180343628, -0.13054949045181274, 0.13304418325424194, 0.1339140087366104, -0.04236603155732155, -0.07640373706817627, -0.13488905131816864, 0.013256733305752277, 0.04470687732100487, 0.04982217773795128, 0.16411420702934265, 0.10252506285905838, -0.0345488041639328], "1_bias": [-0.02195856161415577, 0.1806567907333374, -0.08224106580018997, 0.14294840395450592, 0.09952156990766525, 0.14304178953170776, 0.19404616951942444, 0.04301237314939499, -0.05046117678284645, 0.07789552211761475, -0.01767916977405548, 0.12016696482896805, -0.05853629112243652, 0.011784828267991543, 0.035957857966423035, -0.15534459054470062], "2_bias": [-0.006795938592404127, -0.020083097741007805, -0.23626598715782166], "format": "png"}