{"voxel_size": 0.00425, "block_size": 30, "grid_width": 800, "grid_height": 800, "grid_depth": 800, "atlas_width": 2048, "atlas_height": 2048, "atlas_depth": 32, "num_slices": 8, "min_x": -1.7, "min_y": -1.7, "min_z": -1.7, "atlas_blocks_x": 64, "atlas_blocks_y": 64, "atlas_blocks_z": 1, "input_height": 800.0, "input_width": 800.0, "input_focal": 1492.820323027551, "worldspace_T_opengl": [[-1.0, 0.0, 0.0, 0.0], [0.0, 0.0, 1.0, 0.0], [0.0, 1.0, 0.0, 0.0], [0.0, 0.0, 0.0, 1.0]], "ndc": false, "0_weights": [[-0.23479384183883667, 0.17315319180488586, -0.2632991075515747, -0.18750238418579102, -0.28514841198921204, 0.19350895285606384, -0.21410100162029266, 0.05855346843600273, -0.16715338826179504, -0.21199263632297516, -0.1029244065284729, -0.0890880823135376, -0.04555344209074974, -0.19689533114433289, -0.1344907134771347, -0.08085059374570847], [0.3470275104045868, 0.22027824819087982, 0.2644003629684448, -0.13432663679122925, -0.27386075258255005, -0.26254844665527344, -0.25778305530548096, -0.06123832240700722, -0.3601720631122589, -0.09962328523397446, -0.2563243806362152, -0.0070036533288657665, -0.07389824837446213, -0.04648996889591217, -0.14584122598171234, 0.06725313514471054], [0.02877066843211651, -0.0612206757068634, 0.16213850677013397, 0.2132127285003662, -0.2013196051120758, 0.289409875869751, -0.21317480504512787, 0.11462263017892838, 0.23471184074878693, -0.1572849303483963, 0.015528695657849312, -0.23051679134368896, -0.19445344805717468, 0.0847146138548851, -0.28584760427474976, -0.31688567996025085], [-0.019816730171442032, -0.029174620285630226, -0.24600136280059814, 0.14731578528881073, -0.25142475962638855, -0.21492116153240204, -0.23196889460086823, 0.20479626953601837, 0.34800583124160767, -0.21085013449192047, -0.3207050561904907, -0.13119660317897797, 0.12399233132600784, -0.17291538417339325, 0.023002445697784424, -0.12997478246688843], [-0.023607786744832993, 0.1619291752576828, -0.04448597505688667, 0.12672483921051025, 0.15859530866146088, 0.1840021312236786, 0.2932056188583374, 0.3129595220088959, 0.2255413830280304, -0.20630289614200592, -0.08731325715780258, 0.15069079399108887, 0.00944327563047409, -0.09042642265558243, -0.22983704507350922, 0.12898148596286774], [-0.07000438123941422, -0.08500086516141891, -0.33704155683517456, -0.2061973363161087, 0.28828778862953186, -0.24590425193309784, 0.33433255553245544, -0.18526051938533783, -0.3211873769760132, -0.10230730473995209, 0.15506598353385925, 0.18874432146549225, -0.07338786870241165, -0.09282929450273514, -0.262439489364624, -0.011226115748286247], [-0.22977277636528015, 0.22910192608833313, -0.25731879472732544, 0.07808692753314972, -0.1434638649225235, 0.15851643681526184, 0.36171895265579224, -0.18138964474201202, 0.0710902288556099, -0.107490174472332, -0.12073533982038498, 0.1801484227180481, 0.06205624341964722, 0.1907336264848709, 0.12712670862674713, -0.08764614909887314], [-0.26649653911590576, -0.23325659334659576, 0.01147290039807558, -0.1363893300294876, -0.1406126171350479, 0.10256501287221909, -0.1914115995168686, 0.032264336943626404, 0.17349426448345184, 0.1186332032084465, 0.30191412568092346, -0.20800162851810455, 0.15191543102264404, 0.23071947693824768, -0.2541072368621826, -0.12994199991226196], [0.23194769024848938, 0.2589101493358612, -0.2958538234233856, 0.04638909548521042, -0.1293024867773056, -0.18707653880119324, -0.0826105996966362, -0.07491730153560638, 0.21803471446037292, 0.012717261910438538, -0.3076333999633789, 0.23477999866008759, -0.007666717749089003, -0.14049793779850006, -0.006938805803656578, 0.08386935293674469], [0.0026252944953739643, 0.1844167411327362, -0.16581322252750397, 0.0950283408164978, -0.09481345862150192, -0.2196817696094513, -0.0428662933409214, 0.22032761573791504, -0.049106333404779434, 0.16082367300987244, 0.0371941439807415, 0.07967647165060043, 0.22332406044006348, 0.07126329839229584, -0.01619480550289154, 0.18283425271511078], [0.011349188163876534, 0.17517410218715668, -0.22879134118556976, -0.11217544972896576, 0.22293703258037567, -0.17367100715637207, 0.04016854614019394, 0.08048690855503082, -0.15989407896995544, -0.1110975369811058, 0.060034655034542084, 0.09395235031843185, -0.08878886699676514, -0.028998950496315956, 0.20626001060009003, 0.005371099803596735], [-0.11749540269374847, -0.08030563592910767, 0.26147550344467163, -0.11156018823385239, 0.015336642041802406, 0.19837041199207306, 0.13560019433498383, 0.14798766374588013, -0.09025059640407562, 0.2404889315366745, -0.051487214863300323, 0.11622577905654907, 0.12774591147899628, 0.008067702874541283, 0.2737286388874054, 0.09726613014936447], [0.10113760083913803, -0.15008623898029327, 0.019725104793906212, 0.08429589122533798, -0.044483162462711334, 0.09164156019687653, -0.004254200030118227, -0.1936197727918625, -0.13754624128341675, 0.1726895421743393, 0.11019869893789291, -0.136037215590477, -0.09728255867958069, 0.1302335113286972, 0.21101579070091248, -0.015151209197938442], [-0.15500685572624207, -0.16129638254642487, 0.034913320094347, -0.04374922811985016, -0.1293105036020279, -0.09186192601919174, 0.1471167951822281, 0.07099378854036331, 0.164729505777359, 0.03694731369614601, -0.23345038294792175, 0.22616668045520782, 0.27244076132774353, -0.15560191869735718, 0.14554350078105927, 0.16202706098556519], [0.19324257969856262, -0.11748544871807098, -0.07589053362607956, 0.08048362284898758, -0.06128964573144913, 0.20112156867980957, -0.22800210118293762, 0.17376254498958588, -0.033025629818439484, -0.19655415415763855, 0.005215133540332317, -0.12387256324291229, -0.1461266428232193, -0.08223053067922592, 0.10016342252492905, 0.05502154305577278], [-0.07181517034769058, -0.3358592391014099, -0.35654816031455994, -0.313385546207428, 0.31366169452667236, 0.01833021268248558, -0.06510370224714279, 0.23833994567394257, 0.3618835508823395, 0.1806846261024475, -0.2475605309009552, 0.07221712917089462, 0.3232823610305786, -0.3011578321456909, 0.00897806417196989, 0.30207008123397827], [0.1497068554162979, 0.09014055877923965, -0.3232913613319397, 0.2562350630760193, 0.07194436341524124, 0.0562966912984848, 0.2805624008178711, 0.23151575028896332, -0.14952348172664642, 0.24521376192569733, 0.2295549362897873, -0.22077760100364685, -0.21974870562553406, 0.2865975797176361, 0.17821867763996124, -0.20626357197761536], [-0.0792199969291687, 0.06721176952123642, -0.18270336091518402, 0.18218819797039032, 0.3023645281791687, 0.16966333985328674, 0.355140745639801, 0.15232397615909576, -0.027319831773638725, 0.29867416620254517, 0.34336748719215393, -0.010818679817020893, 0.1766970306634903, -0.03267153352499008, -0.2375219762325287, 0.22615046799182892], [0.04047266021370888, 0.3413030207157135, 0.14136762917041779, 0.23972192406654358, -0.1591515690088272, 0.12858958542346954, 0.19004257023334503, 0.3181597590446472, 0.2722793519496918, -0.18947044014930725, 0.012441305443644524, -0.0777769610285759, 0.11378664523363113, -0.3444788455963135, 0.20751862227916718, 0.003802461316809058], [-0.055063411593437195, 0.1767285168170929, -0.3616660535335541, 0.3658137321472168, -0.04698098450899124, 0.16623322665691376, -0.23995521664619446, -0.005112665705382824, 0.06248970702290535, -0.1491420716047287, -0.03019704855978489, -0.28042683005332947, 0.015992706641554832, 0.2447468489408493, 0.177984356880188, 0.33416834473609924], [0.28553494811058044, 0.1414278745651245, -0.03239507973194122, 0.07622108608484268, 0.14953671395778656, -0.19038043916225433, 0.14666447043418884, 0.11369442939758301, 0.09033198654651642, 0.23084957897663116, 0.045118335634469986, -0.16209228336811066, 0.1941569596529007, 0.13881419599056244, -0.15663085877895355, -0.09481240063905716], [-0.1488269716501236, -0.10338933020830154, -0.2320626676082611, 0.0755077451467514, -0.04624469578266144, 0.19313105940818787, -0.016697101294994354, -0.06364975869655609, -0.04655628651380539, -0.3697308599948883, -0.2216852754354477, 0.21778236329555511, 0.0005079072434455156, 0.11307898908853531, 0.16812214255332947, 0.04973958432674408], [0.1384800672531128, -0.12760356068611145, -0.061884619295597076, -0.3000998795032501, -0.14017333090305328, 0.00014925585128366947, 0.2539786398410797, -0.17048552632331848, -0.013096574693918228, -0.14337117969989777, -0.07419946789741516, 0.20795376598834991, -0.1069113165140152, -0.20681218802928925, -0.13971559703350067, -0.18153685331344604], [-0.1788150519132614, 0.11734246462583542, 0.12676739692687988, -0.0661683976650238, -0.020874598994851112, -0.09104851633310318, 0.0035138779785484076, -0.1783234030008316, 0.11162636429071426, 0.25452131032943726, -0.11617932468652725, 0.27570438385009766, 0.04941624402999878, -0.07093910127878189, 0.1532941311597824, -0.006524458061903715], [0.11774081736803055, -0.11781046539545059, 0.02274579368531704, 0.08635953813791275, 0.27799373865127563, 0.18094831705093384, 0.03718547523021698, 0.218226820230484, -0.17244844138622284, 0.1730339080095291, 0.10759023576974869, -0.20016644895076752, 0.04581981524825096, 0.120961993932724, 0.09637592732906342, 0.21280470490455627], [-0.091507688164711, -0.14076317846775055, -0.024380698800086975, 0.22761233150959015, 0.08612851798534393, 0.06577125936746597, 0.0645676851272583, 0.009903674013912678, -0.19962860643863678, -0.031409572809934616, -0.012496442534029484, -0.3135416507720947, 0.08321349322795868, -0.0957641527056694, 0.18584874272346497, -0.07741466164588928], [0.04944101348519325, -0.04640650004148483, -0.13242757320404053, -0.18188007175922394, 0.1726738065481186, 0.07813523709774017, 0.1768488585948944, 0.14590045809745789, -0.2462020069360733, 0.07453340291976929, -0.06376975029706955, -0.033838916569948196, -0.07968304306268692, -0.0010240270057693124, 0.23030251264572144, -0.07210242003202438], [0.4533807337284088, -0.2173343002796173, 0.352597713470459, -0.10266567021608353, -0.2918645143508911, -0.3176537752151489, 0.29879090189933777, 0.15612287819385529, 0.2809412181377411, 0.1522202491760254, 0.2613816559314728, -0.2862272262573242, -0.3828621804714203, 0.41883930563926697, 0.2366228997707367, -0.2935888171195984], [0.3078269958496094, 0.097071573138237, 0.33313488960266113, 0.07474880665540695, -0.3319123089313507, -0.3826298415660858, 0.3773591220378876, 0.2654201090335846, 0.20271660387516022, -0.0731651708483696, 0.20880843698978424, 0.1480007767677307, -0.2656571567058563, 0.13643859326839447, -0.10136033594608307, -0.18013662099838257], [0.2379910945892334, -0.06108403950929642, -0.020695026963949203, 0.03755853697657585, -0.24151179194450378, -0.16198240220546722, -0.04257440194487572, 0.3500519096851349, 0.5441277027130127, 0.14967867732048035, 0.5014322400093079, 0.10147963464260101, 0.13971339166164398, 0.22834976017475128, 0.38241857290267944, 0.04664454981684685], [-0.47949889302253723, 0.016852548345923424, -0.44759127497673035, -0.4968961477279663, 0.45380672812461853, -0.09626592695713043, -0.4274176061153412, -0.30413830280303955, -0.4806272089481354, -0.13905613124370575, -0.10471202433109283, -0.30075526237487793, 0.07693835347890854, 0.17769894003868103, -0.28234153985977173, 0.45159342885017395], [-0.2493187040090561, -0.09992519021034241, 0.11839301884174347, -0.2384171485900879, 0.20234061777591705, -0.14046600461006165, -0.4510175585746765, -0.45552363991737366, 0.13533863425254822, -0.12671592831611633, -0.09670095145702362, -0.14114955067634583, 0.49753597378730774, -0.10799837112426758, -0.2276241034269333, 0.5044119954109192], [-0.2060733139514923, -0.29871565103530884, -0.3153238296508789, 0.2275295853614807, -0.1815234124660492, 0.018990034237504005, 0.05359385907649994, 0.26444709300994873, 0.13461647927761078, -0.2992739975452423, 0.016789807006716728, 0.30358031392097473, -0.16214445233345032, 0.31402966380119324, 0.008735590614378452, 0.14675790071487427], [-0.4109514653682709, 0.3494497537612915, -0.2778158485889435, -0.1303025633096695, -0.15185847878456116, -0.29222288727760315, -0.031572047621011734, -0.45412150025367737, 0.00314392545260489, -0.34540867805480957, 0.08872684836387634, -0.17190080881118774, -0.08342169970273972, 0.0060175624676048756, -0.3618343770503998, 0.21056632697582245]], "1_weights": [[0.1485423743724823, -0.20362378656864166, 0.26639655232429504, 0.0728682279586792, 0.11723995208740234, 0.3229601979255676, -0.33918336033821106, -0.07445008307695389, 0.49248772859573364, 0.02850693091750145, -0.3130401074886322, 0.32644134759902954, -0.4368239939212799, 0.13171866536140442, -0.05357549339532852, 0.010261728428304195], [-0.14226102828979492, 0.04288957267999649, -0.3278212249279022, -0.07566879689693451, 0.2074250876903534, -0.4086650013923645, -0.3381124436855316, -0.062109701335430145, -0.32701924443244934, -0.1380012184381485, -0.11173299700021744, 0.04639890417456627, 0.09148885309696198, -0.3153823912143707, -0.19280114769935608, -0.014257038943469524], [-0.27776429057121277, 0.270882785320282, 0.0043019759468734264, -0.09289409220218658, 0.442290335893631, 0.20968671143054962, 0.27297940850257874, -0.021730290725827217, 0.06309333443641663, -0.25325167179107666, -0.018574519082903862, 0.2113436758518219, 0.1174037829041481, 0.3717334568500519, -0.253578782081604, 0.08722609281539917], [0.20747165381908417, -0.02550380304455757, 0.14367014169692993, -0.01334391999989748, -0.40906545519828796, 0.0967642292380333, 0.2973664402961731, 0.2466488629579544, 0.44948893785476685, 0.26513364911079407, 0.008273759856820107, -0.09786120057106018, 0.3256660997867584, 0.39504092931747437, -0.47142544388771057, 0.09358774870634079], [0.06023361161351204, 0.10658985376358032, -0.30731797218322754, 0.3499982953071594, -0.020747246220707893, 0.030950820073485374, -0.3390425443649292, -0.339601993560791, -0.5371149182319641, 0.14939767122268677, -0.20428520441055298, 0.27866899967193604, 0.10336749255657196, -0.5429515242576599, 0.047537315636873245, -0.19921395182609558], [-0.24719612300395966, 0.07233410328626633, 0.023251431062817574, -0.27022480964660645, 0.15203022956848145, -0.020436953753232956, -0.06050814688205719, 0.08512044697999954, 0.42338278889656067, 0.056494973599910736, -0.023211663588881493, 0.005803790409117937, -0.1121438592672348, -0.12867993116378784, -0.16976676881313324, 0.31261831521987915], [0.4830189049243927, -0.2143852710723877, 0.1456199735403061, -0.2627292573451996, -0.0013959896750748158, 0.45724236965179443, 0.18420833349227905, 0.5675935745239258, 0.452939510345459, 0.4574715495109558, 0.2562021315097809, 0.44148215651512146, -0.32672014832496643, -0.036276962608098984, -0.042120158672332764, 0.39940500259399414], [0.4115971028804779, -0.14809049665927887, 0.5219459533691406, -0.1555359810590744, -0.05384848266839981, 0.016600800678133965, 0.1824740320444107, 0.6328544616699219, 0.13475815951824188, -0.20338527858257294, -0.12896354496479034, 0.0927172526717186, -0.24008114635944366, 0.6460964679718018, 0.19210359454154968, 0.0764685645699501], [0.281046986579895, -0.2173028588294983, 0.05359121412038803, -0.0758260041475296, -0.08640630543231964, 0.4177325367927551, -0.15527667105197906, 0.5498599410057068, -0.04677431285381317, -0.07611387968063354, 0.24429337680339813, 0.17551754415035248, -0.16194699704647064, 0.3245086371898651, -0.18181642889976501, 0.005673540756106377], [0.2208085060119629, 0.0042924475856125355, -0.13635827600955963, 0.3230695426464081, -0.1663934886455536, -0.2246025949716568, 0.24480344355106354, 0.19130036234855652, 0.022977950051426888, 0.19519169628620148, -0.4864601492881775, 0.32572486996650696, -0.40688616037368774, 0.1222972422838211, 0.02235494554042816, 0.1563778668642044], [0.32370781898498535, -0.3621642291545868, 0.32928556203842163, -0.12412752956151962, 0.15687735378742218, 0.2746391296386719, -0.268536776304245, 0.48817944526672363, 0.3323667347431183, -0.05028034374117851, 0.16874919831752777, 0.04984826222062111, -0.2027955800294876, 0.23012962937355042, 0.2260430008172989, 0.11217185109853745], [-0.168885737657547, 0.13565446436405182, -0.14793309569358826, 0.20266705751419067, 0.11405748128890991, 0.007933467626571655, 0.3062005043029785, -0.32326820492744446, -0.007168583571910858, -0.23014338314533234, -0.3169463872909546, 0.015776174142956734, 0.09172501415014267, 0.2799068093299866, -0.2673403322696686, -0.10007380694150925], [-0.14735254645347595, -0.3008716106414795, -0.3233776390552521, 0.10445118695497513, -0.023672930896282196, 0.047570377588272095, -0.4014703929424286, -0.2494732141494751, -0.15577149391174316, 0.058040570467710495, -0.3777211010456085, -0.028236323967576027, -0.3337401747703552, -0.40150997042655945, -0.1372913271188736, 0.21501301229000092], [0.036914121359586716, -0.008383150212466717, -0.11452575027942657, 0.08395027369260788, -0.22000187635421753, -0.05015351250767708, -0.06737323105335236, -0.06272906810045242, -0.12355083972215652, 0.22713540494441986, -0.4383299648761749, -0.07251425832509995, -0.25879406929016113, 0.30777493119239807, -0.16893400251865387, 0.22835703194141388], [0.22713908553123474, -0.33200791478157043, 0.24412907660007477, 0.33631590008735657, -0.38466131687164307, 0.5430922508239746, -0.10847952961921692, 0.13216765224933624, 0.17677420377731323, -0.08439527451992035, 0.082645483314991, 0.42675507068634033, -0.07264319807291031, -0.15259596705436707, -0.22329285740852356, 0.16636644303798676], [-0.07953963428735733, 0.136122465133667, -0.48066142201423645, -0.03481354936957359, 0.15879595279693604, -0.41111859679222107, -0.2003239244222641, -0.1297803521156311, -0.3475911617279053, -0.035589493811130524, -0.024826863780617714, -0.22303488850593567, -0.23324239253997803, -0.3687947988510132, 0.016500309109687805, -0.38827478885650635]], "2_weights": [[-0.6540354490280151, 0.032484445720911026, -0.04001808911561966], [0.43596726655960083, 0.09406006336212158, 0.20061703026294708], [-0.4895397424697876, -0.2718190848827362, 0.02960473857820034], [0.5795055031776428, -0.2148820459842682, 0.5268468856811523], [0.20466198027133942, 0.0812690407037735, 0.18472270667552948], [-0.06835868209600449, -0.6211355328559875, -0.5784845948219299], [0.2664157450199127, 0.02990034408867359, 0.26298803091049194], [-0.24305763840675354, -0.8515341877937317, -0.6322593092918396], [-0.7026297450065613, -0.8284339904785156, -0.2647242844104767], [0.3557378053665161, 0.007617228198796511, -0.20805397629737854], [0.396438866853714, 0.2545979917049408, 0.32056355476379395], [-0.515377938747406, 0.09832963347434998, -0.4601484537124634], [-0.09981399774551392, -0.2757115364074707, 0.26585978269577026], [-0.8079495429992676, -0.531262993812561, -0.7044486403465271], [0.515370786190033, -0.20806460082530975, -0.020065000280737877], [-0.6298474669456482, -0.6576894521713257, 0.13387294113636017]], "0_bias": [0.0681217834353447, -0.07256711274385452, -0.020280001685023308, 0.013122056610882282, 0.07520662993192673, -0.08860478550195694, 0.08107312768697739, 0.09700018167495728, 0.05149667337536812, 0.03357695788145065, 0.07212470471858978, -0.14098957180976868, 0.10454164445400238, -0.003057798370718956, 0.011549239978194237, 0.11706951260566711], "1_bias": [0.03534508869051933, -0.08500547707080841, -0.006616675760596991, 0.004314363934099674, -0.05086241662502289, 0.03834812715649605, -0.13766296207904816, 0.04536927491426468, 0.013398856855928898, -0.09259217977523804, -0.18331846594810486, 0.07456738501787186, -0.04818031191825867, 0.02468283474445343, -0.00832351390272379, 0.0268317349255085], "2_bias": [-0.067900650203228, -0.04916643351316452, -0.020590679720044136], "format": "png"}