{"voxel_size": 0.005666666666666666, "block_size": 30, "grid_width": 600, "grid_height": 600, "grid_depth": 600, "atlas_width": 2048, "atlas_height": 2048, "atlas_depth": 64, "num_slices": 16, "min_x": -1.7, "min_y": -1.7, "min_z": -1.7, "atlas_blocks_x": 64, "atlas_blocks_y": 64, "atlas_blocks_z": 2, "input_height": 800.0, "input_width": 800.0, "input_focal": 1492.820323027551, "worldspace_T_opengl": [[-1.0, 0.0, 0.0, 0.0], [0.0, 0.0, 1.0, 0.0], [0.0, 1.0, 0.0, 0.0], [0.0, 0.0, 0.0, 1.0]], "ndc": false, "0_weights": [[0.21318495273590088, 0.09700047969818115, -0.30070045590400696, 0.02314009703695774, -0.28503602743148804, -0.1626310795545578, -0.16479237377643585, 0.026769811287522316, -0.10504299402236938, 0.1505291908979416, 0.12279274314641953, -0.1308402270078659, 0.09404131025075912, -0.009991402737796307, 0.24585570394992828, -0.10736362636089325], [-0.24643997848033905, 0.24285410344600677, -0.07196923345327377, 0.16915318369865417, -0.24672482907772064, -0.2622634470462799, -0.046088963747024536, 0.02499433234333992, 0.25787681341171265, -0.16047972440719604, -0.059630271047353745, -0.09872464090585709, 0.06316041946411133, 0.07893641293048859, 0.10962745547294617, 0.2629891037940979], [0.3089153468608856, -0.10313285887241364, -0.08506413549184799, 0.24848465621471405, -0.09361068904399872, 0.16976068913936615, 0.29391244053840637, -0.13317303359508514, -0.2825566232204437, 0.2647370398044586, -0.012436906807124615, 0.0543263703584671, -0.24960654973983765, -0.3407101631164551, 0.07913210988044739, -0.14831531047821045], [0.17860540747642517, -0.13260121643543243, -0.05835989862680435, 0.11458193510770798, -0.3167667090892792, 0.12813153862953186, 0.32857367396354675, 0.1787799745798111, 0.20463679730892181, 0.12022033333778381, -0.204867422580719, -0.20878322422504425, -0.12690536677837372, 0.030430836603045464, -0.18327945470809937, 0.05430341139435768], [-0.17640875279903412, -0.26291748881340027, 0.23569391667842865, 0.449491947889328, 0.14491239190101624, -0.2585655152797699, 0.28975725173950195, 0.08031144738197327, -0.11589928716421127, 0.22775305807590485, 0.13018186390399933, -0.1968420296907425, -0.2270640730857849, -0.23301804065704346, 0.2837255895137787, -0.2787320911884308], [0.07783471047878265, -0.07338829338550568, -0.04533004388213158, -0.4119584262371063, -0.22671766579151154, -0.06423330307006836, -0.30701911449432373, -0.19580981135368347, 0.17331671714782715, -0.31920352578163147, -0.26689234375953674, -0.08111392706632614, 0.2615806460380554, -0.002883524401113391, -0.21184466779232025, -0.10368368774652481], [-0.241103857755661, 0.17038549482822418, 0.2602563202381134, 0.28679412603378296, 0.11483751237392426, 0.06956082582473755, -0.15560364723205566, 0.08422356098890305, -0.1351686418056488, -0.23781803250312805, 0.19745050370693207, -0.17546400427818298, 0.04755616560578346, 0.036291006952524185, -0.040046583861112595, 0.22892332077026367], [0.009726130403578281, 0.11313978582620621, 0.3311483860015869, -0.12457548826932907, -0.06452912092208862, 0.3177748918533325, -0.1413656324148178, -0.13894611597061157, -0.17325077950954437, -0.13247787952423096, 0.024206319823861122, 0.10676988959312439, 0.10577963292598724, 0.21156087517738342, -0.1166553944349289, 0.0047663552686572075], [-0.2864525318145752, 0.07028758525848389, 0.07489790767431259, 0.15514405071735382, 0.06803713738918304, 0.007189495023339987, -0.06335552036762238, 0.0066491784527897835, -0.27103930711746216, 0.045156870037317276, -0.1713823527097702, -0.022183861583471298, 0.013296779245138168, 0.19511114060878754, -0.07250659912824631, 0.04160518944263458], [0.003753514029085636, -0.1649441421031952, -0.053393930196762085, -0.2740829586982727, 0.29812145233154297, 0.05187258869409561, -0.03577633202075958, 0.08859284967184067, 0.08454538881778717, 0.06514780968427658, -0.1290326714515686, 0.24227657914161682, -0.015145466662943363, -0.11551974713802338, 0.03918597102165222, -0.14245858788490295], [0.05284203588962555, -0.19177834689617157, -0.04373906925320625, -0.12439186125993729, 0.10492463409900665, -0.011671340093016624, -0.08471009880304337, -0.06823130697011948, 0.20496942102909088, 0.086491659283638, -0.3606322407722473, -0.1878320425748825, -0.026997152715921402, -0.07001855969429016, 0.2039860188961029, -0.1355646252632141], [0.04133518040180206, 0.010359427891671658, -0.018514558672904968, -0.11619120836257935, -0.045355841517448425, -0.1165783479809761, 0.09425927698612213, 0.23771274089813232, -0.22121864557266235, 0.04724816232919693, 0.28299352526664734, 0.012485559098422527, -0.008243167772889137, 0.0792672336101532, 0.11072537302970886, 0.08083801716566086], [0.004638538230210543, -0.05120951309800148, -0.0012935585109516978, 0.16176125407218933, -0.13766315579414368, 0.007596801500767469, -0.0002924072905443609, -0.018125660717487335, 0.13312162458896637, 0.028649166226387024, -0.039330702275037766, -0.015696890652179718, -0.01105006504803896, -0.00023083393170963973, -0.015463393181562424, -0.011905365623533726], [0.04664389416575432, 0.05677921697497368, -0.07096298038959503, 0.003841698868200183, 0.031751155853271484, 0.0035723447799682617, 0.0283505916595459, -0.12902915477752686, -0.16659489274024963, -0.009760400280356407, 0.23137110471725464, 0.02337542362511158, 0.012589912861585617, 0.0004609998140949756, -0.047759078443050385, 0.07501651346683502], [-0.020443454384803772, -0.01560302171856165, -0.006949502509087324, -0.01304224506020546, 0.010994992218911648, -0.019266804680228233, 0.02656717784702778, 0.1940731257200241, -0.07393025606870651, 0.03151727840304375, -0.07497121393680573, -0.003403793089091778, 0.010481806471943855, 0.03027970902621746, -0.05142458155751228, 0.004476103000342846], [0.48407962918281555, 0.37778589129447937, 0.4144235849380493, -0.26672232151031494, -0.29624295234680176, 0.2982337474822998, 0.25101855397224426, -0.2153456062078476, -0.1796533614397049, 0.19178126752376556, 0.21400298178195953, -0.03830353543162346, 0.005770430900156498, 0.317094624042511, -0.2968873977661133, -0.12101660668849945], [0.02932148054242134, -0.05301836505532265, 0.4272528886795044, -0.15346841514110565, -0.02087104506790638, -0.0012981412000954151, 0.3011172413825989, -0.2793796956539154, -0.21888399124145508, 0.01358120422810316, 0.056077904999256134, 0.34347131848335266, -0.09848915040493011, 0.34833088517189026, 0.06351914256811142, -0.0027719177305698395], [0.03489180654287338, -0.13660719990730286, -0.09014022350311279, 0.2772146761417389, -0.26484450697898865, 0.23443350195884705, -0.008001165464520454, -0.24738669395446777, -0.2486688494682312, 0.5047348737716675, 0.2964307963848114, 0.02291313000023365, 0.42523878812789917, -0.1458337903022766, 0.041781533509492874, -0.22236268222332], [0.21238529682159424, 0.35120701789855957, -0.18508939445018768, 0.13586220145225525, 0.12111562490463257, 0.05327024310827255, -0.1797410249710083, -0.07395627349615097, -0.33266299962997437, 0.5927063226699829, -0.0947117879986763, 0.08578187972307205, 0.19601044058799744, -0.23820683360099792, -0.02121252566576004, 0.2986469268798828], [0.15309138596057892, 0.2813307046890259, 0.33545738458633423, -0.21121017634868622, 0.4259510040283203, -0.07338836789131165, -0.035836558789014816, 0.0887487381696701, -0.020669307559728622, 0.3845163583755493, -0.1525798887014389, -0.07879693061113358, 0.2698301672935486, -0.18068328499794006, -0.41205936670303345, 0.29103517532348633], [0.04021372273564339, 0.34665927290916443, 0.19537417590618134, -0.08845124393701553, -0.15581078827381134, -0.182425856590271, -0.10676973313093185, -0.2918555438518524, -0.06532623618841171, 0.31539544463157654, 0.12295638769865036, 0.27888819575309753, 0.08195973932743073, -0.15005023777484894, 0.45773908495903015, 0.23000183701515198], [-0.11019493639469147, -0.20329895615577698, 0.09215489029884338, 0.10529317706823349, 0.22432871162891388, -0.05871760845184326, -0.04648216813802719, 0.2727104425430298, 0.45536670088768005, -0.12391278147697449, -0.005499988794326782, 0.15156257152557373, 0.012158248573541641, -0.03929748386144638, 0.10197895765304565, -0.10884609073400497], [-0.2403477430343628, -0.24421679973602295, -0.040464457124471664, 0.4069318473339081, -0.012301385402679443, 0.013376239687204361, -0.07087557017803192, -0.12651070952415466, -0.17749445140361786, 0.15459145605564117, 0.18083637952804565, -0.04487476125359535, 0.00036676196032203734, -0.024946242570877075, 0.2088335156440735, -0.1389351636171341], [0.1015305146574974, -0.20306611061096191, -0.016239266842603683, -0.3137560188770294, 0.1563424915075302, -0.011100801639258862, 0.14879682660102844, 0.2490394413471222, 0.021511293947696686, 0.11984261125326157, 0.019365163519978523, -0.23231486976146698, 0.046872418373823166, 0.07778935879468918, -0.16611306369304657, -0.11390449851751328], [0.012962870299816132, 0.10562607645988464, -0.024671407416462898, -0.11365141719579697, 0.03932011500000954, -0.012928792275488377, -0.021600844338536263, -0.03552156314253807, -0.27134785056114197, -0.03708021342754364, -0.09196405112743378, -0.020452333614230156, 0.023002931848168373, 0.021857114508748055, -0.01910046674311161, 0.026160897687077522], [-0.012007802724838257, 0.07316258549690247, 0.06016034632921219, -0.16290751099586487, 0.06086065247654915, -0.019566457718610764, -0.03127773106098175, -0.17290747165679932, 0.056569043546915054, -0.05853388085961342, -0.04413522779941559, -0.08180259168148041, 0.021938379853963852, 0.04959273710846901, 0.061427053064107895, -0.004707022104412317], [-0.034145571291446686, 0.1339097023010254, -0.004515864420682192, 0.1636708378791809, -0.3093160092830658, -0.021387290209531784, -0.03289913013577461, -0.004981305915862322, -0.00751296803355217, -0.06607989221811295, 0.09078656136989594, 0.051757898181676865, 0.017746927216649055, 0.05095754563808441, 0.03692365810275078, 0.08043840527534485], [-0.35042667388916016, -0.07992587238550186, 0.07767405360937119, -0.06035223230719566, -0.3715779781341553, -0.5955359935760498, -0.5582749843597412, -0.3043833076953888, -0.25504857301712036, -0.15482570230960846, -0.484645277261734, -0.20680174231529236, -0.5726110935211182, 0.25507137179374695, 0.17936041951179504, 0.21943409740924835], [-0.22302426397800446, -0.017989516258239746, -0.15976321697235107, -0.5437345504760742, -0.29334139823913574, -0.4336661994457245, -0.06412910670042038, -0.19817590713500977, -0.18738920986652374, -0.05437812954187393, -0.502125084400177, -0.18121720850467682, -1.0017693042755127, -0.2147061675786972, -0.23273979127407074, 0.3048449158668518], [-0.8038766980171204, -0.0780283734202385, -0.5242834091186523, -0.3522475063800812, -0.28194814920425415, -0.32408738136291504, -0.5596188306808472, 0.03253672644495964, -0.023173846304416656, -0.18297483026981354, -0.8453441858291626, -0.5186008810997009, -0.626459002494812, 0.24385102093219757, -0.21909259259700775, -0.32979705929756165], [-0.6553506851196289, -0.07556821405887604, -0.2478390783071518, 0.009786348789930344, 0.05987926572561264, 0.7432653307914734, 0.795336127281189, -0.06229277700185776, -0.06565810739994049, -0.38881829380989075, -0.25453484058380127, -0.17430661618709564, -0.9848872423171997, 0.08627437800168991, 0.6141863465309143, 0.2990834712982178], [-0.5767953991889954, -0.3586845099925995, -0.2994973957538605, -0.20956328511238098, 0.22432859241962433, 0.31718236207962036, 0.3329790234565735, -0.3855358958244324, -0.6506127715110779, -0.2030031979084015, -0.2431705743074417, -0.15822400152683258, -1.0785316228866577, 0.26448124647140503, 0.40049976110458374, 0.6678209900856018], [-0.38571760058403015, -0.020764894783496857, -0.5179636478424072, -0.3556182384490967, -0.23740749061107635, 0.7150980234146118, 0.5093024373054504, -0.11284854263067245, -0.3373136520385742, -0.3617766797542572, -0.0840410515666008, -0.588507890701294, -1.2348716259002686, 0.5938429832458496, 0.11417850852012634, 0.53790283203125], [-0.793778121471405, 0.2699277997016907, -0.3679156005382538, -0.4760269522666931, -0.5167946815490723, -0.4082983136177063, 0.06705786287784576, -0.08201323449611664, -0.1467502862215042, -0.16974270343780518, -1.0589066743850708, -0.8807059526443481, -0.5418489575386047, 0.6109313368797302, 0.07011624425649643, -0.5444821715354919]], "1_weights": [[-0.6288823485374451, 0.05630403757095337, -0.286292165517807, -0.1442689746618271, -0.003620642237365246, -0.20288322865962982, 0.20761507749557495, -0.2703933119773865, -0.09202698618173599, -0.13832256197929382, 0.5303000211715698, -0.028413262218236923, 0.524506151676178, 0.0952414944767952, 0.08327457308769226, -0.1317703276872635], [0.2107192724943161, 0.07388687133789062, 0.16481901705265045, 0.31486693024635315, 0.009759200736880302, 0.02399669773876667, -0.2241637259721756, 0.29736459255218506, -0.47107091546058655, 0.05409970507025719, 0.29810631275177, -0.10981966555118561, 0.21716301143169403, 0.13955830037593842, -0.11861301213502884, 0.17574352025985718], [-0.271412193775177, 0.25274354219436646, 0.049025095999240875, -0.3321866989135742, 0.0767141655087471, -0.011865181848406792, 0.1924419105052948, 0.017887771129608154, -0.3472515344619751, 0.5296608209609985, 0.5870440602302551, 0.17340385913848877, 0.6289470195770264, 0.11280514299869537, -0.2195611149072647, 0.07458343356847763], [0.0934118703007698, -0.19202181696891785, -0.17375797033309937, 0.30480778217315674, 0.22540757060050964, 0.015113267116248608, -0.21388013660907745, 0.2561049461364746, 0.15238326787948608, 0.023459017276763916, 0.24408701062202454, 0.17001670598983765, 0.06798464059829712, 0.024419177323579788, 0.025479121133685112, 0.08432931452989578], [-0.19242925941944122, -0.14577361941337585, 0.18400444090366364, 0.3163936138153076, 0.3045496642589569, -0.1072077602148056, -0.22663377225399017, 0.09674589335918427, -0.07360336929559708, -0.040615711361169815, 0.21479831635951996, 0.2132698893547058, 0.14866949617862701, -0.2295897752046585, -0.23701442778110504, 0.324550986289978], [-0.08348522335290909, 0.12106461822986603, -0.42080017924308777, 0.1472117155790329, 0.4322485625743866, -0.16959789395332336, 0.10247339308261871, -0.2586192488670349, 0.006546515040099621, -0.03891351446509361, -0.13591532409191132, 0.4017484486103058, -0.65366131067276, -0.041766248643398285, -0.019275078549981117, 0.38095128536224365], [0.10312239080667496, -0.028032924979925156, 0.12143123149871826, 0.07724978029727936, 0.4046170711517334, -0.25059404969215393, 0.13125061988830566, -0.6918736100196838, 0.34437096118927, 0.012657742016017437, 0.006952214986085892, 0.4311976432800293, -0.7144594192504883, 0.18666818737983704, -0.05327850207686424, -0.23197707533836365], [0.468146950006485, -0.19607561826705933, 0.38143545389175415, -0.152476504445076, -0.26732298731803894, -0.18462902307510376, -0.19089552760124207, 0.376535028219223, 0.22269116342067719, -0.17819319665431976, -0.13229553401470184, -0.010061903856694698, 0.05479685589671135, -0.3054427206516266, -0.33262866735458374, -0.07615591585636139], [0.08548475056886673, 0.3831583857536316, 0.196809783577919, -0.1437147706747055, -0.16468265652656555, -0.1257016807794571, -0.015386070124804974, 0.48601317405700684, -0.38573381304740906, 0.125753253698349, 0.32315751910209656, -0.08121277391910553, -0.0285000279545784, 0.1523401439189911, 0.14034320414066315, 0.23356808722019196], [-0.09447037428617477, 0.20454247295856476, -0.27469247579574585, 0.18547913432121277, 0.0116247134283185, -0.08760407567024231, -0.028926897794008255, -0.10642202943563461, -0.6525830626487732, 0.3413558006286621, 0.5108498930931091, 0.1413126438856125, 0.3806087374687195, 0.26860788464546204, 0.14390651881694794, 0.30910831689834595], [-0.08497284352779388, -0.09931458532810211, 0.07370040565729141, 0.009862907230854034, -0.13504016399383545, 0.06571589410305023, 0.005452687852084637, -0.33570748567581177, -0.03104027546942234, -0.264661580324173, 0.12158682942390442, 0.051527269184589386, 0.31292524933815, -0.09379745274782181, -0.19888491928577423, -0.21905434131622314], [0.015073711052536964, -0.03892182558774948, 0.10037755221128464, 0.08406670391559601, 0.20041754841804504, 0.00810838770121336, -0.06609548628330231, -0.17548799514770508, -0.3250989317893982, -0.28720012307167053, 0.298890084028244, -0.1896820217370987, 0.17636917531490326, 0.14153602719306946, -0.07416781038045883, -0.0851740911602974], [-0.8232332468032837, -0.3716980218887329, -0.11658212542533875, -0.2421635091304779, -0.7305538058280945, 0.003736210986971855, -0.10874996334314346, -0.2918717861175537, -0.23403897881507874, 0.8298242688179016, 0.8598161339759827, -0.45614859461784363, 0.6365484595298767, 0.046699028462171555, 1.1632821559906006, -0.1251961588859558], [0.2895427942276001, 0.09251997619867325, -0.31409838795661926, -0.2811053693294525, 0.2755860984325409, 0.2306756228208542, 0.25406086444854736, 0.07090849429368973, -0.07813313603401184, 0.3026847541332245, -0.6140359044075012, -0.03802597522735596, -0.5235605239868164, -0.20952241122722626, 0.29100707173347473, 0.3813179135322571], [0.3180113434791565, 0.13223236799240112, -0.1967606097459793, 0.11979734897613525, 0.08883576840162277, -0.12185712903738022, 0.06560330092906952, -0.4236341714859009, 0.03858795389533043, -0.18029358983039856, -0.0723714828491211, 0.26500847935676575, -0.33117929100990295, 0.13621841371059418, 0.13072872161865234, 0.12931478023529053], [-0.06830623745918274, 0.10334285348653793, 0.145988330245018, 0.2118435651063919, 0.38374412059783936, -0.2643798291683197, 0.027911854907870293, -0.057129886001348495, 0.349834144115448, 0.05926697328686714, 0.22515620291233063, 0.1900826245546341, -0.4959522783756256, 0.3543531894683838, 0.18012815713882446, 0.07533911615610123]], "2_weights": [[0.252240926027298, 0.25927114486694336, 0.18530181050300598], [0.46751829981803894, -0.21949277818202972, -0.4222157597541809], [-0.13633602857589722, 0.42857298254966736, -0.4260508120059967], [0.07462932169437408, 0.07520249485969543, -0.3343179225921631], [-0.4549950659275055, -0.5518942475318909, -0.5095260739326477], [-0.6275993585586548, -0.7676616907119751, -0.40688228607177734], [-0.46884265542030334, 0.21245014667510986, -0.0751771330833435], [-4.580660242936574e-05, -0.042103271931409836, -0.13144226372241974], [-0.9348024129867554, -0.5489866733551025, -0.11681052297353745], [0.4104515612125397, 0.34621939063072205, 0.1862010359764099], [1.3151029348373413, 1.2377058267593384, 1.1123201847076416], [-0.2537672221660614, -0.41002288460731506, -0.27499639987945557], [0.6260858178138733, 0.6837814450263977, 0.8484722971916199], [-0.4003254175186157, 0.01880749501287937, 0.4030147194862366], [0.5450806617736816, 0.24086035788059235, 0.26093387603759766], [-0.3936748206615448, 0.10018066316843033, 0.30506619811058044]], "0_bias": [0.25114497542381287, 0.1405351608991623, 0.1294085532426834, -0.008896701037883759, -0.03510482236742973, -0.0028924886137247086, 0.02103482373058796, -0.07889394462108612, -0.02445496805012226, 0.2586710751056671, -0.004093223717063665, 0.05514725670218468, 0.16200266778469086, 0.03137556090950966, 0.027365343645215034, 0.0913156047463417], "1_bias": [0.1214541494846344, -0.09832143783569336, -0.15009471774101257, 0.044791776686906815, -0.010423805564641953, 0.19203314185142517, -0.05513806268572807, -0.09251182526350021, -0.21449893712997437, 0.08357588201761246, 0.3540493845939636, -0.045671358704566956, -0.01102646067738533, 0.11893809586763382, 0.12954486906528473, -0.014445196837186813], "2_bias": [0.0031042920891195536, 0.06723801046609879, 0.1174607202410698], "format": "png"}