{"voxel_size": 0.00425, "block_size": 30, "grid_width": 800, "grid_height": 800, "grid_depth": 800, "atlas_width": 2048, "atlas_height": 2048, "atlas_depth": 32, "num_slices": 8, "min_x": -1.7, "min_y": -1.7, "min_z": -1.7, "atlas_blocks_x": 64, "atlas_blocks_y": 64, "atlas_blocks_z": 1, "input_height": 800.0, "input_width": 800.0, "input_focal": 1111.1110311937682, "worldspace_T_opengl": [[-1.0, 0.0, 0.0, 0.0], [0.0, 0.0, 1.0, 0.0], [0.0, 1.0, 0.0, 0.0], [0.0, 0.0, 0.0, 1.0]], "ndc": false, "0_weights": [[-0.1828913390636444, 0.13649199903011322, -0.31745514273643494, -0.21703100204467773, -0.2297765612602234, 0.2995699346065521, -0.23955874145030975, 0.04085192084312439, -0.04103569686412811, -0.20776689052581787, -0.012816433794796467, -0.16476652026176453, -0.0755109116435051, -0.22247132658958435, -0.020154427736997604, -0.0915047749876976], [0.3454166054725647, 0.13924476504325867, 0.16008231043815613, -0.1897725760936737, -0.320444792509079, -0.21431471407413483, -0.20694126188755035, -0.10047588497400284, -0.32014548778533936, -0.1214250773191452, -0.23409566283226013, -0.06749685853719711, -0.10224806517362595, 0.06591330468654633, -0.163265198469162, 0.12169259041547775], [0.00015889947826508433, -0.044975150376558304, 0.2824448049068451, 0.14628826081752777, -0.3371701240539551, 0.29782775044441223, -0.24472670257091522, 0.11548135429620743, 0.20131440460681915, -0.17748357355594635, -0.03302828595042229, -0.17303365468978882, -0.18960778415203094, 0.041145116090774536, -0.29072704911231995, -0.36376121640205383], [0.026008939370512962, -0.06407663971185684, -0.29821470379829407, 0.1139015406370163, -0.19140520691871643, -0.09756329655647278, -0.25850385427474976, 0.18458133935928345, 0.47063788771629333, -0.20786955952644348, -0.23133401572704315, -0.1998807191848755, 0.0863034799695015, -0.19643759727478027, 0.13434766232967377, -0.13701912760734558], [-0.02195413038134575, 0.08444152027368546, -0.14792697131633759, 0.07394466549158096, 0.11349035799503326, 0.23260650038719177, 0.3435094654560089, 0.27269992232322693, 0.2635205090045929, -0.2366594672203064, -0.06327902525663376, 0.08832356333732605, -0.01648923009634018, 0.013117424212396145, -0.24295948445796967, 0.18621006608009338], [-0.0994701087474823, -0.07118935883045197, -0.22209817171096802, -0.2741239368915558, 0.15574109554290771, -0.23912806808948517, 0.30217114090919495, -0.18495608866214752, -0.3486122190952301, -0.12044131755828857, 0.10808637738227844, 0.24565008282661438, -0.07604024559259415, -0.12705649435520172, -0.2645522654056549, -0.06194894388318062], [-0.20552757382392883, 0.19999144971370697, -0.30222928524017334, 0.030991198495030403, -0.06928295642137527, 0.3132321834564209, 0.3332706689834595, -0.2081807255744934, 0.17720399796962738, -0.10883311182260513, -0.032775234431028366, 0.1356833577156067, -0.0035712129902094603, 0.17290349304676056, 0.23003153502941132, -0.0801306664943695], [-0.2548888027667999, -0.2974206805229187, -0.08866048604249954, -0.17844067513942719, -0.17945562303066254, 0.1529664844274521, -0.1433316022157669, -0.012075587175786495, 0.20389162003993988, 0.06075386703014374, 0.33273640275001526, -0.2758856415748596, 0.13457758724689484, 0.30150309205055237, -0.25030240416526794, -0.06396296620368958], [0.19958536326885223, 0.26447176933288574, -0.1980624496936798, -0.022336596623063087, -0.24853625893592834, -0.18739227950572968, -0.11804207414388657, -0.07676071673631668, 0.21170945465564728, 0.0021473178640007973, -0.3480418026447296, 0.28919482231140137, -0.0375230573117733, -0.14229227602481842, 0.0009555985452607274, 0.021067583933472633], [-0.2094370573759079, 0.17632412910461426, -0.10162009298801422, -0.03509649261832237, -0.025097183883190155, 0.05605197697877884, -0.028448358178138733, 0.15242356061935425, -0.1143079474568367, 0.17963050305843353, 0.08900535106658936, 0.1377147138118744, -0.010981944389641285, 0.06608621776103973, 0.05210350081324577, 0.29300111532211304], [0.05810467526316643, 0.2230496108531952, -0.2881440222263336, -0.019056718796491623, 0.2545979917049408, -0.10033468902111053, 0.032542694360017776, 0.00785458367317915, -0.18413642048835754, -0.2417336404323578, 0.12012812495231628, 0.07338742911815643, -0.04926102235913277, -0.11397930234670639, 0.3180101215839386, 0.0898013710975647], [-0.17552143335342407, -0.12153090536594391, 0.27635863423347473, -0.13835541903972626, 0.014501864090561867, 0.15128962695598602, 0.10696478933095932, 0.06667374074459076, 0.013448420912027359, 0.2761087417602539, -0.04369838163256645, 0.12121384590864182, 0.013386931270360947, 0.17448781430721283, 0.3272235095500946, 0.04319894686341286], [0.22777386009693146, -0.2127460241317749, 0.018501872196793556, 0.053324781358242035, -0.04970787838101387, 0.10626739263534546, 0.013140292838215828, -0.03207243233919144, -0.1944844126701355, 0.030419018119573593, 0.15598659217357635, -0.09056814759969711, -0.057695191353559494, 0.14599713683128357, 0.15186133980751038, -0.017621828243136406], [-0.19911012053489685, -0.1300904005765915, -0.05390534549951553, -0.01210275012999773, -0.047048505395650864, 0.002437493298202753, 0.03138844296336174, 0.08291993290185928, 0.1787141114473343, -0.010015151463449001, -0.20916056632995605, 0.19425760209560394, 0.3088352680206299, -0.14590516686439514, 0.08169235289096832, 0.14743703603744507], [0.1626148223876953, -0.1250493824481964, -0.21287542581558228, 0.07680285722017288, 0.0733969435095787, 0.2692723870277405, -0.09170511364936829, 0.04026040434837341, -0.02963436394929886, -0.18208348751068115, 0.02650510147213936, -0.25072261691093445, -0.07717588543891907, -0.13799995183944702, 0.03416623920202255, 0.13628821074962616], [-0.1089998260140419, -0.3478620648384094, -0.34504494071006775, -0.3601505756378174, 0.30632930994033813, 0.04509120434522629, -0.0902276337146759, 0.1906801015138626, 0.4748023450374603, 0.1992630660533905, -0.20987817645072937, 0.17338375747203827, 0.2838532328605652, -0.25077077746391296, 0.021140586584806442, 0.17532435059547424], [0.12124059349298477, 0.06294669210910797, -0.30416974425315857, 0.23344194889068604, 0.05064250901341438, 0.04115481674671173, 0.2349749505519867, 0.188302680850029, -0.04650412127375603, 0.25491535663604736, 0.275942325592041, -0.13341228663921356, -0.260227233171463, 0.35797035694122314, 0.19860246777534485, -0.32491907477378845], [-0.10441138595342636, 0.06388986855745316, -0.14452867209911346, 0.16147170960903168, 0.29926496744155884, 0.19841217994689941, 0.31379565596580505, 0.14040997624397278, 0.08239475637674332, 0.3146052360534668, 0.37840428948402405, 0.08235903084278107, 0.17406968772411346, -0.006977798417210579, -0.2083265632390976, 0.107694111764431], [-0.04881756380200386, 0.3452011048793793, 0.04480379819869995, 0.11041911691427231, -0.12611651420593262, 0.19430476427078247, 0.17756392061710358, 0.19653105735778809, 0.3603472113609314, -0.13140033185482025, 0.01714307628571987, 0.042387865483760834, 0.025137383490800858, -0.2994063198566437, 0.195714071393013, -0.12628836929798126], [-0.0622144490480423, 0.10022298991680145, -0.3463534414768219, 0.36788511276245117, -0.08608239889144897, 0.06014375388622284, -0.31052300333976746, -0.053567882627248764, 0.14811857044696808, -0.1368955671787262, 0.036792971193790436, -0.26122573018074036, -0.10482176393270493, 0.36490219831466675, 0.1963896006345749, 0.24087625741958618], [0.3215307593345642, 0.1741555780172348, 0.048928141593933105, 0.09597962349653244, 0.18364118039608002, -0.09640581905841827, 0.10645854473114014, 0.21536779403686523, 0.14602670073509216, 0.23076187074184418, 0.058260951191186905, -0.09597491472959518, 0.2688348889350891, 0.08270809799432755, -0.0825590118765831, -0.16142956912517548], [-0.19168435037136078, -0.14061227440834045, -0.3258356750011444, 0.024628641083836555, 0.029842307791113853, 0.2324005663394928, -0.1408482939004898, -0.22670236229896545, 0.008746528066694736, -0.31943199038505554, -0.22570763528347015, 0.34807536005973816, -0.05959341675043106, 0.08580419421195984, 0.14379450678825378, 0.07624751329421997], [0.21655617654323578, -0.2403120994567871, -0.06519591063261032, -0.24140772223472595, -0.10297393798828125, -0.17222756147384644, 0.18808381259441376, -0.16801193356513977, 0.07090321183204651, -0.08240320533514023, 0.01684431917965412, 0.14829477667808533, -0.1728505939245224, -0.10636652261018753, -0.12780706584453583, -0.24349384009838104], [-0.17723608016967773, 0.15722514688968658, 0.2591649293899536, -0.03507101535797119, 0.11746145784854889, -0.06500489264726639, -0.038768067955970764, -0.08671003580093384, 0.04027363285422325, 0.2193455696105957, -0.14349301159381866, 0.25751107931137085, 0.19150272011756897, -0.1986314356327057, 0.26118403673171997, 0.1311437040567398], [0.11272573471069336, -0.08986455947160721, 0.13916321098804474, 0.07494066655635834, 0.18164023756980896, 0.05896651744842529, 0.03492312878370285, 0.03507678955793381, -0.14251947402954102, 0.22505126893520355, 0.1472608596086502, -0.13863275945186615, 0.009265642613172531, 0.21717041730880737, -0.057194240391254425, 0.2543818950653076], [-0.16630467772483826, -0.1293186992406845, -0.015433239750564098, 0.2176155149936676, 0.1270350068807602, 0.014299794100224972, -0.050115324556827545, -0.013999288901686668, -0.12618565559387207, -0.10277211666107178, 0.03500797227025032, -0.3491949439048767, 0.10319951921701431, -0.06965146958827972, 0.10182173550128937, -0.05451134219765663], [-0.061001162976026535, -0.17563407123088837, -0.2587437927722931, -0.23599708080291748, 0.1324949562549591, 0.08582848310470581, 0.03491312265396118, 0.07489825040102005, -0.11914326250553131, 0.11609151214361191, 0.008147671818733215, -0.09420716017484665, -0.23828229308128357, 0.024241385981440544, 0.32729455828666687, -0.16179779171943665], [0.37696030735969543, -0.09059193730354309, 0.25029394030570984, -0.31886619329452515, -0.1568104773759842, -0.09526844322681427, 0.32666701078414917, 0.04406428709626198, 0.09326516836881638, -0.043461874127388, -0.016472365707159042, -0.14474932849407196, -0.3006444573402405, 0.42485311627388, 0.0647611916065216, -0.27729737758636475], [0.27421438694000244, 0.2013692408800125, 0.23298223316669464, -0.1240210086107254, -0.23989015817642212, -0.23911021649837494, 0.3962678611278534, 0.1566600501537323, -0.012400876730680466, -0.25387364625930786, -0.07264738529920578, 0.3283900320529938, -0.17756472527980804, 0.15731772780418396, -0.2590344548225403, -0.13454321026802063], [0.2913210988044739, -0.2300747036933899, -0.08190874755382538, 0.06690448522567749, -0.21851719915866852, -0.25758224725723267, -0.04367060586810112, 0.328816682100296, 0.3092886805534363, 0.07295563817024231, 0.3317009210586548, 0.34960031509399414, 0.2736981213092804, 0.38001275062561035, 0.2286638617515564, 0.03415094316005707], [-0.37600865960121155, -0.04534566402435303, -0.3016047477722168, -0.37350142002105713, 0.3690795600414276, -0.01119839958846569, -0.37034884095191956, -0.3202056288719177, -0.2145739197731018, 0.011468468233942986, 0.10626350343227386, -0.22472545504570007, -0.01294337585568428, 0.3329602777957916, -0.15075147151947021, 0.3308357000350952], [-0.1594921052455902, -0.13931988179683685, 0.25094419717788696, -0.1593337506055832, 0.06630343198776245, -0.08221196383237839, -0.4241511821746826, -0.4929945170879364, 0.34781181812286377, -0.014365979470312595, 0.05548675358295441, -0.053979210555553436, 0.3881953954696655, 0.011805000714957714, -0.13800108432769775, 0.44264692068099976], [-0.1884736716747284, -0.28263014554977417, -0.3034202456474304, 0.2057577669620514, -0.2875211238861084, -0.05440676584839821, 0.05153894051909447, 0.2454311102628708, 0.3382798731327057, -0.28928500413894653, 0.16720354557037354, 0.2765844166278839, -0.20583626627922058, 0.2826462388038635, 0.10086248070001602, 0.056309573352336884], [-0.331361323595047, 0.3117472529411316, -0.14859935641288757, -0.06172866001725197, -0.28583481907844543, -0.2478582113981247, -0.009497771970927715, -0.4836888015270233, 0.21713759005069733, -0.23259226977825165, 0.23997746407985687, -0.09026073664426804, -0.20369619131088257, 0.1088808923959732, -0.26931026577949524, 0.14572970569133759]], "1_weights": [[-0.04287160933017731, -0.20286554098129272, 0.07317788153886795, 0.1323351263999939, 0.06814515590667725, 0.1592387557029724, -0.3415830731391907, -0.26413068175315857, 0.34571677446365356, 0.05857935547828674, -0.5686582326889038, 0.18968863785266876, -0.43213021755218506, -0.007326481863856316, 0.08239202201366425, -0.1383395791053772], [-0.03415072336792946, 0.09569468349218369, -0.458965927362442, 0.003736793529242277, 0.25515052676200867, -0.15151414275169373, -0.2681630849838257, 0.03369056433439255, -0.11519874632358551, 0.051812794059515, -0.04559779167175293, 0.044893812388181686, 0.13656628131866455, -0.24495112895965576, -0.14907443523406982, 0.08518579602241516], [-0.4491450786590576, 0.31622159481048584, -0.195282980799675, -0.14108826220035553, 0.4060467481613159, 0.15070194005966187, 0.2243308275938034, -0.12900599837303162, 0.03520834445953369, -0.163668692111969, 0.03161710500717163, 0.1457059681415558, 0.11838462203741074, 0.3125494122505188, -0.1263844072818756, 0.0019602433312684298], [0.12662674486637115, -0.040494658052921295, -0.0366394929587841, 0.061839211732149124, -0.3975789546966553, 0.03107651323080063, 0.354059100151062, 0.132788747549057, 0.43725499510765076, 0.2759925425052643, 0.004020449705421925, -0.20404568314552307, 0.32822367548942566, 0.3076317310333252, -0.20991551876068115, -0.14039179682731628], [0.18399272859096527, 0.12320979684591293, -0.1993330717086792, 0.2622493505477905, -0.10442805290222168, 0.34288859367370605, -0.44023802876472473, -0.15648318827152252, -0.3281342089176178, 0.21026401221752167, -0.32480865716934204, 0.4032365381717682, 0.1046530082821846, -0.25678321719169617, -0.025325912982225418, -0.2383912354707718], [-0.06384334713220596, 0.0686659887433052, 0.13330385088920593, -0.165459543466568, 0.24229592084884644, -0.09710922092199326, -0.027443835511803627, 0.0791875496506691, 0.4079638123512268, 0.09542103856801987, -0.10282129794359207, -0.0033792213071137667, -0.10832364112138748, -0.03375762328505516, -0.3168071508407593, 0.1729678362607956], [0.3220483660697937, -0.22296090424060822, 0.0006617342005483806, -0.2180345058441162, -0.04722738265991211, 0.37546584010124207, 0.20928804576396942, 0.4265848696231842, 0.2532288134098053, 0.5958430767059326, 0.1194511353969574, 0.3836381435394287, -0.3534162938594818, -0.1332029402256012, 0.12532946467399597, 0.4563031494617462], [0.28667372465133667, -0.1324734091758728, 0.3741320073604584, -0.1229165643453598, -0.0803871676325798, 0.00483996607363224, 0.24958151578903198, 0.6032177209854126, -0.025912899523973465, 0.005108626093715429, -0.1930515468120575, 0.23032544553279877, -0.24808920919895172, 0.6296201944351196, 0.46672680974006653, 0.08442477881908417], [0.27742692828178406, -0.2555769979953766, -0.17258316278457642, -0.07751524448394775, -0.17323926091194153, 0.3662430942058563, -0.08679009228944778, 0.4244537353515625, -0.21617648005485535, 0.012791560031473637, 0.3255927860736847, 0.07676767557859421, -0.15704990923404694, 0.1910981386899948, -0.059211764484643936, -0.17502453923225403], [0.1689445674419403, 0.026164021342992783, -0.2839691936969757, 0.2751656174659729, -0.18927522003650665, -0.31202730536460876, 0.20170609652996063, 0.11899015307426453, -0.05591404810547829, 0.23959487676620483, -0.43843016028404236, 0.33454570174217224, -0.379016637802124, 0.11285936087369919, 0.16722112894058228, 0.018288161605596542], [0.33910736441612244, -0.3612463176250458, 0.2784925103187561, -0.11222945898771286, 0.16723114252090454, 0.158273383975029, -0.23207397758960724, 0.4181976914405823, 0.3109097480773926, -0.0691365972161293, 0.2734762132167816, -0.02902885340154171, -0.21451303362846375, 0.17913654446601868, 0.17463448643684387, 0.0028144484385848045], [-0.2227075695991516, 0.14972037076950073, -0.13047748804092407, 0.187484011054039, 0.19775593280792236, 0.06897740811109543, 0.32154929637908936, -0.39573466777801514, 0.07710379362106323, -0.0009782016277313232, -0.2502049207687378, -0.05599604919552803, 0.11966818571090698, 0.16748924553394318, -0.29690438508987427, -0.0505300797522068], [0.10707943886518478, -0.28953906893730164, -0.3484433889389038, 0.11482515186071396, -0.06964598596096039, 0.2229326069355011, -0.46806806325912476, -0.15498168766498566, 0.06127316504716873, 0.02059328556060791, -0.3658815026283264, -0.006195911671966314, -0.3300977647304535, -0.15789929032325745, -0.004633074626326561, 0.3098931312561035], [-0.04724711552262306, 0.031751640141010284, -0.15868563950061798, 0.10697289556264877, -0.25539079308509827, -0.224141463637352, -0.04617210477590561, -0.09944453835487366, -0.1783999502658844, 0.3498007655143738, -0.31498074531555176, -0.17195281386375427, -0.2776831388473511, 0.31388920545578003, -0.11796882003545761, 0.15823893249034882], [0.18981289863586426, -0.3303638994693756, 0.3009490668773651, 0.23561249673366547, -0.4074576795101166, 0.45625928044319153, 0.019432837143540382, 0.02683301828801632, 0.05141032487154007, -0.12161482870578766, 0.10817525535821915, 0.36411526799201965, -0.0687592476606369, -0.3096736967563629, -0.05732009559869766, 0.1273798644542694], [0.1446875035762787, 0.20496326684951782, -0.32937395572662354, -0.0900658592581749, 0.12608881294727325, -0.20499570667743683, -0.21588505804538727, 0.08664710074663162, -0.1785496473312378, 0.05324086546897888, 0.022180700674653053, -0.15695181488990784, -0.23615418374538422, -0.15842854976654053, 0.021792683750391006, -0.33264368772506714]], "2_weights": [[-0.5521785616874695, 0.21539254486560822, 0.16892436146736145], [0.48325181007385254, 0.11121376603841782, 0.1777176558971405], [-0.0011047503212466836, 0.2115902453660965, 0.472398042678833], [0.43564572930336, -0.3176986873149872, 0.41533705592155457], [0.3553029000759125, 0.02240312658250332, 0.3555431663990021], [-0.07644271850585938, -0.41603198647499084, -0.4638975262641907], [0.36962130665779114, 0.10388659685850143, 0.3433293104171753], [-0.04633522033691406, -0.5423304438591003, -0.4185238778591156], [-0.45982542634010315, -0.4379199147224426, -0.11142807453870773], [0.2245054990053177, -0.13937082886695862, -0.38383209705352783], [0.40081000328063965, 0.43638935685157776, 0.4534244239330292], [-0.5270067453384399, -0.019932014867663383, -0.4427511394023895], [-0.08234717696905136, -0.27315324544906616, 0.2811170816421509], [-0.4618206024169922, -0.17904722690582275, -0.3220691978931427], [0.26030388474464417, -0.35128241777420044, -0.24893754720687866], [-0.5037633180618286, -0.3813174068927765, 0.4064531624317169]], "0_bias": [0.036896996200084686, -0.08646151423454285, 0.003448862349614501, -0.017115021124482155, 0.06333614885807037, -0.07581058144569397, 0.04433958977460861, 0.061738915741443634, 0.16139809787273407, 0.047661397606134415, 0.11200976371765137, -0.046332523226737976, 0.07831297814846039, 0.04599432647228241, 0.03162696212530136, -0.004946463741362095], "1_bias": [0.0839582234621048, -0.04929213598370552, -0.01244290079921484, -0.025487080216407776, -0.06795912235975266, 0.1296730488538742, -0.06803693622350693, 0.1250961869955063, 0.01648208312690258, 0.03213423863053322, -0.08886530250310898, 0.12460935115814209, -0.023870395496487617, 0.11033397912979126, 0.04915306717157364, 0.030439261347055435], "2_bias": [-0.16821767389774323, -0.12406927347183228, -0.09360554814338684], "format": "png"}