{"voxel_size": 0.00425, "block_size": 30, "grid_width": 800, "grid_height": 800, "grid_depth": 800, "atlas_width": 2048, "atlas_height": 2048, "atlas_depth": 32, "num_slices": 8, "min_x": -1.7, "min_y": -1.7, "min_z": -1.7, "atlas_blocks_x": 64, "atlas_blocks_y": 64, "atlas_blocks_z": 1, "input_height": 800.0, "input_width": 800.0, "input_focal": 1111.1110311937682, "worldspace_T_opengl": [[-1.0, 0.0, 0.0, 0.0], [0.0, 0.0, 1.0, 0.0], [0.0, 1.0, 0.0, 0.0], [0.0, 0.0, 0.0, 1.0]], "ndc": false, "0_weights": [[0.350068598985672, 0.1437559276819229, -0.28073397278785706, 0.04334728419780731, -0.17738927900791168, -0.10610733181238174, -0.3255912661552429, 0.009299702942371368, -0.06820555776357651, 0.20837266743183136, 0.04348469898104668, -0.2958598732948303, 0.19471712410449982, -0.0045215897262096405, 0.21327616274356842, -0.11629944294691086], [-0.2953541874885559, 0.19030791521072388, -0.11521684378385544, 0.08101232349872589, -0.15376582741737366, -0.3810049593448639, -0.0743732675909996, 0.20170576870441437, 0.24432332813739777, -0.18695762753486633, -0.07564607262611389, -0.07458075135946274, 0.08340007066726685, 0.10567682236433029, 0.020717069506645203, 0.24884024262428284], [0.24176202714443207, -0.22084565460681915, -0.05451242998242378, 0.2156819850206375, -0.023242954164743423, 0.2851243317127228, 0.3102472722530365, 0.026176922023296356, -0.4051847457885742, 0.20336736738681793, 0.09052211791276932, -0.04795100539922714, -0.4523676931858063, -0.3361473083496094, -0.015758145600557327, -0.22165383398532867], [0.296630322933197, -0.09409809112548828, -0.047990914434194565, 0.13107830286026, -0.21600304543972015, 0.1951528936624527, 0.178320050239563, 0.15294569730758667, 0.2323317974805832, 0.17205780744552612, -0.29066362977027893, -0.3728874921798706, -0.03673256188631058, 0.04134264960885048, -0.2063329815864563, 0.051283903419971466], [-0.22399725019931793, -0.31245478987693787, 0.17683875560760498, 0.3609600365161896, 0.23929215967655182, -0.35745397210121155, 0.27387183904647827, 0.26484280824661255, -0.13332802057266235, 0.21137043833732605, 0.1269659548997879, -0.16118104755878448, -0.20964206755161285, -0.20862847566604614, 0.1960458755493164, -0.2831064760684967], [0.002168671227991581, -0.1840268075466156, -0.01906263269484043, -0.43523499369621277, -0.16537658870220184, 0.03257140889763832, -0.2920834422111511, -0.03962472453713417, 0.05270872637629509, -0.3671603500843048, -0.18352438509464264, -0.15781444311141968, 0.08549908548593521, 0.00372732849791646, -0.29743435978889465, -0.17778493463993073], [-0.18573155999183655, 0.18370164930820465, 0.24044674634933472, 0.28749948740005493, 0.1948643922805786, 0.16760842502117157, -0.27269330620765686, 0.03058592602610588, -0.13440950214862823, -0.20542669296264648, 0.09535112231969833, -0.33837783336639404, 0.11215165257453918, 0.06241198256611824, -0.028677409514784813, 0.24139945209026337], [-0.032493654638528824, 0.0773308128118515, 0.22651582956314087, -0.2153267115354538, 0.03409624099731445, 0.2838253080844879, -0.11683591455221176, 0.06699293106794357, -0.2059868574142456, -0.11473238468170166, 0.07191703468561172, 0.17917214334011078, 0.11470585316419601, 0.2253703773021698, -0.20294804871082306, 0.029046040028333664], [-0.38026320934295654, -0.01595650613307953, 0.08434925228357315, 0.16546988487243652, 0.09410388022661209, 0.03792005404829979, -0.051226288080215454, 0.15669505298137665, -0.381561815738678, 0.04514293745160103, -0.15856871008872986, -0.015282548032701015, -0.08068151026964188, 0.2102554738521576, -0.12775614857673645, -0.03062206692993641], [-0.10660717636346817, -0.18127432465553284, -0.08669818192720413, -0.2802201211452484, 0.30715373158454895, 0.1401187926530838, -0.07274924963712692, -0.06462253630161285, -0.0008562098955735564, 0.020656103268265724, -0.122896708548069, 0.015379115007817745, 0.219059556722641, -0.14060862362384796, 0.23781107366085052, -0.17136231064796448], [-0.012556688860058784, -0.09397610276937485, -0.20035260915756226, -0.28434330224990845, 0.11774887144565582, 0.14910948276519775, 0.013262173160910606, 0.013996751047670841, 0.10079727321863174, 0.22148850560188293, -0.09553875774145126, -0.06413503736257553, -0.062005698680877686, -0.16858528554439545, 0.08651478588581085, -0.13826505839824677], [-0.022337086498737335, 0.04510608687996864, -0.15453803539276123, -0.08459879457950592, -0.18769200146198273, -0.41749057173728943, 0.13083530962467194, 0.3351905345916748, -0.2610338628292084, 0.20104800164699554, -0.04797204211354256, 0.2604592740535736, -0.013052884489297867, 0.155435249209404, 0.160838320851326, 0.14120441675186157], [0.010547636076807976, -0.118456169962883, -0.005350092891603708, 0.007625107187777758, 0.25279438495635986, 0.06655890494585037, -0.06907457858324051, -0.01992921717464924, -0.019279584288597107, -0.06389828026294708, -0.03210039064288139, 0.04726140573620796, -0.004685323219746351, -0.05865652859210968, 0.18198050558567047, -0.05568083003163338], [0.05960364639759064, 0.02509857900440693, 0.031851187348365784, 0.08344291150569916, 0.2645784616470337, -0.07847820967435837, -0.008673138916492462, 0.047602877020835876, -0.04737316071987152, -0.06380268186330795, 0.04638117924332619, -0.021310925483703613, -0.012833215296268463, 0.08217079937458038, -0.029134828597307205, 0.009395402856171131], [0.0918755754828453, -0.10642392933368683, -0.0035795087460428476, -0.0381234735250473, 0.18638719618320465, -0.06238071247935295, 0.10636600106954575, 0.2944526672363281, 0.03472372889518738, 0.03360825031995773, -0.05177295207977295, -0.04053428769111633, 0.07979275286197662, -0.023934777826070786, -0.0006183850928209722, -0.06751592457294464], [0.3083958029747009, 0.3633565902709961, 0.4458778500556946, -0.11849222332239151, -0.2645752429962158, 0.33255746960639954, 0.15696823596954346, -0.08066656440496445, 0.09415004402399063, -0.06248735636472702, 0.20340418815612793, 0.07022044062614441, -0.010656619444489479, 0.29442834854125977, -0.2392960786819458, -0.16905611753463745], [-0.2011551558971405, -0.023720234632492065, 0.4570584297180176, -0.02803824283182621, -0.056380901485681534, 0.015274536795914173, 0.21483969688415527, -0.13021424412727356, 0.03246844932436943, -0.18804176151752472, 0.0703265368938446, 0.4516005516052246, -0.10627023130655289, 0.3220207393169403, 0.15771076083183289, -0.04712153971195221], [-0.15863530337810516, -0.09110847115516663, -0.09010153263807297, 0.4320583939552307, -0.22763055562973022, 0.26281705498695374, -0.08473021537065506, -0.07898598164319992, 0.028581757098436356, 0.32875558733940125, 0.3382669985294342, 0.1319456696510315, 0.40121781826019287, -0.1517375409603119, 0.10190616548061371, -0.24120372533798218], [0.14958609640598297, 0.2228747308254242, -0.13562636077404022, 0.2628088593482971, 0.20503608882427216, 0.10508949309587479, -0.263560026884079, -0.03851175308227539, -0.09379265457391739, 0.2693157494068146, -0.17267121374607086, 0.19718791544437408, 0.16527651250362396, -0.28172987699508667, 0.017458029091358185, 0.2251623123884201], [-0.12852847576141357, 0.3426196575164795, 0.3947311341762543, -0.1855168640613556, 0.14569199085235596, -0.10051950812339783, -0.10463999956846237, 0.10424421727657318, 0.1053994819521904, 0.24980910122394562, -0.13519124686717987, -0.011157486587762833, 0.2898748815059662, -0.219358429312706, -0.27937597036361694, 0.22735942900180817], [-0.12497537583112717, 0.47972363233566284, 0.14533887803554535, 0.12188608944416046, -0.016758441925048828, -0.1710212528705597, -0.13114094734191895, -0.09425440430641174, 0.22389158606529236, 0.28509387373924255, 0.22518841922283173, 0.3988806903362274, 0.09131605923175812, -0.12920957803726196, 0.4606124758720398, 0.27402642369270325], [0.05094755068421364, -0.29774385690689087, 0.0028068372048437595, 0.004112390335649252, 0.35545530915260315, 0.00044144224375486374, 0.0280833151191473, 0.05569770932197571, 0.13589176535606384, -0.005961674731224775, 0.024262623861432076, 0.25228172540664673, -0.054966021329164505, -0.1156485304236412, 0.26495838165283203, -0.17325983941555023], [-0.242103710770607, -0.15400314331054688, -0.11889643967151642, 0.20254842936992645, -0.23999302089214325, -0.017459647729992867, 0.014215178787708282, -0.354643851518631, -0.020744554698467255, 0.23319749534130096, 0.19941316545009613, -0.11756385117769241, -0.026190541684627533, 0.04612595587968826, 0.11737450957298279, -0.21528026461601257], [0.22474710643291473, -0.019753348082304, -0.07216016948223114, -0.19963029026985168, 0.2722987234592438, -0.06496341526508331, 0.2182406783103943, 0.4392273724079132, 0.21139457821846008, 0.382535845041275, -0.02261134423315525, -0.21523401141166687, 0.27318885922431946, 0.016311610117554665, -0.18939068913459778, -0.015218518674373627], [-0.014903889037668705, 0.1129588857293129, 0.011300444602966309, 0.033062808215618134, 0.23109671473503113, -0.027186015620827675, -0.056247737258672714, -0.03497826308012009, -0.041759707033634186, 0.03169233724474907, -0.07077541947364807, 0.06107664480805397, -0.018464896827936172, 0.07566272467374802, 0.01646372675895691, 0.13359560072422028], [0.005880020558834076, 0.05735884606838226, 0.0038966129068285227, 0.10107941925525665, -0.03352639451622963, -0.07912290096282959, 0.008589030243456364, -0.047550544142723083, -0.010009010322391987, 0.019102320075035095, -0.020341429859399796, 0.08309835940599442, -0.003676770022138953, 0.04284438118338585, -0.019966041669249535, 0.10522068291902542], [-0.053911175578832626, 0.10819538682699203, 0.08707358688116074, 0.16403056681156158, -0.19048058986663818, -0.09633283317089081, -0.07882564514875412, 0.015907233580946922, 0.12663467228412628, -0.18325184285640717, 0.08349505066871643, -0.018330276012420654, 0.018795553594827652, 0.09464891999959946, -0.02102290280163288, 0.17915238440036774], [-1.4628809690475464, -0.1977561116218567, -1.9344781637191772, 0.12183423340320587, -0.11921554803848267, -0.20727156102657318, -0.3208886384963989, -0.9710514545440674, -2.9590964317321777, 0.09472963958978653, 0.40527260303497314, -0.3264041841030121, -0.2928922772407532, 0.40600496530532837, -0.3917679190635681, 0.24775050580501556], [-0.9118736982345581, -0.04508076608181, -2.0280206203460693, -0.38656148314476013, 0.08421897888183594, -0.11706305295228958, 0.135560542345047, -0.719707190990448, -2.6482737064361572, 0.20477251708507538, 0.20435987412929535, -0.21044695377349854, -0.5290339589118958, -0.13669991493225098, -0.7593607306480408, 0.23485930263996124], [0.18799473345279694, -0.17595237493515015, -0.4489779770374298, -0.5716308355331421, 0.5024369955062866, -0.19917032122612, -0.4726400375366211, 0.04187789931893349, -0.10338187962770462, -0.22538377344608307, -0.1794542819261551, -0.34172582626342773, -0.12640376389026642, 0.10299435257911682, -0.4428781569004059, -0.15144655108451843], [-0.43380922079086304, 0.3453173041343689, -1.5076720714569092, -0.18141388893127441, -0.4106648862361908, -0.03315086290240288, 0.06872579455375671, -0.17599862813949585, -1.985710859298706, -0.2990948557853699, 0.06967991590499878, 0.05203159898519516, -0.16667744517326355, -0.44380199909210205, 0.19385942816734314, -0.20776422321796417], [-0.7874107360839844, -0.5318589806556702, -0.3674120306968689, -0.512828528881073, 0.08953795582056046, 0.4730072617530823, 0.3058236837387085, -0.37066391110420227, -0.619223415851593, -0.5545544624328613, 0.2938171327114105, -0.3351180851459503, -0.3238762319087982, 0.484883576631546, 0.20374742150306702, 0.7266860604286194], [-0.23130464553833008, -0.16573452949523926, -0.23709627985954285, -0.4301842451095581, -0.3618197441101074, 0.7873315215110779, 0.48947811126708984, 0.04803819581866264, -0.07267221808433533, -0.5276001691818237, 0.4440610706806183, -0.6763105392456055, -0.41680142283439636, 0.7258628606796265, -0.19442838430404663, 0.6968122720718384], [0.38276317715644836, 0.626442551612854, 0.10962826013565063, 0.17059963941574097, -0.4382551312446594, -0.5218740105628967, 0.11532938480377197, -0.29412606358528137, -0.8857907652854919, 0.5497791171073914, -0.21378375589847565, 0.028513992205262184, 0.40440601110458374, 0.17751765251159668, 0.3184662163257599, -0.5573594570159912]], "1_weights": [[0.47316426038742065, -0.3241879343986511, -0.08999475091695786, -0.23170165717601776, -0.24447482824325562, 0.19704340398311615, -0.043548185378313065, 0.13990452885627747, 0.36328285932540894, 0.42449328303337097, 0.5857024192810059, -0.5112769603729248, 0.2916707396507263, 0.32695338129997253, 0.7035595178604126, -0.49600064754486084], [0.7423078417778015, -0.06986179202795029, 0.10558249801397324, 0.34098121523857117, -0.19041724503040314, -0.049905240535736084, -0.4356287717819214, 0.36793655157089233, -0.20046089589595795, 0.16586491465568542, -0.31841135025024414, -0.30830153822898865, 0.5779654383659363, 0.31492146849632263, 0.11160428822040558, 0.19690999388694763], [0.7625715732574463, -0.13415522873401642, 0.2751244008541107, -0.4381568431854248, -0.3702946603298187, -0.06052060052752495, -0.1405412256717682, 0.5051290988922119, 0.43116074800491333, 0.9716078639030457, 1.374082088470459, -0.3101743757724762, 0.5350035429000854, 0.4498315155506134, 0.3387715518474579, -0.19128017127513885], [0.46682578325271606, -0.23385517299175262, -0.012925398536026478, -0.17377227544784546, 0.23350799083709717, 0.1531417965888977, -0.04835712909698486, 0.15607242286205292, 0.1972794532775879, 0.005681225098669529, 0.10426174104213715, 0.24734310805797577, -0.017619946971535683, 0.25263336300849915, -0.07823854684829712, 0.15405216813087463], [-0.10498909652233124, -0.22606922686100006, 0.2876225709915161, -0.09113166481256485, 0.3031004071235657, -0.28586506843566895, -0.3301087021827698, 0.2745114266872406, -0.38160035014152527, 0.3163298964500427, -0.03655874729156494, 0.1965453177690506, 0.30106163024902344, -0.13300064206123352, -0.07023520022630692, 0.4372060000896454], [-0.2026589959859848, 0.1761256754398346, -0.13576653599739075, 0.10187411308288574, 0.46352851390838623, -0.21540983021259308, 0.24249276518821716, -0.5072437524795532, -0.12397466599941254, -0.07712938636541367, -0.8709797263145447, 0.4320029318332672, -0.2557963728904724, -0.21800845861434937, -0.14761701226234436, 0.3223922550678253], [-0.029566410928964615, -0.014936367981135845, -0.005343400873243809, 0.0095137357711792, 0.3143150508403778, -0.21089574694633484, 0.14587725698947906, 0.483131468296051, 0.37720051407814026, -0.19556142389774323, -0.33872172236442566, 0.3544981777667999, -0.15431055426597595, 0.1245078518986702, 0.12831443548202515, -0.263632595539093], [0.5106179714202881, -0.2684665024280548, 0.33525294065475464, 0.1317828893661499, -0.1895952671766281, 0.15276610851287842, -0.2783478796482086, 0.44575098156929016, -0.10329542309045792, -0.2837146520614624, 0.4662476181983948, 0.07417026907205582, 0.3808896243572235, -0.13271425664424896, -0.26453185081481934, -0.07789888232946396], [0.8668526411056519, -0.37159502506256104, 0.6534137725830078, 1.0273536443710327, -0.48539599776268005, -0.5421749949455261, -0.43450823426246643, 0.8696981072425842, -0.3824846148490906, 1.0648308992385864, 1.7884982824325562, -0.7302219271659851, 0.8112823963165283, 0.9351835250854492, 0.534856915473938, 0.11218193173408508], [0.5624266266822815, 0.09277224540710449, -0.09560035169124603, -0.2712060213088989, 0.06856903433799744, 0.13491219282150269, -0.027440324425697327, 0.13607455790042877, -0.6075050234794617, 0.4028165340423584, 0.1018761470913887, 0.16866448521614075, 0.11286793649196625, 0.6362313032150269, 0.01958436705172062, 0.4368170201778412], [-0.08798688650131226, 0.017750905826687813, 0.026859300211071968, -0.09969395399093628, 0.032309576869010925, 0.3029343783855438, 0.06211790814995766, -1.1604872941970825, 0.08754263073205948, -0.23548993468284607, -0.9488478302955627, 0.199211984872818, 0.24582582712173462, -0.03690742328763008, -0.1083979457616806, -0.2990022599697113], [0.4996589720249176, -0.16088616847991943, -0.1073586568236351, -0.2649563252925873, 0.1506899744272232, 0.3265393376350403, 0.10106554627418518, -0.10369158536195755, -0.4582251012325287, -0.7148035764694214, 0.026856286451220512, -0.26833054423332214, 0.12921015918254852, 0.2659536302089691, -0.14354006946086884, -0.2748650312423706], [0.5913516879081726, 0.24785347282886505, 0.006163038779050112, -0.4520878195762634, -0.08340877294540405, 0.2454361915588379, 0.48045504093170166, -0.06783664971590042, -0.05586303770542145, 0.3228318393230438, 0.08846502006053925, 0.20935599505901337, -0.07645713537931442, 0.6180198788642883, 0.31675830483436584, -0.002991881687194109], [-0.114740751683712, 0.2999981641769409, -0.35712194442749023, -0.4012126922607422, 0.5401672124862671, -0.11227752268314362, 0.5253615975379944, 0.23632429540157318, 0.04834308102726936, 0.20260317623615265, 0.09673451632261276, 0.28473466634750366, -0.12142424285411835, -0.3610500395298004, 0.189306378364563, 0.36190953850746155], [0.3819328546524048, 0.08727199584245682, -0.14426665008068085, 0.10407856106758118, 0.019610974937677383, -0.03488102927803993, 0.0003250871959608048, 0.19625692069530487, -0.07816021144390106, 0.15330196917057037, -0.16092902421951294, 0.16968603432178497, 0.41936805844306946, 0.16908833384513855, 0.29786574840545654, 0.1415373980998993], [-0.5520378947257996, 0.1901252269744873, 0.10649948567152023, 0.25120818614959717, 0.5739052295684814, -0.2415446937084198, 0.2240002453327179, -0.8539054989814758, 0.2857455909252167, -0.004289533477276564, -0.3583311140537262, 0.38256174325942993, -0.1608104705810547, 0.306743860244751, 0.13110026717185974, 0.14275529980659485]], "2_weights": [[1.183312177658081, 0.881767213344574, 0.8145749568939209], [0.2662244737148285, -0.40876197814941406, -0.5801156759262085], [0.13082949817180634, 0.7306290864944458, -0.3467469811439514], [0.2981226444244385, 0.24482029676437378, -0.27963900566101074], [-0.4725668132305145, -0.6079493761062622, -0.586222231388092], [-0.5464859008789062, -0.453205943107605, 0.16991740465164185], [-0.7817837595939636, 0.02288086526095867, -0.46106255054473877], [1.620835304260254, 1.994730830192566, 2.6976561546325684], [-0.19235393404960632, -0.14021500945091248, -0.19116602838039398], [0.325446754693985, 0.3430686593055725, 0.1678532510995865], [5.459083557128906, 6.4098124504089355, 6.970209121704102], [-0.2940366566181183, -0.46297138929367065, -0.3509226143360138], [0.3516780138015747, 0.4023017883300781, 0.040690530091524124], [-0.006547128781676292, 0.1800004094839096, 0.6076453924179077], [0.29339659214019775, -0.05383691564202309, -0.0991426408290863], [-0.4072788655757904, -0.012617744505405426, 0.3134337365627289]], "0_bias": [0.05274051055312157, 0.16075675189495087, 0.1489756852388382, 0.13432173430919647, -0.022014493122696877, 0.024487368762493134, -0.06602077931165695, 0.07415656000375748, 0.24359284341335297, 0.046822771430015564, 0.01115922536700964, 0.16260404884815216, 0.1453658938407898, 0.013169990852475166, 0.09862673282623291, 0.053789425641298294], "1_bias": [0.25850069522857666, -0.13168442249298096, -0.1343507468700409, 0.12719646096229553, 0.023676754906773567, 0.07606998085975647, 0.15601666271686554, -0.2512073516845703, -0.041957560926675797, 0.06463053077459335, -0.3657471239566803, -0.005353077314794064, 0.08999067544937134, 0.11054988950490952, -0.10813509672880173, -0.00047388096572831273], "2_bias": [-0.033717986196279526, 0.08345548808574677, 0.020319286733865738], "format": "png"}