{"voxel_size": 0.00425, "block_size": 30, "grid_width": 800, "grid_height": 800, "grid_depth": 800, "atlas_width": 2048, "atlas_height": 2048, "atlas_depth": 32, "num_slices": 8, "min_x": -1.7, "min_y": -1.7, "min_z": -1.7, "atlas_blocks_x": 64, "atlas_blocks_y": 64, "atlas_blocks_z": 1, "input_height": 800.0, "input_width": 800.0, "input_focal": 1111.1110311937682, "worldspace_T_opengl": [[-1.0, 0.0, 0.0, 0.0], [0.0, 0.0, 1.0, 0.0], [0.0, 1.0, 0.0, 0.0], [0.0, 0.0, 0.0, 1.0]], "ndc": false, "0_weights": [[-0.2870044708251953, 0.10884498804807663, -0.29977646470069885, -0.23441176116466522, -0.21495699882507324, 0.25130653381347656, -0.18285419046878815, 0.03837636858224869, -0.28798210620880127, -0.199895977973938, -0.055480632930994034, -0.11318051069974899, 0.10661567747592926, -0.194092258810997, -0.13037505745887756, -0.01926761120557785], [0.4166775047779083, 0.22188951075077057, 0.22984063625335693, -0.14434334635734558, -0.2316347360610962, -0.3479979634284973, -0.17740122973918915, -0.11513163894414902, -0.3718884289264679, -0.07498679310083389, -0.22261716425418854, 0.054954323917627335, -0.10694080591201782, -0.09955459088087082, -0.044139325618743896, 0.0013833256671205163], [-0.009480605833232403, -0.18078021705150604, 0.19224709272384644, 0.215744286775589, -0.30612775683403015, 0.27889010310173035, -0.36265063285827637, 0.16298073530197144, 0.3648265302181244, -0.10974093526601791, 0.08570006489753723, -0.17407763004302979, -0.22616872191429138, 0.1297634392976761, -0.40982213616371155, -0.45648181438446045], [-0.07087866961956024, -0.10143797844648361, -0.27789315581321716, 0.09968897700309753, -0.17920143902301788, -0.15639923512935638, -0.20218078792095184, 0.19136016070842743, 0.23608706891536713, -0.19784367084503174, -0.265642374753952, -0.15957388281822205, 0.26107627153396606, -0.16526569426059723, 0.028604907914996147, -0.07030616700649261], [0.04491007700562477, 0.15679651498794556, -0.08381999284029007, 0.11600445955991745, 0.1963636875152588, 0.10580962896347046, 0.36761847138404846, 0.2582719922065735, 0.21978583931922913, -0.18680498003959656, -0.054193589836359024, 0.20918570458889008, -0.01782492734491825, -0.1411634087562561, -0.13935686647891998, 0.06358799338340759], [-0.1054774671792984, -0.2027955800294876, -0.3036104142665863, -0.20200423896312714, 0.18559986352920532, -0.2551782429218292, 0.18584853410720825, -0.12999683618545532, -0.18457700312137604, -0.05372456833720207, 0.2266818732023239, 0.24641232192516327, -0.10230380296707153, -0.038462068885564804, -0.38990724086761475, -0.1546214371919632], [-0.2752055823802948, 0.12824052572250366, -0.2766539454460144, 0.029027802869677544, -0.06345675140619278, 0.22563643753528595, 0.3876136839389801, -0.17354099452495575, -0.012574930675327778, -0.0879906639456749, -0.04553874954581261, 0.13350392878055573, 0.14752735197544098, 0.21284261345863342, 0.13856659829616547, -0.03440584987401962], [-0.20260290801525116, -0.2612202763557434, -0.0437159426510334, -0.14906448125839233, -0.11118372529745102, 0.04504379257559776, -0.1392163783311844, -0.022472886368632317, 0.17108586430549622, 0.12226720154285431, 0.3318161070346832, -0.16313259303569794, 0.14354105293750763, 0.1877601593732834, -0.1957804262638092, -0.1954653263092041], [0.2041510045528412, 0.14771583676338196, -0.25609806180000305, 0.05847718566656113, -0.2200009524822235, -0.19648610055446625, -0.2239026576280594, 0.003428146941587329, 0.38256439566612244, 0.06598284840583801, -0.23764587938785553, 0.29266396164894104, -0.023453466594219208, -0.05871148779988289, -0.14797917008399963, -0.07183162122964859], [-0.010373102501034737, 0.017511559650301933, -0.14338794350624084, 0.06862509250640869, -0.011388423852622509, -0.1434275358915329, -0.0071615311317145824, 0.3189375400543213, 0.05071897804737091, 0.20934581756591797, 0.1268036663532257, 0.031632035970687866, 0.06793659180402756, 0.12701855599880219, -0.037838902324438095, 0.1410863995552063], [-0.0159783735871315, 0.023805921897292137, -0.3808964192867279, -0.11633274704217911, 0.17363014817237854, -0.08887949585914612, -0.02020655944943428, 0.056352827697992325, -0.10330338031053543, -0.15552544593811035, 0.09586020559072495, -0.02113097906112671, -0.041239116340875626, 0.0046315668150782585, 0.21815547347068787, -0.02164515294134617], [-0.12198808789253235, -0.09787724167108536, 0.3160930573940277, -0.03945259749889374, 0.021555902436375618, 0.167207732796669, 0.07817438989877701, 0.24767477810382843, 0.09838155657052994, 0.32010310888290405, 0.027991170063614845, 0.1326713263988495, 0.18573834002017975, 0.12860064208507538, 0.0906258225440979, -0.015603363513946533], [0.033034950494766235, 0.07066427916288376, -0.0524415448307991, 0.08762495219707489, -0.01062950398772955, 0.10042659193277359, 0.041280921548604965, -0.113665871322155, -0.12998831272125244, 0.1558619886636734, -0.005970518104732037, -0.13424286246299744, -0.015239697881042957, 0.09411196410655975, 0.03817252069711685, 0.05617010220885277], [-0.1396469622850418, -0.1495721936225891, 0.11813152581453323, -0.059168748557567596, -0.11512943357229233, -0.010786745697259903, 0.08234595507383347, -0.001536321360617876, 0.21106866002082825, 0.05406597629189491, -0.14208728075027466, 0.3656919598579407, 0.24601183831691742, -0.138227179646492, 0.01664401777088642, 0.05966050922870636], [0.1753942221403122, -0.04589369148015976, -0.04671110585331917, 0.03600373864173889, -0.07421993464231491, 0.3157725930213928, -0.1347033828496933, 0.2560882568359375, -0.15898911654949188, -0.008175994269549847, -0.15829506516456604, -0.2186390608549118, -0.12934908270835876, -0.18925517797470093, -0.036054275929927826, -0.06174085661768913], [-0.05833960697054863, -0.2107502669095993, -0.338472455739975, -0.4308285117149353, 0.16451306641101837, 0.042988069355487823, 0.024095065891742706, 0.16337372362613678, 0.24517285823822021, 0.012709909118711948, -0.3962199091911316, 0.140028178691864, 0.2801089286804199, -0.2892417311668396, 0.04838138446211815, 0.28545430302619934], [0.18584907054901123, 0.2702808380126953, -0.2909061908721924, 0.1459467113018036, -0.05757967010140419, 0.06452461332082748, 0.3755204379558563, 0.13696667551994324, -0.24541810154914856, 0.06613673269748688, 0.09643732756376266, -0.1706431359052658, -0.2921532094478607, 0.23964190483093262, 0.2419070154428482, -0.2512727677822113], [-0.061328571289777756, 0.22161470353603363, -0.16160085797309875, 0.07813060283660889, 0.15084892511367798, 0.19496548175811768, 0.42848071455955505, 0.06446483731269836, -0.14757336676120758, 0.10412991046905518, 0.19680650532245636, 0.0531553290784359, 0.12065299600362778, -0.060600198805332184, -0.21448935568332672, 0.19955860078334808], [-0.04775001481175423, 0.3449215888977051, 0.16966353356838226, 0.11518360674381256, -0.27132388949394226, 0.1644069105386734, 0.24633629620075226, 0.2792411744594574, 0.1480763852596283, -0.15910764038562775, -0.07561510801315308, 0.0053754230029881, 0.1147623136639595, -0.22419185936450958, 0.19411247968673706, 0.030277054756879807], [0.023424478247761726, 0.37399691343307495, -0.318382203578949, 0.28151074051856995, -0.11663606762886047, 0.13000380992889404, -0.23681721091270447, -0.16141118109226227, 0.04557492956519127, -0.2817680835723877, -0.11146996170282364, -0.2623373866081238, -0.08064967393875122, 0.11627744883298874, 0.19923758506774902, 0.24957510828971863], [0.30123746395111084, 0.273196280002594, -0.01430882140994072, 0.01727951318025589, 0.004225153475999832, -0.10622291266918182, 0.22208163142204285, 0.10262364894151688, -0.033489588648080826, -0.0009863576851785183, -0.092257060110569, -0.12401594966650009, 0.1552223116159439, 0.11332248151302338, -0.11031970381736755, -0.07189944386482239], [-0.2417503148317337, -0.08707732707262039, -0.24300408363342285, 0.03327171877026558, 0.029774079099297523, 0.1974266767501831, 0.010842394083738327, -0.04494025930762291, -0.08093193918466568, -0.21029406785964966, -0.13178777694702148, 0.2836785316467285, 0.12319980561733246, 0.0666029080748558, 0.07182440161705017, 0.1004084050655365], [0.09806769341230392, -0.16097940504550934, -0.10199780017137527, -0.26740318536758423, -0.058744676411151886, -0.14407408237457275, 0.07575999200344086, -0.2604121267795563, 0.11092541366815567, 0.0003247905115131289, -0.028230557218194008, 0.10418672114610672, -0.02384663000702858, -0.1978083699941635, -0.23499199748039246, -0.1208520457148552], [-0.13252638280391693, 0.11188210546970367, 0.11521082371473312, -0.010562156327068806, 0.02994760498404503, -0.08088361471891403, 0.01216372661292553, -0.11036243289709091, 0.06777080148458481, 0.013127348385751247, -0.14166082441806793, 0.2298458367586136, 0.11612626910209656, -0.03707308694720268, 0.18460282683372498, 0.23965898156166077], [-0.04558006674051285, 0.08338666707277298, 0.11613817512989044, 0.10622977465391159, 0.14502616226673126, 0.048987872898578644, 0.02281629666686058, 0.16156578063964844, -0.15529553592205048, 0.1427777260541916, 0.14589686691761017, -0.10597404837608337, -0.009969055652618408, 0.07601095736026764, -0.012178371660411358, 0.11016040295362473], [-0.11465784162282944, -0.08202018588781357, -0.08947338163852692, 0.10769510269165039, 0.022043123841285706, 0.0031778498087078333, 0.04258577525615692, -0.004576262552291155, -0.3418702483177185, -0.06327202171087265, -0.03073257952928543, -0.33746349811553955, 0.15925733745098114, 0.0026593112852424383, 0.10940460860729218, 0.06971151381731033], [-0.13136127591133118, 0.010515555739402771, -0.19466055929660797, -0.18436677753925323, 0.0379800982773304, 0.12325827032327652, -0.0017171334475278854, 0.05145260691642761, -0.027450688183307648, -0.006804354023188353, 0.02301616221666336, 0.03422146290540695, 0.038520533591508865, -0.03447752818465233, 0.10423743724822998, -0.024458324536681175], [0.3828984200954437, 0.15296974778175354, 0.2541793882846832, -0.37111926078796387, -0.36011821031570435, -0.4183287024497986, 0.4552976191043854, -0.05908867344260216, -0.06710376590490341, -0.21098412573337555, -0.014072407968342304, -0.28155574202537537, -0.44965919852256775, 0.07271818816661835, 0.2847307026386261, -0.33507779240608215], [0.24599295854568481, 0.48603686690330505, 0.2545102536678314, -0.1749475598335266, -0.413435161113739, -0.46994081139564514, 0.5579885244369507, 0.06511551886796951, -0.12904678285121918, -0.42010536789894104, -0.05407029017806053, 0.15774168074131012, -0.3493654727935791, -0.2127375453710556, -0.030696813017129898, -0.2488115429878235], [0.12248207628726959, 0.298319548368454, -0.1095217615365982, -0.21017763018608093, -0.35622748732566833, -0.1916843056678772, 0.10108882188796997, 0.11772054433822632, 0.2010951191186905, -0.20287032425403595, 0.24116916954517365, 0.10267549008131027, 0.10778987407684326, -0.07138872146606445, 0.41093334555625916, 0.015511738136410713], [-0.4452933669090271, -0.007596495561301708, -0.43026572465896606, -0.4151519238948822, 0.23464716970920563, -0.09018531441688538, -0.580494225025177, -0.2578916847705841, -0.3959283232688904, -0.07545521855354309, -0.02028704434633255, -0.17251962423324585, 0.1214517131447792, 0.5549924373626709, -0.4656313955783844, 0.52895188331604], [-0.24024923145771027, -0.12683066725730896, 0.1305246651172638, -0.15923038125038147, 0.011641314253211021, -0.1269739419221878, -0.6463008522987366, -0.4396313726902008, 0.21714994311332703, -0.06016962602734566, -0.038391951471567154, -0.004377390723675489, 0.5762399435043335, 0.3009187877178192, -0.4368909001350403, 0.6238672137260437], [-0.3836537003517151, -0.292726993560791, -0.4368200898170471, 0.23694704473018646, -0.2958686947822571, 0.03587919846177101, -0.3080580234527588, 0.18651631474494934, 0.15151868760585785, -0.3731715977191925, 0.007286362815648317, 0.39183706045150757, 0.0885893702507019, 0.7037497162818909, -0.3569234311580658, 0.4250853955745697], [-0.39744046330451965, 0.29984763264656067, -0.260301411151886, -0.05932937189936638, -0.35116592049598694, -0.27972400188446045, -0.237243190407753, -0.41853004693984985, 0.0901225283741951, -0.2975139319896698, 0.141989067196846, -0.04089570418000221, -0.008398451842367649, 0.4114112854003906, -0.57108473777771, 0.32001256942749023]], "1_weights": [[0.012754369527101517, -0.2213606983423233, 0.07193230837583542, 0.0010733002563938498, 0.10982177406549454, 0.10918481647968292, -0.3366418778896332, -0.06014165282249451, 0.3558790683746338, 0.055193424224853516, -0.04185495153069496, 0.40233784914016724, -0.4336535334587097, -0.06107961758971214, -0.015293564647436142, -0.06783878803253174], [0.048738088458776474, 0.06560710072517395, -0.4647468328475952, -0.09124395996332169, 0.07274437695741653, -0.4101768732070923, -0.31949687004089355, 0.11602140218019485, -0.4357122778892517, -0.10414426773786545, -0.07536349445581436, 0.24426735937595367, 0.0745621994137764, -0.39992350339889526, -0.16231876611709595, -0.16886354982852936], [-0.19687525928020477, 0.34212538599967957, -0.14218594133853912, -0.18763037025928497, 0.381496787071228, 0.12307848036289215, 0.2999610900878906, 0.002367547946050763, 0.0606502965092659, -0.18851423263549805, -0.06651169061660767, 0.2955646514892578, 0.1071358248591423, 0.25364452600479126, -0.1382834017276764, 0.05987868085503578], [0.05635461583733559, -0.0770239308476448, 0.025913884863257408, 0.13692310452461243, -0.3172032833099365, -0.05610473081469536, 0.39985573291778564, 0.055046871304512024, 0.34302079677581787, 0.26475024223327637, 0.07259946316480637, -0.3289295732975006, 0.32936111092567444, 0.2444046288728714, -0.26317304372787476, 0.009742926806211472], [-0.134385883808136, 0.16588526964187622, -0.14984923601150513, 0.1801740974187851, -0.10270404815673828, 0.1699848771095276, -0.3048170506954193, -0.39898359775543213, -0.4630773961544037, 0.2684999704360962, -0.146288201212883, 0.11421755701303482, 0.07943549007177353, -0.4263373613357544, 0.007363585755228996, -0.15221811830997467], [-0.2709929943084717, 0.19257725775241852, 0.10099673271179199, -0.21981817483901978, 0.23217624425888062, -0.10513267666101456, -0.027437079697847366, -0.28887712955474854, 0.388337105512619, 0.0495266355574131, -0.007007609587162733, 0.02351364865899086, -0.10929767042398453, -0.19074343144893646, -0.14113692939281464, 0.2866540253162384], [0.43556511402130127, -0.24233639240264893, -0.11411047726869583, -0.32910293340682983, -0.03555084392428398, 0.2506794035434723, 0.20168061554431915, 0.6277934312820435, 0.2573433518409729, 0.4740278422832489, 0.3516254127025604, 0.4850718379020691, -0.40379688143730164, -0.3104095458984375, -0.06208871304988861, 0.19374822080135345], [0.38876578211784363, -0.18061262369155884, 0.3201233148574829, -0.17213214933872223, 0.07019483298063278, 0.024590998888015747, 0.2431468665599823, 0.40987271070480347, -0.0686199739575386, -0.09420144557952881, 0.2871197462081909, 0.039460696280002594, -0.24645976722240448, 0.37355560064315796, 0.22540275752544403, -0.07286936789751053], [0.1787487268447876, -0.26506903767585754, -0.17480574548244476, -0.07151559740304947, -0.09139256179332733, 0.20855040848255157, -0.033679574728012085, 0.31611523032188416, -0.2198767364025116, 0.11696253716945648, 0.34369024634361267, 0.031371958553791046, -0.14102908968925476, 0.10442917048931122, -0.06863177567720413, -0.16765065491199493], [0.23781418800354004, 0.05084846541285515, -0.3081310987472534, 0.17424419522285461, -0.1782272309064865, -0.28894051909446716, 0.308411180973053, 0.09855333715677261, -0.007321017328649759, 0.22594353556632996, -0.3029276430606842, 0.28369197249412537, -0.3976016342639923, 0.12628251314163208, 0.018805615603923798, 0.08369556069374084], [0.13055722415447235, -0.2855302393436432, 0.3076029419898987, -0.10812722146511078, 0.08065041154623032, 0.096311554312706, -0.18873366713523865, 0.41312965750694275, 0.16326840221881866, -0.0020339118782430887, 0.30945977568626404, -0.09224443137645721, -0.21376164257526398, 0.14978788793087006, 0.28509384393692017, 0.014770046807825565], [-0.23746050894260406, 0.10290796309709549, -0.23612171411514282, 0.18701523542404175, 0.050543952733278275, -0.058026526123285294, 0.365715354681015, -0.3805438280105591, -0.08300619572401047, -0.03629200533032417, -0.33912965655326843, -0.09543374180793762, 0.07138574123382568, 0.1790347844362259, -0.21494191884994507, -0.1658494621515274], [-0.1929626315832138, -0.16113686561584473, -0.3329782783985138, -0.016484607011079788, -0.1509009599685669, 0.01733534224331379, -0.34546375274658203, -0.20551158487796783, -0.1308412402868271, -0.08133009076118469, -0.20538471639156342, -0.03676365315914154, -0.3486216366291046, -0.2784075140953064, -0.2301475554704666, 0.07043500244617462], [-0.1638161689043045, 0.028044257313013077, -0.17752087116241455, 0.09342876076698303, -0.3186300992965698, -0.3989127278327942, 0.005467358976602554, -0.2819543480873108, -0.27286332845687866, 0.13801179826259613, -0.26795101165771484, -0.2992297112941742, -0.2736571729183197, 0.24534399807453156, -0.07203073799610138, -0.06445837020874023], [0.13047809898853302, -0.40454089641571045, 0.15117210149765015, 0.28256964683532715, -0.16506801545619965, 0.37231624126434326, -0.0740283951163292, 0.22745971381664276, 0.05296507105231285, -0.12974537909030914, 0.26018577814102173, 0.4028302729129791, -0.08381855487823486, -0.3281349241733551, -0.3240770697593689, 0.11803855001926422], [-0.03360983356833458, 0.10633808374404907, -0.3364832103252411, -0.07214672118425369, -0.22138194739818573, -0.48703882098197937, -0.15813718736171722, -0.10451751947402954, -0.3971438705921173, -0.3476197421550751, 0.08863532543182373, -0.3244608938694, -0.18763576447963715, -0.1875651776790619, 0.028698623180389404, -0.5200311541557312]], "2_weights": [[-0.6028540134429932, -0.0404464453458786, -0.07608916610479355], [0.4968344271183014, 0.22422431409358978, 0.17099225521087646], [-0.1423603892326355, 0.0780160129070282, 0.388434499502182], [0.3952253460884094, -0.2426355481147766, 0.3317209482192993], [0.009848610498011112, -0.37722018361091614, -0.16247780621051788], [0.14165538549423218, -0.32003310322761536, -0.4128963351249695], [0.3403985798358917, 0.10414421558380127, 0.3408432900905609], [-0.2853711247444153, -0.6188973784446716, -0.5027203559875488], [-0.5336492657661438, -0.6865203380584717, -0.20979838073253632], [0.03622698411345482, -0.5284125208854675, -0.4808906018733978], [0.679745614528656, 0.5256431102752686, 0.42187440395355225], [-0.4956004321575165, -0.3991616666316986, -0.4571484923362732], [-0.08897898346185684, -0.22528907656669617, 0.26792213320732117], [-0.48406586050987244, -0.18550261855125427, -0.3747093677520752], [0.3706037998199463, -0.28637054562568665, -0.10228561609983444], [-0.5151410698890686, -0.5560317039489746, 0.3126967251300812]], "0_bias": [0.09022032469511032, 0.08124873042106628, 0.00267031486146152, -0.09857074916362762, -0.07010681182146072, -0.06887680292129517, 0.16717840731143951, 0.01077861338853836, -0.06142396479845047, -0.14944380521774292, -0.07073283195495605, -0.08010708540678024, 0.047513850033283234, -0.024945911020040512, 0.054986439645290375, 0.08756068348884583], "1_bias": [0.09190897643566132, -0.12934692203998566, -0.07495111227035522, -0.03840254247188568, -0.11656131595373154, -0.06512212753295898, -0.09493977576494217, 0.11308156698942184, -0.10029368847608566, -0.11636850982904434, -0.021296033635735512, 0.21114873886108398, -0.048799049109220505, -0.06401731073856354, -0.0003357314271852374, -0.1327853798866272], "2_bias": [0.027615774422883987, 0.002078297547996044, 0.07249423861503601], "format": "png"}