{"voxel_size": 0.00425, "block_size": 30, "grid_width": 800, "grid_height": 800, "grid_depth": 800, "atlas_width": 2048, "atlas_height": 2048, "atlas_depth": 32, "num_slices": 8, "min_x": -1.7, "min_y": -1.7, "min_z": -1.7, "atlas_blocks_x": 64, "atlas_blocks_y": 64, "atlas_blocks_z": 1, "input_height": 800.0, "input_width": 800.0, "input_focal": 1111.1110311937682, "worldspace_T_opengl": [[-1.0, 0.0, 0.0, 0.0], [0.0, 0.0, 1.0, 0.0], [0.0, 1.0, 0.0, 0.0], [0.0, 0.0, 0.0, 1.0]], "ndc": false, "0_weights": [[-0.3667663633823395, 0.14519433677196503, -0.24222858250141144, -0.19843000173568726, -0.2513641119003296, 0.25918978452682495, -0.25290486216545105, 0.1504088044166565, -0.18715378642082214, -0.2398558259010315, -0.07084398716688156, 0.03165936470031738, -0.016887005418539047, -0.23987796902656555, -0.2257450670003891, -0.03930501639842987], [0.4076593220233917, 0.25379374623298645, 0.21808938682079315, -0.17149174213409424, -0.20723772048950195, -0.26078370213508606, -0.26495233178138733, -0.12637430429458618, -0.3500060737133026, -0.09191811829805374, -0.25204160809516907, -0.02263270504772663, -0.08743803948163986, -0.049960698932409286, -0.1539311707019806, 0.05776364728808403], [-0.029855746775865555, -0.1270124912261963, 0.1949312686920166, 0.17169325053691864, -0.3236544132232666, 0.2957163453102112, -0.15708781778812408, 0.11045470088720322, 0.33460474014282227, -0.09888824820518494, 0.035961851477622986, -0.20719929039478302, -0.10976053029298782, 0.08370322734117508, -0.26088839769363403, -0.38110408186912537], [-0.154038667678833, -0.05983743071556091, -0.22770892083644867, 0.1325758397579193, -0.2159908264875412, -0.15024948120117188, -0.2650974988937378, 0.293536514043808, 0.3347526490688324, -0.23721933364868164, -0.29004302620887756, -0.016616541892290115, 0.14181406795978546, -0.2106160670518875, -0.06512629985809326, -0.09192029386758804], [0.03382612764835358, 0.18671925365924835, -0.09641928225755692, 0.08987942337989807, 0.21613185107707977, 0.1860121339559555, 0.28332212567329407, 0.2468351274728775, 0.23519015312194824, -0.20323410630226135, -0.08521848917007446, 0.1322253942489624, -0.002211660612374544, -0.0941094309091568, -0.23587235808372498, 0.12001001089811325], [-0.12620887160301208, -0.14890798926353455, -0.30069395899772644, -0.246358722448349, 0.17018260061740875, -0.23744003474712372, 0.39457088708877563, -0.18656207621097565, -0.2141045480966568, -0.043783366680145264, 0.17374594509601593, 0.2092592865228653, 0.011063327081501484, -0.08621213585138321, -0.23742695152759552, -0.07837473601102829], [-0.371567040681839, 0.18953920900821686, -0.24926885962486267, 0.04963245242834091, -0.10324874520301819, 0.2203010469675064, 0.34335264563560486, -0.10175568610429764, 0.08226817846298218, -0.12744812667369843, -0.09660549461841583, 0.2736992835998535, 0.042386770248413086, 0.16947326064109802, 0.05039704963564873, -0.060911037027835846], [-0.21814048290252686, -0.2372959703207016, -0.05919045954942703, -0.17258810997009277, -0.1123325377702713, 0.10597976297140121, -0.21518583595752716, -0.03739456087350845, 0.17948846518993378, 0.1069302186369896, 0.2970368266105652, -0.23772664368152618, 0.1485857218503952, 0.22797974944114685, -0.2524837553501129, -0.13692228496074677], [0.18383046984672546, 0.20256106555461884, -0.24903428554534912, 0.012468226253986359, -0.23214974999427795, -0.17173495888710022, -6.686137930955738e-05, -0.06784142553806305, 0.3514173924922943, 0.07193135470151901, -0.29477158188819885, 0.24524261057376862, 0.07598529011011124, -0.1092996895313263, 0.017566435039043427, 0.00921125803142786], [-0.11216680705547333, 0.13491743803024292, -0.30095168948173523, -0.08345519751310349, -0.060014016926288605, -0.15727169811725616, 0.03479539602994919, 0.23671011626720428, 0.0842861533164978, 0.2014344483613968, 0.02256820909678936, 0.04852696508169174, 0.05788226053118706, 0.09677007049322128, -0.038949452340602875, 0.14962275326251984], [0.05211597681045532, 0.06211462244391441, -0.35817667841911316, -0.12507224082946777, 0.11390665173530579, -0.13147422671318054, 0.02830919809639454, -0.015470384620130062, -0.1667834371328354, -0.146327406167984, 0.03457021340727806, 0.010056914761662483, -0.05634014680981636, -0.0008447954314760864, 0.2545216679573059, 0.012643946334719658], [-0.12394646555185318, -0.07612127810716629, 0.344373494386673, -0.0899188369512558, 0.0213194377720356, 0.22342225909233093, 0.2741229832172394, 0.08770518004894257, 0.0579066202044487, 0.30576905608177185, -0.07933775335550308, 0.05323965847492218, 0.1900118738412857, 0.12984643876552582, 0.2461777627468109, 0.07629041373729706], [0.054923899471759796, 0.014440027996897697, 0.04884721338748932, 0.12546251714229584, 0.07145623117685318, 0.10406284034252167, 0.03520289808511734, -0.06972066313028336, -0.16875499486923218, 0.16753250360488892, 0.1192702203989029, -0.10205817967653275, -0.06403692066669464, 0.08969743549823761, 0.07947057485580444, -0.009620113298296928], [-0.048126544803380966, -0.1354832500219345, 0.10329016298055649, -0.09326213598251343, -0.07223758846521378, 0.12156186997890472, 0.09701956808567047, 0.08699468523263931, 0.238962784409523, 0.03167089819908142, -0.17630095779895782, 0.2196892350912094, 0.19885769486427307, -0.1670665591955185, 0.07934533804655075, 0.06104720011353493], [0.020195230841636658, -0.07397535443305969, -0.0991182029247284, 0.06864847987890244, -0.0780799612402916, 0.2533000409603119, -0.15268398821353912, 0.0811489000916481, -0.17356713116168976, -0.14224877953529358, -0.21699565649032593, -0.19030871987342834, -0.1480075716972351, -0.13752655684947968, -0.0230405293405056, 0.13839483261108398], [-0.05183244124054909, -0.28854531049728394, -0.34585854411125183, -0.3853331208229065, 0.17582882940769196, 0.025915568694472313, -0.1609155386686325, 0.17728884518146515, 0.26792192459106445, 0.051644064486026764, -0.30164825916290283, 0.20627379417419434, 0.18654821813106537, -0.27394184470176697, -0.06074575334787369, 0.21112264692783356], [0.15926174819469452, 0.15563133358955383, -0.32882410287857056, 0.19223469495773315, -0.03735728934407234, 0.055922821164131165, 0.14012418687343597, 0.17015090584754944, -0.259630024433136, 0.09632383286952972, 0.18976272642612457, -0.07615187019109726, -0.3755263686180115, 0.31553757190704346, 0.09501628577709198, -0.27895107865333557], [-0.06643887609243393, 0.119313083589077, -0.190390944480896, 0.124948650598526, 0.1638072431087494, 0.1843251734972, 0.2218106985092163, 0.11379992216825485, -0.13987788558006287, 0.1497555524110794, 0.2957659363746643, 0.12875603139400482, 0.03780550882220268, -0.02739568054676056, -0.3116058111190796, 0.14794772863388062], [0.07654083520174026, 0.3352760970592499, 0.2659188508987427, 0.1776716411113739, -0.29841911792755127, 0.13871927559375763, 0.17894093692302704, 0.22607570886611938, 0.22568069398403168, -0.1372397094964981, -0.08412601053714752, 0.03071078285574913, 0.024652717635035515, -0.3176060914993286, 0.15837571024894714, -0.12486226856708527], [-0.0528356172144413, 0.2682662010192871, -0.3702186346054077, 0.3274332582950592, -0.06526604294776917, 0.14458289742469788, -0.3987082540988922, -0.05637165531516075, -0.030075013637542725, -0.2851080298423767, -0.03472978249192238, -0.2069242298603058, -0.13678380846977234, 0.2864283323287964, 0.09988756477832794, 0.2999598979949951], [0.3089154362678528, 0.17615680396556854, -0.06120786815881729, 0.06193653121590614, 0.008093997836112976, -0.1204487532377243, 0.04050258547067642, 0.21110299229621887, -0.019766230136156082, 0.06977122277021408, 0.010436389595270157, -0.056752558797597885, 0.11056378483772278, 0.10605615377426147, -0.13439853489398956, -0.13530904054641724], [-0.15728650987148285, -0.14369305968284607, -0.19720502197742462, 0.010642501525580883, -0.027680708095431328, 0.1809912621974945, 0.08311150968074799, -0.12815333902835846, 0.01810881495475769, -0.23667901754379272, -0.22195196151733398, 0.2643260657787323, 0.03946099430322647, 0.030481116846203804, 0.11960415542125702, 0.12089134752750397], [0.15874771773815155, -0.08012185990810394, -0.07427571713924408, -0.27727773785591125, -0.0661190077662468, -0.13562177121639252, 0.21274663507938385, -0.11220280826091766, 0.06599894165992737, -0.05819343402981758, 0.0010785487247630954, 0.11995211988687515, -0.12227834761142731, -0.21755735576152802, -0.1022484079003334, -0.14555558562278748], [-0.14517728984355927, 0.07739078998565674, 0.059585582464933395, -0.042763564735651016, -0.0008198548457585275, -0.05956681817770004, 0.0022806490305811167, -0.12242095917463303, 0.037750888615846634, 0.1452236771583557, -0.08847133070230484, 0.25288981199264526, 0.15786466002464294, -0.10937362909317017, 0.21918563544750214, 0.14481346309185028], [0.0432237908244133, -0.0627826377749443, -0.006013026461005211, 0.10942845046520233, 0.1309089958667755, 0.16099178791046143, -0.0031390911899507046, 0.1389426738023758, -0.11727438867092133, 0.13590413331985474, 0.09965712577104568, -0.20350642502307892, -0.08596869558095932, 0.16298875212669373, -0.04173475131392479, 0.22228378057479858], [-0.11022832989692688, -0.06481391936540604, -0.05611463263630867, 0.12240981310606003, 0.03500444442033768, -0.04210066422820091, 0.02044610120356083, 0.031365275382995605, -0.3241584002971649, 0.012987117283046246, -0.03414871171116829, -0.29197874665260315, 0.19002822041511536, -0.06550581753253937, 0.12965111434459686, -0.0316278338432312], [-0.01099298894405365, -0.03035457246005535, -0.19004854559898376, -0.21861247718334198, 0.059521086513996124, 0.22795863449573517, 0.15339453518390656, 0.05532510578632355, -0.12334806472063065, 0.05901559442281723, 0.020216137170791626, -0.038374509662389755, -0.06561245769262314, -0.09649968147277832, 0.2728731334209442, -0.08581432700157166], [0.36187008023262024, -0.34585338830947876, 0.2603105902671814, -0.24790656566619873, -0.34383323788642883, -0.2944609224796295, 0.044035911560058594, 0.14327986538410187, -0.08268297463655472, -0.1449819803237915, 0.028782181441783905, -0.0018779780948534608, -0.3224981725215912, 0.5719332098960876, -0.043125491589307785, -0.41957589983940125], [0.25680872797966003, -0.07559698820114136, 0.24596011638641357, -0.03776930272579193, -0.409863144159317, -0.4068925082683563, 0.12475532293319702, 0.2751869261264801, -0.16894374787807465, -0.34986454248428345, -0.07547322660684586, 0.46091312170028687, -0.20533733069896698, 0.34444060921669006, -0.3338014781475067, -0.36239826679229736], [0.24832232296466827, -0.32110923528671265, -0.11727308481931686, -0.03983684256672859, -0.3676795959472656, -0.2560705840587616, -0.2882290780544281, 0.3819971978664398, 0.14450529217720032, -0.11065363883972168, 0.13796769082546234, 0.4576316475868225, 0.20973476767539978, 0.5173600316047668, 0.1907728910446167, -0.21724796295166016], [-0.33534109592437744, 0.07999122887849808, -0.33239075541496277, -0.42654263973236084, 0.3229595124721527, -0.052762892097234726, -0.36420950293540955, -0.2988256812095642, -0.3707650303840637, -0.06396092474460602, 0.10384858399629593, -0.27684980630874634, -0.1482851803302765, 0.17507055401802063, -0.21789740025997162, 0.42735469341278076], [-0.09034917503595352, -0.04511754959821701, 0.23125483095645905, -0.16873489320278168, 0.0656980499625206, -0.11764611303806305, -0.3985987603664398, -0.43921133875846863, 0.24421055614948273, -0.054968807846307755, 0.08350183069705963, -0.10957998037338257, 0.2727176547050476, -0.09599478542804718, -0.15413831174373627, 0.46371591091156006], [-0.035113200545310974, -0.23416319489479065, -0.33660224080085754, 0.24825763702392578, -0.3327540457248688, -0.05410674214363098, 0.06003403291106224, 0.2795810103416443, 0.14817680418491364, -0.30999988317489624, -0.007023633923381567, 0.3115016222000122, -0.24243873357772827, 0.31400611996650696, 0.09963128715753555, 0.03508923575282097], [-0.2759622633457184, 0.42674484848976135, -0.16256099939346313, -0.07537519931793213, -0.27407774329185486, -0.2556726038455963, 0.010378696955740452, -0.4500546455383301, 0.1204935610294342, -0.28681322932243347, 0.289566308259964, -0.15558293461799622, -0.3179473280906677, -0.012003674171864986, -0.30525320768356323, 0.19709767401218414]], "1_weights": [[-0.02138318493962288, -0.19597898423671722, -0.07436084747314453, -0.05015406757593155, -0.013610982336103916, 0.06008075177669525, -0.27922675013542175, -0.2853553593158722, 0.3576106131076813, 0.02617816813290119, -0.21837028861045837, 0.31033414602279663, -0.43423572182655334, 0.03414030745625496, 0.08316358923912048, -0.1945824772119522], [-0.13405129313468933, 0.13469256460666656, -0.10984516143798828, -0.05552520975470543, 0.18230123817920685, -0.37426650524139404, -0.2990414798259735, -0.11806974560022354, -0.28370195627212524, -0.04652629420161247, 0.048727311193943024, -0.06225593760609627, 0.16176913678646088, -0.34881311655044556, -0.16471576690673828, -0.13659228384494781], [-0.254700243473053, 0.30860763788223267, -0.2351684272289276, -0.11368267983198166, 0.35004672408103943, 0.1932344138622284, 0.329816609621048, -0.2582244873046875, -0.013928820379078388, -0.2944202721118927, 0.04096325859427452, 0.20611298084259033, 0.10883592814207077, 0.2365047037601471, -0.201914444565773, -0.054422248154878616], [-0.07723694294691086, -0.08916541934013367, -0.08014736324548721, 0.0522976815700531, -0.3390985429286957, 0.009582680650055408, 0.4455151855945587, 0.1261184811592102, 0.3105986714363098, 0.28434738516807556, 0.06420010328292847, -0.3623495101928711, 0.2437974214553833, 0.3144396245479584, -0.1575203835964203, 0.006976436823606491], [0.06795641779899597, -0.07320566475391388, -0.4713650047779083, 0.23028163611888885, -0.10684003680944443, 0.14965885877609253, -0.30671295523643494, -0.20099923014640808, -0.43947356939315796, 0.16475063562393188, -0.07734967768192291, 0.22007505595684052, 0.0600501149892807, -0.42021405696868896, 0.044136546552181244, -0.14996393024921417], [-0.16831596195697784, -0.039313264191150665, 0.11922061443328857, -0.22506490349769592, 0.24305477738380432, -0.06421956419944763, -0.04796738550066948, -0.0627686157822609, 0.4656909704208374, 0.09009843319654465, -0.0014501853147521615, 0.12736812233924866, -0.15898166596889496, -0.2075960487127304, -0.1615949422121048, 0.2886006236076355], [0.20516610145568848, -0.2316470444202423, -0.015493079088628292, -0.4052055776119232, -0.1455840766429901, 0.2655290365219116, 0.2612391710281372, 0.4484374523162842, 0.2822608947753906, 0.3731749951839447, 0.20465189218521118, 0.3117578327655792, -0.4103211760520935, -0.2105388641357422, -0.03423457220196724, 0.1798548698425293], [0.3712148070335388, -0.05994219332933426, 0.5310407280921936, -0.111771360039711, -0.05187055468559265, -0.19885849952697754, 0.24527372419834137, 0.4101853370666504, -0.18104085326194763, -0.11693470925092697, 0.004852838348597288, -0.12444139271974564, -0.2714178264141083, 0.611459493637085, 0.2660166025161743, -0.14819662272930145], [0.16472436487674713, -0.26755332946777344, -0.21573518216609955, -0.05921143293380737, -0.06677419692277908, 0.28970661759376526, -0.023068228736519814, 0.3409092128276825, -0.1742982417345047, 0.08173663914203644, 0.4063236713409424, 0.052383024245500565, -0.14794106781482697, 0.09018390625715256, 0.05493523180484772, -0.243445485830307], [0.24793027341365814, 0.014664610847830772, -0.4314339756965637, 0.20538552105426788, -0.14506380259990692, -0.3004949390888214, 0.2986290156841278, -0.0018432579236105084, 0.06266368925571442, 0.26273971796035767, -0.2372017800807953, 0.19298724830150604, -0.4016270935535431, 0.13234329223632812, 0.014547957107424736, 0.08167976886034012], [0.305684357881546, -0.3200320303440094, 0.1861281543970108, -0.11810992658138275, 0.18251311779022217, 0.14151617884635925, -0.1954946666955948, 0.3516477942466736, 0.27099359035491943, -0.12157942354679108, 0.3557129204273224, -0.050536010414361954, -0.08224434405565262, 0.1414903849363327, 0.23167264461517334, -0.013216618448495865], [-0.2225262075662613, 0.08436508476734161, -0.173186257481575, -0.01065564714372158, -0.061828963458538055, -0.0033167407382279634, 0.325716495513916, -0.29494789242744446, -0.0761270523071289, -0.21508795022964478, -0.31147679686546326, -0.02813183143734932, -0.09708867222070694, 0.3915596902370453, -0.06565044820308685, -0.20072545111179352], [-0.163608118891716, -0.17601072788238525, -0.24844281375408173, -0.004423580132424831, -0.05537020042538643, 0.18906594812870026, -0.3322024643421173, -0.2318771779537201, 0.03472912684082985, 0.028644153848290443, -0.23952160775661469, 0.09335228055715561, -0.3593803644180298, -0.15853208303451538, -0.15051499009132385, 0.2686724066734314], [-0.10712248086929321, 0.006276104599237442, -0.20257775485515594, 0.1228967234492302, -0.24736523628234863, -0.1593979001045227, -0.04750451445579529, -0.11495447158813477, -0.18198630213737488, 0.20378980040550232, -0.28499510884284973, -0.20311902463436127, -0.13517098128795624, 0.37412479519844055, -0.06882581859827042, 0.12064700573682785], [0.005162434186786413, -0.36919137835502625, 0.277116984128952, 0.15128086507320404, -0.4059894382953644, 0.44945332407951355, -0.07394786179065704, 0.13151922821998596, 0.19646970927715302, -0.11348018050193787, 0.06580956280231476, 0.4641247093677521, -0.09406278282403946, -0.048045508563518524, -0.04635290056467056, 0.13126863539218903], [0.05038706585764885, 0.14264486730098724, -0.4260525405406952, -0.006116575561463833, 0.22760707139968872, -0.16774381697177887, -0.12430300563573837, 0.028250349685549736, -0.19405116140842438, -0.053689226508140564, 0.12480996549129486, -0.1069350615143776, -0.12836124002933502, -0.3198392689228058, 0.006376870442181826, -0.25379031896591187]], "2_weights": [[-0.3895112872123718, 0.3490070700645447, 0.13767705857753754], [0.3388938903808594, 0.2828262448310852, 0.19970397651195526], [-0.19539526104927063, -0.2412104457616806, 0.002838161773979664], [0.4599609076976776, -0.2095111757516861, 0.3574157655239105], [0.299966961145401, 0.19491584599018097, 0.24411723017692566], [0.02869230881333351, -0.3928735554218292, -0.3935965299606323], [0.36283040046691895, 0.13125059008598328, 0.33957821130752563], [-0.013973473571240902, -0.35745495557785034, -0.2516878545284271], [-0.49635234475135803, -0.6303994655609131, -0.20601533353328705], [0.15872982144355774, -0.06768064945936203, -0.24863728880882263], [0.4964204728603363, 0.48686596751213074, 0.4492415487766266], [-0.4071488082408905, -0.034037038683891296, -0.4269016683101654], [0.041918493807315826, -0.08843488991260529, 0.3704780042171478], [-0.7948696613311768, -0.6886096000671387, -0.779693603515625], [0.39593756198883057, -0.30829885601997375, -0.08640939742326736], [-0.39679527282714844, -0.3969986140727997, 0.4590452313423157]], "0_bias": [0.08173176646232605, -0.01746455579996109, -0.021944712847471237, -0.05218519642949104, -0.05497259646654129, -0.08242040127515793, -0.04253176972270012, 0.04180397093296051, -0.0549377016723156, -0.11069503426551819, 0.024381691589951515, -0.0007006520754657686, -0.04020962119102478, 0.017453497275710106, -0.0651116594672203, 0.03572430461645126], "1_bias": [-0.041227586567401886, -0.07889766246080399, 0.060311008244752884, -0.00886056199669838, -0.032692380249500275, 0.041170500218868256, -0.07399890571832657, -0.03093605861067772, 0.028266029432415962, -0.03533326834440231, 0.03030053898692131, 0.037221942096948624, 0.010061879642307758, 0.09634055197238922, 0.0170102771371603, -0.068507619202137], "2_bias": [-0.06999083608388901, -0.05039277300238609, -0.03570343181490898], "format": "png"}