{"voxel_size": 0.00425, "block_size": 30, "grid_width": 800, "grid_height": 800, "grid_depth": 800, "atlas_width": 2048, "atlas_height": 2048, "atlas_depth": 32, "num_slices": 8, "min_x": -1.7, "min_y": -1.7, "min_z": -1.7, "atlas_blocks_x": 64, "atlas_blocks_y": 64, "atlas_blocks_z": 1, "input_height": 800.0, "input_width": 800.0, "input_focal": 1111.1110311937682, "worldspace_T_opengl": [[-1.0, 0.0, 0.0, 0.0], [0.0, 0.0, 1.0, 0.0], [0.0, 1.0, 0.0, 0.0], [0.0, 0.0, 0.0, 1.0]], "ndc": false, "0_weights": [[-0.3499401807785034, 0.1754240244626999, -0.36489492654800415, -0.17684121429920197, -0.26149216294288635, 0.2167651653289795, -0.18208810687065125, 0.10180658847093582, -0.16324743628501892, -0.20187503099441528, -0.03535782918334007, -0.16482241451740265, -0.05311404541134834, -0.25875070691108704, -0.1464477777481079, -0.09014026820659637], [0.20245729386806488, 0.2789357006549835, 0.20965422689914703, -0.25138071179389954, -0.17490200698375702, -0.22756583988666534, -0.31512466073036194, -0.06047675758600235, -0.342635840177536, -0.16752922534942627, -0.2688661515712738, -0.05454852059483528, -0.10812819749116898, -0.020608549937605858, -0.10920316725969315, 0.13892512023448944], [0.04152769222855568, 0.00567458663135767, 0.24652183055877686, 0.1538265496492386, -0.25462692975997925, 0.27014899253845215, -0.2522311806678772, 0.06768641620874405, 0.287371426820755, -0.19817304611206055, -0.01896282099187374, -0.16089721024036407, -0.18863756954669952, 0.01881379447877407, -0.24505768716335297, -0.3275851905345917], [-0.133958637714386, -0.025863967835903168, -0.3452513515949249, 0.1531675159931183, -0.2242175042629242, -0.19387207925319672, -0.20275217294692993, 0.24396133422851562, 0.3510330021381378, -0.20288781821727753, -0.25400593876838684, -0.19975972175598145, 0.10355926305055618, -0.23638470470905304, 0.010805095545947552, -0.1351393312215805], [-0.16882945597171783, 0.21947288513183594, -0.09972529858350754, 0.011124609969556332, 0.2528012692928314, 0.22465725243091583, 0.2330743670463562, 0.3159608840942383, 0.23929452896118164, -0.2817472815513611, -0.09815064817667007, 0.10140395164489746, -0.025887982919812202, -0.06718025356531143, -0.18344780802726746, 0.20417435467243195], [-0.05881202220916748, -0.023525983095169067, -0.25853604078292847, -0.26636430621147156, 0.23634040355682373, -0.26298272609710693, 0.2991131544113159, -0.23042766749858856, -0.26319724321365356, -0.13984930515289307, 0.11829251796007156, 0.25914278626441956, -0.06408309936523438, -0.15118712186813354, -0.21537190675735474, -0.02783682942390442], [-0.33831819891929626, 0.23579545319080353, -0.34750089049339294, 0.06627409905195236, -0.1040961742401123, 0.17336849868297577, 0.3787532150745392, -0.15580153465270996, 0.07029697299003601, -0.10727071762084961, -0.05681973695755005, 0.13792897760868073, -0.0004856048326473683, 0.12077777832746506, 0.11653030663728714, -0.077702097594738], [-0.4127829670906067, -0.1825319528579712, -0.04477273300290108, -0.24326659739017487, -0.06324109435081482, 0.1621643304824829, -0.26084575057029724, 0.04352521896362305, 0.1742650270462036, 0.0205672699958086, 0.2979734539985657, -0.2620896100997925, 0.11385320872068405, 0.24548931419849396, -0.1771451085805893, -0.04334839805960655], [0.23807662725448608, 0.3044937551021576, -0.2356119304895401, -0.014994917437434196, -0.17507220804691315, -0.1977052241563797, -0.10344433039426804, -0.11391927301883698, 0.29411861300468445, -0.013113207183778286, -0.3524211645126343, 0.30726444721221924, 0.016854820773005486, -0.17240069806575775, 0.06443244218826294, 0.047971293330192566], [0.09611384570598602, 0.1877918690443039, -0.1428685337305069, -0.01807892508804798, -0.03642341494560242, -0.2058965116739273, -0.09462662041187286, 0.1490345299243927, -0.08536628633737564, 0.15243563055992126, 0.07632315903902054, 0.1776765137910843, 0.014482867904007435, -0.010611126199364662, -0.010675093159079552, 0.25911638140678406], [-0.10597307235002518, 0.13963289558887482, -0.25928977131843567, -0.02577236294746399, 0.18430683016777039, -0.04248571768403053, -0.01127927377820015, 0.13970758020877838, -0.22045397758483887, -0.23916348814964294, 0.10147449374198914, 0.09055329859256744, -0.07681752741336823, -0.0167278740555048, 0.3653739094734192, 0.1284986436367035], [-0.13661660254001617, -0.09741219133138657, 0.24423161149024963, -0.14236168563365936, 0.043485548347234726, 0.21925188601016998, 0.1931065022945404, 0.14409077167510986, 6.508507067337632e-05, 0.28014418482780457, -0.1157926395535469, 0.1562158167362213, 0.1947409212589264, 0.13691668212413788, 0.371446430683136, 0.0354098416864872], [0.051506295800209045, -0.09234091639518738, 0.06927994638681412, 0.028032321482896805, 0.0471985749900341, 0.13042162358760834, -0.013995014131069183, -0.24074724316596985, -0.07021983712911606, 0.16650861501693726, 0.13965560495853424, -0.20044569671154022, -0.0865350216627121, 0.2533063590526581, 0.04694140702486038, -0.0036907487083226442], [-0.28728243708610535, -0.20381702482700348, 0.009764769114553928, 0.09498786181211472, -0.24000763893127441, -0.03575052693486214, 0.0916929841041565, 0.15335515141487122, 0.22574478387832642, 0.059248194098472595, -0.1861800104379654, 0.25396066904067993, 0.2772162854671478, -0.2608705163002014, -0.08276521414518356, 0.15358072519302368], [0.16609713435173035, -0.058705300092697144, -0.05349947139620781, 0.045156434178352356, 0.034524764865636826, 0.1773240566253662, -0.19593076407909393, 0.18333907425403595, 0.006214494351297617, -0.2371799349784851, 0.022486424073576927, -0.19105449318885803, -0.09802710264921188, -0.195525661110878, -0.060505300760269165, 0.2051071971654892], [-0.16001766920089722, -0.3273937404155731, -0.33378446102142334, -0.36949291825294495, 0.1533726304769516, 0.07687690854072571, -0.05229444429278374, 0.26045653223991394, 0.3942731022834778, 0.23651234805583954, -0.21750958263874054, 0.20286044478416443, 0.22453860938549042, -0.1809966266155243, -0.0501035638153553, 0.1633392572402954], [0.08239314705133438, 0.10967759788036346, -0.2861799895763397, 0.23419798910617828, -0.07099227607250214, 0.09173990041017532, 0.28317761421203613, 0.23596417903900146, -0.1269652247428894, 0.2874724566936493, 0.26650890707969666, -0.09557817131280899, -0.3457138240337372, 0.41958656907081604, 0.1074962392449379, -0.33688902854919434], [-0.1520918607711792, 0.10772471874952316, -0.13351210951805115, 0.15890216827392578, 0.1507997363805771, 0.2377966195344925, 0.35836970806121826, 0.18750326335430145, 0.010684452019631863, 0.34917140007019043, 0.3829639256000519, 0.11782673001289368, 0.06182144209742546, 0.07417318224906921, -0.2947560250759125, 0.10949423909187317], [-0.15568897128105164, 0.2619563639163971, 0.07526983320713043, 0.12747088074684143, -0.29615816473960876, 0.20372751355171204, 0.20185613632202148, 0.3277960419654846, 0.2736515998840332, -0.10729870200157166, -0.008815272711217403, 0.04860103130340576, 0.08568126708269119, -0.2502491772174835, 0.16738545894622803, -0.16486425697803497], [-0.08243826031684875, 0.17426086962223053, -0.32585522532463074, 0.37759679555892944, -0.13054676353931427, 0.14960351586341858, -0.2546139657497406, -0.047536227852106094, 0.06970955431461334, -0.10907794535160065, 0.008047038689255714, -0.2541547119617462, -0.13450244069099426, 0.378265380859375, 0.12301671504974365, 0.21060913801193237], [0.24497556686401367, 0.237041637301445, 0.05364075303077698, 0.09645149856805801, 0.04837029427289963, -0.09673517942428589, 0.15168099105358124, 0.19213446974754333, 0.13726221024990082, 0.261794775724411, 0.08553408831357956, -0.06642942130565643, 0.10795753449201584, 0.18315389752388, -0.10022606700658798, -0.12717817723751068], [-0.1774817705154419, -0.24255874752998352, -0.3677201271057129, 0.09366058558225632, -0.04166020452976227, 0.26490822434425354, -0.000467860751086846, -0.04443548619747162, -0.018219731748104095, -0.38776692748069763, -0.23012034595012665, 0.30601993203163147, 0.17121586203575134, 0.1692095249891281, 0.1618373543024063, 0.005015963222831488], [0.2566455900669098, -0.27209144830703735, -0.21687623858451843, -0.23210546374320984, -0.17365029454231262, -0.06990847736597061, 0.2557012736797333, -0.14435309171676636, 0.055449988692998886, -0.015389842912554741, 0.018311847001314163, 0.07335110008716583, -0.10708057880401611, -0.22073577344417572, -0.03796020522713661, -0.2662549912929535], [-0.1373451203107834, 0.255440354347229, 0.22580812871456146, -0.01785251870751381, 0.09366239607334137, -0.04017908126115799, 0.04305930808186531, -0.12652477622032166, 0.09344258904457092, 0.24399645626544952, -0.12895508110523224, 0.28001001477241516, 0.10943323373794556, -0.143087238073349, 0.3307972848415375, 0.16950146853923798], [0.19501928985118866, -0.015282755717635155, 0.20611439645290375, 0.0736035630106926, 0.24053139984607697, -0.0010195750510320067, 0.05938637629151344, 0.1487455815076828, -0.19352878630161285, 0.17180977761745453, 0.08973366022109985, -0.1660107523202896, 0.004520270507782698, 0.12869909405708313, 0.10033296793699265, 0.222078338265419], [-0.07102009654045105, -0.19005855917930603, -0.13134129345417023, 0.1877191960811615, 0.1771351546049118, -0.06342310458421707, 0.06231417879462242, 0.07216987013816833, -0.1539638489484787, -0.01586422510445118, -0.009769635275006294, -0.22582246363162994, 0.14409328997135162, -0.06386003643274307, 0.13054609298706055, -0.052848931401968], [-0.056782547384500504, -0.10215608775615692, -0.39118924736976624, -0.2691635191440582, 0.2461317628622055, 0.0020836072508245707, 0.24399334192276, 0.14137175679206848, -0.14439105987548828, 0.09190180897712708, -0.11420512944459915, -0.0983048528432846, -0.0888877809047699, 0.10253019630908966, 0.2642803490161896, -0.15342245995998383], [0.07071538269519806, 0.08113556355237961, 0.4244718849658966, -0.03869716823101044, -0.19592802226543427, -0.5047622323036194, 0.264934241771698, 0.09112495183944702, 0.24574624001979828, 0.09034153819084167, 0.17559115588665009, -0.13176564872264862, -0.31948989629745483, 0.5771953463554382, -0.28937679529190063, -0.43296894431114197], [-0.06632199138402939, 0.37178492546081543, 0.40468189120292664, 0.14119213819503784, -0.25686976313591003, -0.5366086959838867, 0.32589423656463623, 0.18682578206062317, 0.14797288179397583, -0.1282685101032257, 0.11103750765323639, 0.3293167054653168, -0.20288972556591034, 0.26583120226860046, -0.6106137037277222, -0.30655866861343384], [-0.1582242250442505, 0.2106207311153412, 0.020156221464276314, 0.13508476316928864, -0.23998905718326569, -0.3572515845298767, -0.12312754988670349, 0.2911755442619324, 0.4996752440929413, 0.13160057365894318, 0.40159109234809875, 0.32005444169044495, 0.17359501123428345, 0.3685707449913025, -0.15015578269958496, -0.09835629165172577], [-0.2916913330554962, -0.17054225504398346, -0.21183112263679504, -0.35489609837532043, 0.2522376477718353, 0.0064969672821462154, -0.3062276840209961, -0.15299318730831146, -0.3693932592868805, 0.08529327809810638, 0.1108582466840744, -0.15404647588729858, -0.13857442140579224, 0.36829957365989685, -0.16806776821613312, 0.3353613317012787], [-0.06939796358346939, -0.251148521900177, 0.3417755663394928, -0.09930571168661118, 0.029187312349677086, -0.042897067964076996, -0.3517077565193176, -0.3156241774559021, 0.2781524062156677, 0.061590440571308136, 0.08666309714317322, -0.0020138779655098915, 0.29104968905448914, 0.07816847413778305, -0.09468337148427963, 0.3766995966434479], [-0.07477482408285141, -0.40047088265419006, -0.22642569243907928, 0.23510271310806274, -0.3800694942474365, 0.020125627517700195, 0.10498891025781631, 0.36554980278015137, 0.17877693474292755, -0.24458527565002441, 0.14810553193092346, 0.3538547456264496, -0.29078197479248047, 0.35227978229522705, 0.0545266829431057, 0.06485309451818466], [-0.23024168610572815, 0.16954141855239868, -0.055766765028238297, -0.017785899341106415, -0.3400525152683258, -0.20965039730072021, 0.06980741024017334, -0.32275891304016113, 0.1091494932770729, -0.15060213208198547, 0.27904707193374634, -0.036255598068237305, -0.2912823557853699, 0.16666960716247559, -0.2534159719944, 0.10407228767871857]], "1_weights": [[-0.02738906256854534, -0.18779009580612183, 0.12025535106658936, -0.0028251998592168093, 0.04626907408237457, 0.19498313963413239, -0.299040287733078, -0.30992892384529114, 0.33589184284210205, -0.0898926705121994, -0.21623747050762177, 0.1253221035003662, -0.43282800912857056, -0.056056439876556396, 0.1337519735097885, -0.048678576946258545], [-0.0012044853065162897, 0.050565458834171295, -0.42022275924682617, -0.08790095895528793, 0.33379948139190674, 0.08427836745977402, -0.40382373332977295, 0.2054874151945114, -0.4570287764072418, 0.14181233942508698, 0.1107412576675415, 0.2630828022956848, 0.1467823088169098, -0.0342990905046463, -0.22438445687294006, 0.10217943787574768], [-0.40658777952194214, 0.2912479043006897, -0.15126606822013855, -0.1491621732711792, 0.37923479080200195, 0.18541620671749115, 0.33383432030677795, -0.16144812107086182, -0.11501409113407135, -0.26495257019996643, -0.047041598707437515, 0.27765771746635437, 0.11616518348455429, 0.27754899859428406, -0.1367911994457245, -0.06831254810094833], [-0.007968747057020664, -0.0721096470952034, -0.01938019134104252, 0.07575073093175888, -0.2893565595149994, -0.022399013862013817, 0.3668193519115448, 0.075722835958004, 0.3296479880809784, 0.2591351568698883, 0.03867859020829201, -0.34914669394493103, 0.3306002914905548, 0.282090961933136, -0.14734260737895966, 0.02176913432776928], [0.1770961582660675, 0.16990867257118225, -0.19557778537273407, 0.3766721487045288, -0.1877589374780655, 0.3435133695602417, -0.2883729636669159, -0.19272196292877197, -0.34657081961631775, 0.21557193994522095, -0.2000931352376938, 0.23738586902618408, 0.1316314935684204, -0.2969972789287567, -0.0865459144115448, 0.07790780067443848], [-0.15289050340652466, 0.13673345744609833, 0.05458690971136093, -0.34184402227401733, 0.09604781121015549, 0.029211532324552536, -0.17178446054458618, 0.09312547743320465, 0.29420286417007446, 0.2450380027294159, 0.044712722301483154, 0.16229623556137085, -0.11045397818088531, -0.03952942043542862, -0.23755177855491638, 0.3078189790248871], [0.38917046785354614, -0.2842129170894623, -0.10562416166067123, -0.32921290397644043, -0.22268706560134888, 0.30111104249954224, 0.23441703617572784, 0.37796080112457275, 0.13767902553081512, 0.4489635229110718, 0.37984830141067505, 0.29670006036758423, -0.34292012453079224, -0.20498570799827576, -0.2413015216588974, 0.2329501360654831], [0.24907857179641724, -0.10358639061450958, 0.27679353952407837, -0.20602834224700928, -0.0938105508685112, -0.11701791733503342, 0.22833649814128876, 0.4575464129447937, -0.06274101883172989, -0.19788993895053864, -0.04459026828408241, 0.05718989670276642, -0.24969904124736786, 0.46426254510879517, 0.2407502830028534, -0.1300477832555771], [0.17737220227718353, -0.15432894229888916, -0.22805316746234894, -0.1036299541592598, -0.06732524931430817, 0.3387224078178406, -0.025765670463442802, 0.44773903489112854, -0.14285245537757874, -0.05336514487862587, 0.3560672998428345, 0.007627705577760935, -0.1123829111456871, 0.21040040254592896, -0.11024139821529388, 0.027286725118756294], [0.17940782010555267, 0.06323829293251038, -0.34349340200424194, 0.22435304522514343, -0.22368048131465912, -0.24585172533988953, 0.3034111261367798, 0.14900273084640503, -0.11960248649120331, 0.2259495109319687, -0.37375080585479736, 0.3120720088481903, -0.3687388002872467, 0.1364063024520874, 0.1540917456150055, 0.14866478741168976], [0.39325201511383057, -0.3414789140224457, 0.15605631470680237, -0.15770038962364197, 0.19617757201194763, 0.22330941259860992, -0.22823069989681244, 0.42245984077453613, 0.2505669891834259, -0.07999449223279953, 0.18936079740524292, -0.059114400297403336, -0.21724528074264526, 0.23598811030387878, 0.2163570523262024, 0.03149419650435448], [-0.2427123486995697, 0.26587405800819397, -0.24346862733364105, 0.27304282784461975, 0.0865645557641983, 0.12270655483007431, 0.30925309658050537, -0.2888514995574951, -0.16595250368118286, -0.13692359626293182, -0.21821562945842743, -0.07862269878387451, 0.1272306889295578, 0.2933751344680786, -0.0030314528848975897, -0.07249150425195694], [-0.09559649974107742, -0.1886965036392212, -0.3351251482963562, 0.11413829773664474, -0.17623209953308105, 0.28280630707740784, -0.3381222188472748, -0.06361014395952225, -0.020972535014152527, 0.18736106157302856, -0.4415056109428406, 0.06448093801736832, -0.2943260967731476, -0.15022850036621094, -0.165235698223114, 0.18438886106014252], [-0.08497166633605957, 0.09126213937997818, -0.2759927809238434, 0.12411937117576599, -0.21952497959136963, -0.12249022722244263, -0.00398206664249301, -0.0755351185798645, -0.20289862155914307, 0.40914738178253174, -0.4075302183628082, -0.1827552169561386, -0.28823357820510864, 0.3505888283252716, -0.056603748351335526, 0.17270147800445557], [0.16919289529323578, -0.27426597476005554, 0.19550886750221252, 0.16437646746635437, -0.40849581360816956, 0.4591333568096161, -0.009011090733110905, 0.022157594561576843, -0.039347093552351, -0.13692758977413177, 0.18043169379234314, 0.3218875229358673, -0.06906938552856445, -0.30287235975265503, 0.0056741381995379925, 0.05167369544506073], [0.06883648037910461, 0.2601543366909027, -0.36190828680992126, -0.1420181542634964, 0.2174806445837021, -0.20835280418395996, -0.1442367434501648, 0.009237605147063732, -0.14688770473003387, -0.06232345104217529, -0.013556284829974174, -0.1653420776128769, -0.21468089520931244, -0.19035105407238007, 0.04487748444080353, -0.10364007949829102]], "2_weights": [[-0.5526084899902344, 0.25110897421836853, 0.14831256866455078], [0.49099820852279663, 0.26648998260498047, 0.2892098128795624], [-0.15371695160865784, 0.0714251920580864, 0.35435181856155396], [0.5341812372207642, -0.1001039519906044, 0.48165616393089294], [0.33762165904045105, 0.2085508406162262, 0.29659730195999146], [-0.08887350559234619, -0.4592340886592865, -0.4258534908294678], [0.32898271083831787, 0.1725492775440216, 0.3119291663169861], [-0.0655684843659401, -0.6120792627334595, -0.4307984709739685], [-0.2671697437763214, -0.37927067279815674, -0.10858258605003357], [0.31638532876968384, -0.07875975221395493, -0.3996155261993408], [0.611208975315094, 0.5330433249473572, 0.4350784718990326], [-0.5345129370689392, -0.2274293154478073, -0.5049335360527039], [-0.08919169008731842, -0.28201353549957275, 0.2770492732524872], [-0.5778225660324097, -0.24256105720996857, -0.37468135356903076], [0.4860534965991974, -0.3266793489456177, -0.11750243604183197], [-0.5071999430656433, -0.3856230676174164, 0.369594931602478]], "0_bias": [-0.007975338958203793, -0.04873795807361603, 0.01672467589378357, -0.020869987085461617, -0.0783877819776535, -0.03541428595781326, 0.08833707123994827, 0.11813672631978989, 0.0836063101887703, 0.08322947472333908, 0.10894515365362167, -0.011101096868515015, -0.009688494727015495, 0.11803333461284637, -0.05297728627920151, -0.012525319121778011], "1_bias": [0.1288415491580963, -0.008805003948509693, -0.09888289868831635, -0.03286091238260269, -0.049455076456069946, 0.11554335057735443, -0.07507511228322983, 0.10513395071029663, 0.010133499279618263, -0.04987800866365433, -0.08406634628772736, 0.07782789319753647, -0.01689116284251213, 0.12650437653064728, -0.01660919561982155, 0.1072489470243454], "2_bias": [-0.14042513072490692, -0.11150234192609787, -0.060255713760852814], "format": "png"}