{"voxel_size": 0.00425, "block_size": 30, "grid_width": 800, "grid_height": 800, "grid_depth": 800, "atlas_width": 2048, "atlas_height": 2048, "atlas_depth": 32, "num_slices": 8, "min_x": -1.7, "min_y": -1.7, "min_z": -1.7, "atlas_blocks_x": 64, "atlas_blocks_y": 64, "atlas_blocks_z": 1, "input_height": 800.0, "input_width": 800.0, "input_focal": 1111.1110311937682, "worldspace_T_opengl": [[-1.0, 0.0, 0.0, 0.0], [0.0, 0.0, 1.0, 0.0], [0.0, 1.0, 0.0, 0.0], [0.0, 0.0, 0.0, 1.0]], "ndc": false, "0_weights": [[0.4305647909641266, 0.08639036118984222, -0.1092902347445488, -0.10571163892745972, -0.0781523585319519, -0.1259298026561737, -0.25237300992012024, -0.05566086247563362, -0.04850776493549347, 0.17094051837921143, 0.04313616454601288, -0.1553686261177063, 0.04123209789395332, -0.005015804897993803, 0.17938785254955292, -0.09448420256376266], [-0.2885139584541321, 0.17865251004695892, -0.13820889592170715, 0.24812546372413635, -0.22305014729499817, -0.2642926275730133, -0.058532122522592545, 0.0481838583946228, 0.28440505266189575, -0.10982052981853485, -0.11607494205236435, -0.0003892849199473858, 0.058159615844488144, 0.09083373844623566, 0.008469101041555405, 0.3000558614730835], [0.14508120715618134, -0.220241978764534, 0.03909197449684143, 0.3020854890346527, -0.06884314119815826, 0.31856468319892883, 0.31633222103118896, -0.16398921608924866, -0.25710490345954895, 0.05270570144057274, -0.007553627714514732, -0.05024465173482895, -0.30453041195869446, -0.27915269136428833, -0.07822059839963913, -0.2314722090959549], [0.3750390112400055, -0.14107616245746613, 0.12632662057876587, -0.02115979790687561, -0.11440177261829376, 0.16657058894634247, 0.23309049010276794, 0.09912970662117004, 0.25953128933906555, 0.135141521692276, -0.277413010597229, -0.22495098412036896, -0.19458408653736115, 0.030058497563004494, -0.22934824228286743, 0.06067764386534691], [-0.20298680663108826, -0.3167572617530823, 0.16733689606189728, 0.515984296798706, 0.16083316504955292, -0.25818461179733276, 0.2693992257118225, 0.10631339251995087, -0.09375105053186417, 0.27397263050079346, 0.09784968197345734, -0.09782817214727402, -0.23422594368457794, -0.23520128428936005, 0.19882522523403168, -0.24548885226249695], [-0.10290487110614777, -0.18267610669136047, 0.07056393474340439, -0.36098846793174744, -0.2062949538230896, 0.06946779787540436, -0.28972989320755005, -0.2599816918373108, 0.1965770721435547, -0.519611656665802, -0.2656804323196411, -0.1674932837486267, 0.22659532725811005, 0.06124106049537659, -0.3635467290878296, -0.18418549001216888], [-0.11245796084403992, 0.16531382501125336, 0.42680439352989197, 0.12878252565860748, 0.29710450768470764, 0.11560838669538498, -0.2775656282901764, 0.01958034187555313, -0.0849519595503807, -0.23891818523406982, 0.14680953323841095, -0.16449546813964844, -0.05565391108393669, 0.020741747692227364, -0.020475903525948524, 0.21291448175907135], [0.04317299276590347, 0.0908598080277443, 0.2541247010231018, -0.10201696306467056, -0.07871431857347488, 0.3283768892288208, -0.18528416752815247, -0.09827690571546555, -0.16729147732257843, -0.10504928231239319, 0.07416704297065735, 0.2075929194688797, 0.09231354296207428, 0.16715691983699799, -0.14914731681346893, 0.02671198360621929], [-0.5085275769233704, -0.01128803938627243, 0.15607447922229767, 0.19660043716430664, 0.07085443288087845, 0.08672980219125748, -0.06244601681828499, -0.15212759375572205, -0.25291019678115845, -0.10990187525749207, -0.19113458693027496, -0.04625329747796059, 0.03690310940146446, 0.26843902468681335, -0.20223112404346466, -0.02547001652419567], [-0.07959585636854172, -0.24615579843521118, 0.07305851578712463, -0.25178050994873047, 0.21040065586566925, 0.1636027693748474, -0.2361757606267929, 0.0511578731238842, 0.12314219027757645, 0.050987374037504196, -0.10155070573091507, 0.2451525628566742, 0.17388901114463806, -0.11779406666755676, 0.2476627379655838, -0.24068723618984222], [0.16481336951255798, -0.18602615594863892, -0.13184665143489838, -0.2942572236061096, -0.10307683050632477, 0.0798850804567337, -0.1687486469745636, -0.03714946657419205, 0.054301705211400986, 0.0027003397699445486, -0.14361672103405, -0.14424942433834076, -0.04838965833187103, -0.17646877467632294, 0.30199873447418213, -0.15672974288463593], [-0.158952534198761, 0.08241034299135208, -0.11477533727884293, -0.17365869879722595, -0.15376156568527222, -0.3239491879940033, 0.06853679567575455, 0.04156593233346939, -0.21107132732868195, 0.16434554755687714, 0.046528417617082596, 0.19727060198783875, -0.005093954503536224, 0.181252121925354, 0.17832012474536896, 0.21060839295387268], [0.01038865465670824, -0.22722786664962769, 0.07312510907649994, 0.05767021328210831, 0.15987026691436768, -0.01885317452251911, -0.06794922053813934, 0.04936622828245163, -0.11912049353122711, -0.00890270434319973, -0.00042226200457662344, -0.034403905272483826, 0.2488122284412384, -0.020833978429436684, 0.12297163158655167, -0.16709326207637787], [-0.06400143355131149, 0.0021663375664502382, 0.016090061515569687, 0.1526859849691391, -0.024537624791264534, -0.06941179931163788, 0.116245336830616, 0.0008158477139659226, -0.00398815143853426, 0.006459172815084457, 0.020226337015628815, 0.034949369728565216, -0.03232878819108009, 0.020986925810575485, -0.08532808721065521, -0.01249528769403696], [0.12827837467193604, -0.1465250849723816, -0.03652243688702583, -0.027626587077975273, 0.0214455034583807, -0.08011024445295334, 0.0905626192688942, 0.1460314691066742, -0.2120957225561142, 0.07192998379468918, -0.1386996954679489, -0.07751496136188507, 0.02150016464293003, -0.10139302909374237, 0.18929429352283478, -0.11313736438751221], [0.49404099583625793, 0.3533512353897095, 0.2090822160243988, -0.1758609414100647, -0.129849374294281, 0.3053188621997833, 0.2283172756433487, 0.20656557381153107, -0.22215035557746887, 0.08814358711242676, 0.34826529026031494, 0.13159364461898804, -0.11653538793325424, 0.28972262144088745, -0.050104301422834396, -0.19652296602725983], [0.10531626641750336, -0.061702240258455276, 0.26810258626937866, -0.08304036408662796, 0.12209776788949966, -0.02876359410583973, 0.261236310005188, 0.08099208772182465, -0.24651803076267242, -0.10055264830589294, 0.21235018968582153, 0.5121064186096191, -0.2581380307674408, 0.2937157452106476, 0.3573915958404541, -0.0592147521674633], [0.1069994643330574, -0.12332707643508911, -0.3117295205593109, 0.4025258421897888, -0.04822152107954025, 0.22303959727287292, 0.0015566903166472912, 0.19498996436595917, -0.29028987884521484, 0.4318503737449646, 0.47336500883102417, 0.2027486115694046, 0.2891393005847931, -0.1514652520418167, 0.3299005627632141, -0.27449831366539], [0.09134542942047119, 0.27012717723846436, -0.35867932438850403, 0.21244943141937256, 0.20195117592811584, 0.11491961032152176, -0.20640704035758972, 0.12111259251832962, -0.39328324794769287, 0.46376878023147583, -0.041651401668787, 0.21159255504608154, 0.18811623752117157, -0.2547971308231354, 0.08193157613277435, 0.2001737803220749], [0.2576659619808197, 0.278652548789978, 0.31513017416000366, -0.2109558880329132, 0.38932597637176514, -0.14488619565963745, -0.15143586695194244, 0.25279736518859863, 0.08937086164951324, 0.24560609459877014, -0.029201054945588112, 0.030169909819960594, 0.0507369339466095, -0.29448044300079346, -0.12175178527832031, 0.25825420022010803], [0.16734424233436584, 0.43260857462882996, -0.14138942956924438, 0.10077134519815445, 0.18791469931602478, -0.21321021020412445, -0.014885655604302883, 0.1598108857870102, -0.11973219364881516, 0.3418646454811096, 0.32702088356018066, 0.48151344060897827, 0.008922538720071316, -0.08147764950990677, 0.717764139175415, 0.21266891062259674], [0.07857080549001694, -0.25466862320899963, 0.16163332760334015, 0.08798425644636154, 0.029872851446270943, -0.013117792084813118, -0.04347383603453636, -0.033009983599185944, 0.25343066453933716, -0.15073440968990326, 0.04666471853852272, 0.18271832168102264, 0.06960338354110718, -0.06016334891319275, 0.1165240928530693, -0.17066344618797302], [0.009664067067205906, -0.26197290420532227, -0.16768087446689606, 0.44357430934906006, -0.24604880809783936, 0.01871505193412304, -0.18066036701202393, -0.0027392907068133354, -0.14039775729179382, 0.08398385345935822, 0.018220962956547737, -0.07165839523077011, -0.033569034188985825, 0.03948512673377991, 0.177547425031662, -0.1376650035381317], [0.408855140209198, -0.03823959082365036, -0.24042841792106628, -0.39443397521972656, 0.38955557346343994, -0.07131639122962952, 0.2853247821331024, 0.261736124753952, -0.003991043660789728, 0.2665043771266937, 0.23794355988502502, -0.20211122930049896, 0.24041582643985748, 0.1268034279346466, -0.15817192196846008, -0.07152298837900162], [0.044778015464544296, 0.07954893261194229, -0.08964674174785614, 0.09514271467924118, 0.1299179345369339, -0.08244571834802628, -0.07127749174833298, 0.009895475581288338, -0.21943895518779755, 0.0264878086745739, -0.01878076232969761, -0.026981690898537636, 0.05073023587465286, 0.056508246809244156, -0.05588272213935852, 0.17402558028697968], [0.025914447382092476, 0.0699649304151535, -0.12546424567699432, -0.1642136126756668, 0.12743927538394928, -0.0575953908264637, -0.07010626047849655, -0.022128550335764885, 0.03313480690121651, 0.0056522623635828495, -0.03666924312710762, 0.0567651093006134, 0.1369590014219284, 0.041667573153972626, 0.01059724297374487, 0.15092860162258148], [0.07859080284833908, 0.10689819604158401, 0.057440388947725296, 0.17172829806804657, 0.03449501842260361, 0.00243111583404243, -0.11992533504962921, 0.07717280089855194, -0.05647244304418564, -0.035471267998218536, 0.2380937933921814, -0.05219272896647453, -0.2603779137134552, 0.1958601176738739, -0.08196580410003662, 0.2010761946439743], [-0.4045009911060333, -0.08435950428247452, -0.13941417634487152, -0.06281212717294693, -0.5695529580116272, -0.2860737442970276, -0.23433715105056763, -2.657500743865967, -0.1493169367313385, -0.048561837524175644, 0.03332976624369621, -0.11052566021680832, -0.14950792491436005, 0.2774665653705597, -0.029959844425320625, 0.18119749426841736], [-0.2211596816778183, -0.09578002244234085, -0.30346304178237915, -0.5406818389892578, -0.5202594995498657, -0.05272781848907471, 0.32552361488342285, -2.668243408203125, -0.07827994972467422, 0.013642187230288982, -0.02043634094297886, -0.0765484869480133, -0.6717148423194885, -0.13510820269584656, -0.4566894769668579, 0.32907968759536743], [-0.3955555260181427, -0.0482056587934494, -0.25059083104133606, -0.3817707896232605, -0.6878488659858704, -0.20924945175647736, -0.31961488723754883, -2.506207227706909, 0.1197025328874588, -0.17241933941841125, -0.17897401750087738, -0.170634463429451, -0.2940106689929962, -0.0017855801852419972, -0.32484540343284607, -0.18619926273822784], [-0.7300674319267273, -0.032753076404333115, -0.06380437314510345, 0.3105911314487457, -0.05563554912805557, 0.5415343642234802, 0.6106781959533691, -1.3045111894607544, 0.238814115524292, -0.4972546696662903, -0.30329975485801697, -0.3900764584541321, -0.0668797716498375, 0.01896210014820099, 0.13599540293216705, 0.23607183992862701], [-0.8243125081062317, -0.44549012184143066, -0.21504804491996765, 0.015054458752274513, 0.21034809947013855, 0.34212374687194824, 0.32317686080932617, -1.5931026935577393, -0.3576388955116272, -0.4031793773174286, -0.330457866191864, -0.45425882935523987, -0.18477213382720947, 0.3651989698410034, 0.035799216479063034, 0.6256675124168396], [-0.42486339807510376, 0.004067965317517519, -0.2959330976009369, -0.02702663652598858, -0.3172469735145569, 0.5910189151763916, 0.3916991055011749, -1.3408762216567993, -0.03799663484096527, -0.4217549264431, -0.07618524879217148, -0.7527780532836914, -0.31508147716522217, 0.5341718792915344, -0.319271057844162, 0.5125661492347717], [-0.30836471915245056, 0.553861677646637, 0.30006107687950134, -0.26074907183647156, -0.7115108966827393, -0.49487802386283875, 0.07890398055315018, -1.8201775550842285, 0.014290202409029007, 0.17154444754123688, -0.16976061463356018, -0.15197542309761047, 0.20134787261486053, 0.08347857743501663, -0.4091082215309143, -0.5411112308502197]], "1_weights": [[0.898491621017456, 0.5013923048973083, -0.3251897692680359, 0.004049237351864576, 0.09883584082126617, -0.2134939730167389, 0.5241436958312988, -0.389085978269577, 0.6237050890922546, -0.46630504727363586, 0.2210010439157486, 0.017040928825736046, 0.8442220091819763, 0.8869086503982544, -0.17583216726779938, -0.3825417459011078], [0.42416220903396606, -0.022330215200781822, 0.14379827678203583, 0.4847618043422699, -0.14165149629116058, -0.10595914721488953, -0.2948201298713684, 0.3327895998954773, -0.1662658154964447, 0.05249648541212082, -0.2519715130329132, -0.2290903627872467, 0.5782625079154968, 0.27454155683517456, -0.24810291826725006, 0.26967185735702515], [-0.045700594782829285, 0.11168333888053894, 0.04840295389294624, -0.46636876463890076, -0.03617535158991814, -0.16349099576473236, 0.20625576376914978, 0.06970478594303131, 0.009815111756324768, 0.4447198510169983, -0.01895555853843689, -0.018578896299004555, -0.030802134424448013, -0.0383937694132328, -0.19665999710559845, -0.03344137594103813], [0.3394249379634857, -0.16988688707351685, -0.23442664742469788, 0.13664916157722473, 0.2624259889125824, -0.288983553647995, 0.014703688211739063, 0.23905828595161438, 0.35101473331451416, 0.01714780554175377, 0.3103260099887848, 0.2920154333114624, 0.02370544895529747, 0.08796773105859756, -0.15299268066883087, 0.04922470822930336], [-0.008398458361625671, -0.14158913493156433, 0.06497512757778168, 0.19462671875953674, 0.40046897530555725, -0.2977403402328491, -0.232402041554451, 0.03584080561995506, 0.005728405900299549, 0.1284974068403244, -0.1108512207865715, 0.30044320225715637, 0.26294684410095215, -0.10945771634578705, -0.47644147276878357, 0.42734041810035706], [-0.17757591605186462, 0.14251241087913513, -0.4124743640422821, -0.016194123774766922, 0.4009653925895691, -0.09311697632074356, 0.16303454339504242, -0.10091232508420944, -0.07156628370285034, -0.008098564110696316, -0.35654255747795105, 0.38518744707107544, -0.23483321070671082, -0.230218768119812, -0.04195326194167137, 0.32893019914627075], [0.03576640039682388, -0.005246313288807869, 0.06770243495702744, -0.03942373767495155, 0.3532464802265167, -0.0938514694571495, 0.2248421013355255, -0.37580883502960205, 0.3191256821155548, 0.06168597564101219, 0.041444361209869385, 0.39146825671195984, -0.10192719101905823, 0.24080976843833923, -0.19065803289413452, -0.23228274285793304], [2.6281473636627197, -1.0018106698989868, 0.3806246519088745, 1.2085458040237427, -0.880100667476654, -0.20397302508354187, -0.9711617827415466, 0.3758998513221741, 0.006904010195285082, -0.5829343199729919, -0.07969675213098526, -0.8875805139541626, 2.637535333633423, 0.9435377717018127, -0.22390586137771606, -0.4290488660335541], [-0.12465058267116547, 0.3570461869239807, 0.1951131671667099, -0.32927030324935913, -0.2006491869688034, 0.12798157334327698, -0.06803968548774719, 0.4202558994293213, -0.37414613366127014, 0.03747757524251938, 0.21944274008274078, -0.07311335951089859, -0.3164256811141968, 0.2927970886230469, 0.12995506823062897, 0.3675469756126404], [0.8004021048545837, 0.24267643690109253, -0.3087926208972931, 0.4349450170993805, 0.0402074009180069, -0.053998660296201706, -0.0021637016907334328, -0.15260891616344452, 0.07094531506299973, 0.58090740442276, 0.1602761447429657, 0.18101772665977478, 0.64757239818573, 0.7070599794387817, -0.1882414072751999, 0.3269256055355072], [0.1725488156080246, -0.08947000652551651, 0.057677533477544785, -0.04769904538989067, -0.047627341002225876, 0.330841988325119, 0.0335170216858387, -0.3764302432537079, 0.04829012602567673, -0.2379549741744995, -0.3286899924278259, 0.12130309641361237, 0.4646427035331726, 0.07371513545513153, -0.12000744044780731, -0.192192941904068], [0.874069333076477, 0.1593029648065567, 0.04866966977715492, 0.06791644543409348, 0.14075689017772675, 0.013935046270489693, 0.23450130224227905, -0.2253907471895218, 0.14579659700393677, -0.5935501456260681, -0.030325548723340034, -0.18339888751506805, 0.4706697165966034, 0.24962550401687622, -0.016267837956547737, -0.14690111577510834], [0.2812960147857666, 0.3523089587688446, -0.12374338507652283, 0.03512996807694435, -0.3071092367172241, -0.3538450002670288, 0.41401010751724243, -0.16997341811656952, -0.08563230186700821, 0.24815542995929718, 0.0041688429191708565, 0.13948491215705872, -0.09513268619775772, 0.40381643176078796, 0.29620879888534546, -0.1249401643872261], [0.19886068999767303, 0.20396830141544342, -0.35792750120162964, -0.35165029764175415, 0.3705465495586395, -0.03934910520911217, 0.29665854573249817, 0.09505343437194824, -0.00938338041305542, 0.23960666358470917, -0.40204954147338867, 0.13124875724315643, 0.024128368124365807, -0.22022373974323273, 0.17800608277320862, 0.3998359441757202], [0.29806625843048096, 0.12521705031394958, -0.15294313430786133, 0.20962470769882202, 0.11119214445352554, -0.0591730959713459, 0.11510545760393143, -0.28447863459587097, -0.14439509809017181, -0.07027509808540344, -0.28929802775382996, 0.30441656708717346, 0.34311503171920776, 0.19209343194961548, 0.1171923354268074, 0.15481331944465637], [-0.31432241201400757, 0.2145082652568817, 0.10493814945220947, 0.24943093955516815, 0.5546582341194153, -0.200108140707016, 0.12780217826366425, -0.12266160547733307, 0.29441770911216736, -0.05598892644047737, -0.16881759464740753, 0.38104376196861267, -0.14790786802768707, 0.3562574088573456, 0.11286506801843643, 0.03388969972729683]], "2_weights": [[0.6642237305641174, 0.4511168301105499, 0.5339593887329102], [0.4560556411743164, -0.336340069770813, -0.4880167245864868], [-0.12186241149902344, 0.4641552269458771, -0.4185401499271393], [0.24799726903438568, 0.22352437674999237, -0.28375115990638733], [-0.4460031986236572, -0.5840160250663757, -0.5646041035652161], [-0.23848849534988403, -0.3901102542877197, 0.10431002825498581], [-0.6046984791755676, 0.015397509559988976, -0.3374989926815033], [-0.12273512780666351, -0.030172234401106834, -0.20207302272319794], [0.07991605997085571, -0.02135196328163147, -0.18715733289718628], [0.21514084935188293, 0.14333464205265045, -0.09941574931144714], [0.5592783093452454, 0.17919312417507172, 0.1316055953502655], [-0.2746203541755676, -0.4412168860435486, -0.35670965909957886], [0.4728682339191437, 0.5347689986228943, 0.3561514616012573], [-0.3657650649547577, 0.02267342247068882, 0.5357307195663452], [0.07788069546222687, 0.1163492500782013, 0.13910672068595886], [-0.3797752857208252, 0.05669872835278511, 0.33449503779411316]], "0_bias": [0.30374404788017273, 0.1336347907781601, -0.06767085939645767, 0.08638738095760345, 0.1430211216211319, -0.013316268101334572, 0.003285485552623868, 0.3331574499607086, -0.062266528606414795, 0.1592409908771515, 0.15301959216594696, 0.22738616168498993, 0.022066736593842506, 0.0015848107868805528, 0.3064263164997101, 0.02914772741496563], "1_bias": [0.1838347166776657, -0.09336841106414795, -0.17276141047477722, 0.12276946008205414, -0.012903559021651745, -0.03714549168944359, 0.035370487719774246, -0.07503233104944229, -0.030275840312242508, 0.006148441694676876, -0.0002022099943133071, -0.01037301030009985, 0.14888253808021545, 0.09215238690376282, -0.005548160523176193, 0.03507468104362488], "2_bias": [0.07812093943357468, 0.10229634493589401, 0.13202467560768127], "format": "png"}