{"voxel_size": 0.011333333333333332, "block_size": 30, "grid_width": 300, "grid_height": 300, "grid_depth": 300, "atlas_width": 2048, "atlas_height": 2048, "atlas_depth": 32, "num_slices": 8, "min_x": -1.7, "min_y": -1.7, "min_z": -1.7, "atlas_blocks_x": 64, "atlas_blocks_y": 64, "atlas_blocks_z": 1, "input_height": 800.0, "input_width": 800.0, "input_focal": 1492.820323027551, "worldspace_T_opengl": [[-1.0, 0.0, 0.0, 0.0], [0.0, 0.0, 1.0, 0.0], [0.0, 1.0, 0.0, 0.0], [0.0, 0.0, 0.0, 1.0]], "ndc": false, "0_weights": [[0.20956386625766754, 0.09221667051315308, -0.302068829536438, 0.022572627291083336, -0.3026805520057678, -0.16565872728824615, -0.17419014871120453, 0.009753366932272911, -0.06477108597755432, 0.14642426371574402, 0.12111175060272217, -0.17097821831703186, 0.08908309787511826, -0.004123429302126169, 0.23009033501148224, -0.13252098858356476], [-0.27458348870277405, 0.2397405356168747, -0.07904615253210068, 0.13330145180225372, -0.27901509404182434, -0.2583220303058624, -0.03774688020348549, 0.015404026955366135, 0.24887098371982574, -0.157949298620224, -0.01608201302587986, -0.09296263009309769, 0.05943162366747856, 0.06886418908834457, 0.0884905681014061, 0.27916646003723145], [0.30786260962486267, -0.11001896858215332, -0.07047969847917557, 0.2984636425971985, -0.06327524781227112, 0.17529012262821198, 0.300432026386261, -0.15206284821033478, -0.2706080377101898, 0.2583768665790558, 0.02215443179011345, 0.07188403606414795, -0.243546262383461, -0.3403289318084717, 0.07658983021974564, -0.12544035911560059], [0.17604997754096985, -0.13743746280670166, -0.05939389392733574, 0.11192462593317032, -0.3356057405471802, 0.12522126734256744, 0.3191910684108734, 0.16562257707118988, 0.24463389813899994, 0.11618027091026306, -0.20654572546482086, -0.24496865272521973, -0.13162726163864136, 0.035966504365205765, -0.19882184267044067, 0.029097601771354675], [-0.20288708806037903, -0.2659395635128021, 0.22827500104904175, 0.41850417852401733, 0.11455821990966797, -0.2549527883529663, 0.2986393868923187, 0.0687144473195076, -0.12438590079545975, 0.22965942323207855, 0.1734575629234314, -0.19237293303012848, -0.23060815036296844, -0.24288147687911987, 0.2612191438674927, -0.2634733021259308], [0.07713599503040314, -0.080561064183712, -0.03262669965624809, -0.36355841159820557, -0.19330266118049622, -0.05874195322394371, -0.3000134527683258, -0.21433719992637634, 0.1860533356666565, -0.32623839378356934, -0.23251929879188538, -0.06255628913640976, 0.2662060856819153, -0.0020507194567471743, -0.21697889268398285, -0.08152136951684952], [-0.23990154266357422, 0.16535302996635437, 0.2602565288543701, 0.2771620452404022, 0.09183478355407715, 0.06712736189365387, -0.16458725929260254, 0.08050264418125153, -0.0954291820526123, -0.24161307513713837, 0.19545839726924896, -0.19764849543571472, 0.04389971122145653, 0.04083563759922981, -0.05577830225229263, 0.20430201292037964], [-0.010615569539368153, 0.11014190316200256, 0.3226279318332672, -0.1402984857559204, -0.08751086890697479, 0.32032760977745056, -0.13078707456588745, -0.15750257670879364, -0.1791156381368637, -0.13289585709571838, 0.06568627059459686, 0.10642940551042557, 0.10306677222251892, 0.20230714976787567, -0.14419135451316833, 0.016593214124441147], [-0.2854996919631958, 0.06269640475511551, 0.08170571178197861, 0.19769437611103058, 0.1105743795633316, 0.012097116559743881, -0.0552353672683239, -0.01040871161967516, -0.25616535544395447, 0.03628362715244293, -0.13730968534946442, -0.0004972829483449459, 0.013109173625707626, 0.19719550013542175, -0.08716099709272385, 0.06008666008710861], [0.018544156104326248, -0.17241455614566803, -0.05558725818991661, -0.2898115813732147, 0.3103428781032562, 0.05689062550663948, -0.03574484959244728, 0.12577521800994873, 0.11983548104763031, 0.059681616723537445, -0.12545323371887207, 0.26893749833106995, -0.01018267497420311, -0.11577349901199341, 0.030077865347266197, -0.13995178043842316], [0.07959214597940445, -0.19480404257774353, -0.04830124229192734, -0.08410061150789261, 0.12113004922866821, -0.013813987374305725, -0.07303395867347717, -0.09896574914455414, 0.23844319581985474, 0.07438687980175018, -0.35079944133758545, -0.21721085906028748, -0.02300201542675495, -0.07567190378904343, 0.1594272255897522, -0.15391495823860168], [0.055667195469141006, 0.013946608640253544, -0.0243416428565979, -0.15281863510608673, 0.00585818849503994, -0.12488751858472824, 0.09477460384368896, 0.2590564489364624, -0.2042459398508072, 0.0415165051817894, 0.3140435516834259, 0.04367770999670029, -0.03413501754403114, 0.08079460263252258, 0.06086324155330658, 0.04368924722075462], [0.006582879927009344, -0.05086821690201759, -0.012740000151097775, 0.2136184573173523, -0.11810186505317688, 0.011834416538476944, -0.0020581684075295925, 0.044258274137973785, 0.13066057860851288, 0.02973569929599762, -0.0015457412227988243, -0.011747748591005802, 0.0003735798818524927, 0.002656371332705021, -0.02138497866690159, -0.02908475510776043], [0.06562575697898865, 0.05665377900004387, -0.07760956138372421, -0.010599152185022831, 0.035129304975271225, 6.128240056568757e-05, 0.022106798365712166, -0.10435541719198227, -0.1946740746498108, -0.006806095130741596, 0.20871971547603607, 0.030804840847849846, 0.004495636560022831, 0.0007950268336571753, -0.023236917331814766, 0.07606188952922821], [-0.003976559266448021, -0.01254211738705635, 0.0007186700240708888, -0.01635274849832058, -0.009267928078770638, -0.01301145926117897, 0.02671375311911106, 0.1612670123577118, -0.15232038497924805, 0.034543294459581375, -0.03779872879385948, 0.015258188359439373, -0.0056250253692269325, 0.030156632885336876, -0.026609409600496292, 0.004735745023936033], [0.47337138652801514, 0.38318127393722534, 0.41808152198791504, -0.25378361344337463, -0.26945382356643677, 0.29196515679359436, 0.24247585237026215, -0.20213142037391663, -0.19360442459583282, 0.19237729907035828, 0.1912427693605423, -0.05496138334274292, -0.006990332156419754, 0.30741578340530396, -0.3147280514240265, -0.14142189919948578], [0.023098668083548546, -0.05448053404688835, 0.4368093013763428, -0.1349749118089676, -0.0009162900969386101, -0.004136327654123306, 0.2936083674430847, -0.26735424995422363, -0.23096543550491333, 0.009314636699855328, 0.04003044217824936, 0.3347354531288147, -0.11009396612644196, 0.3377407193183899, 0.043634213507175446, -0.02989998087286949], [0.02850595861673355, -0.1357852667570114, -0.0819137915968895, 0.27987006306648254, -0.2320133000612259, 0.22763025760650635, -0.018467960879206657, -0.2440773844718933, -0.2627352476119995, 0.5028771162033081, 0.2838824689388275, 0.014685784466564655, 0.41290798783302307, -0.1574997901916504, 0.02423950657248497, -0.24942326545715332], [0.18951033055782318, 0.3668406009674072, -0.19671253859996796, 0.15496285259723663, 0.10106682032346725, 0.0453270748257637, -0.18564772605895996, -0.05431019887328148, -0.34756696224212646, 0.5993338227272034, -0.1320200115442276, 0.05874257534742355, 0.19056567549705505, -0.24490347504615784, -0.03518126159906387, 0.29583150148391724], [0.14873769879341125, 0.27169153094291687, 0.34986943006515503, -0.17687606811523438, 0.4217963218688965, -0.06691142171621323, -0.03500654175877571, 0.10050704330205917, 0.0003392865473870188, 0.3750903606414795, -0.16835033893585205, -0.07874035835266113, 0.2600700557231903, -0.18703514337539673, -0.4307247996330261, 0.26887208223342896], [0.030750012025237083, 0.34405601024627686, 0.20439329743385315, -0.13414247334003448, -0.10940386354923248, -0.19391368329524994, -0.11975131928920746, -0.31259819865226746, -0.07966681569814682, 0.3140016198158264, 0.12981505692005157, 0.29028236865997314, 0.07171022891998291, -0.16073085367679596, 0.44463875889778137, 0.2035726010799408], [-0.13793206214904785, -0.1897394359111786, 0.06876333802938461, 0.15932409465312958, 0.16959457099437714, -0.056223224848508835, -0.037802886217832565, 0.30500611662864685, 0.438214510679245, -0.11701125651597977, -0.019375186413526535, 0.16084380447864532, 0.04031159728765488, -0.0359768383204937, 0.10487969219684601, -0.09330213814973831], [-0.2557496428489685, -0.2449565976858139, -0.037054404616355896, 0.422588586807251, -0.0675855353474617, 0.01881401427090168, -0.06379137188196182, -0.14639495313167572, -0.15278567373752594, 0.15604954957962036, 0.15243595838546753, -0.04762435704469681, -0.011784003116190434, -0.02347879856824875, 0.20492134988307953, -0.1445583701133728], [0.08751360327005386, -0.2075360119342804, -0.01700940914452076, -0.32136237621307373, 0.1659136712551117, -0.01897400990128517, 0.14878129959106445, 0.23208141326904297, 0.03152840957045555, 0.12319323420524597, 0.041793160140514374, -0.22845816612243652, 0.052972741425037384, 0.07859624177217484, -0.15869760513305664, -0.10029645264148712], [0.006945139262825251, 0.11165333539247513, -0.00992876011878252, -0.13787998259067535, 0.0393596850335598, -0.015764184296131134, -0.022552305832505226, -0.029374757781624794, -0.2804252803325653, -0.03507290780544281, -0.145595982670784, -0.06705120950937271, 0.016345180571079254, 0.01804811879992485, -0.020385628566145897, 0.01597534865140915], [-0.0012976195430383086, 0.07709167152643204, 0.0663723349571228, -0.18252235651016235, 0.0404716432094574, -0.019494175910949707, -0.020014867186546326, -0.23289944231510162, 0.0020373216830193996, -0.05830791965126991, -0.06948272138834, -0.06142735108733177, 0.014985203742980957, 0.0517282634973526, 0.047383230179548264, 0.0038620256818830967], [-0.02805180475115776, 0.12764695286750793, -0.01875733770430088, 0.23596157133579254, -0.2974091172218323, -0.026945991441607475, -0.036878399550914764, -0.004033489152789116, 0.0003992832498624921, -0.06372112780809402, 0.10203935205936432, 0.03787296265363693, 0.031762558966875076, 0.047233372926712036, 0.034340083599090576, 0.07253383845090866], [-0.29644763469696045, -0.1297687590122223, 0.018293488770723343, 0.044845882803201675, -0.4842698276042938, -0.6410711407661438, -0.5368587374687195, -0.2681456506252289, -0.2522447109222412, -0.2010788768529892, -0.5034756064414978, -0.24209921061992645, -0.5256056785583496, 0.2493789792060852, 0.22563491761684418, 0.34782981872558594], [-0.18705514073371887, -0.06770753860473633, -0.22918298840522766, -0.44424423575401306, -0.41048663854599, -0.47076135873794556, -0.0409715361893177, -0.161452978849411, -0.1896378993988037, -0.09998083114624023, -0.531462550163269, -0.2262708991765976, -0.9610253572463989, -0.21405555307865143, -0.19004100561141968, 0.4362557530403137], [-0.8061222434043884, -0.034879688173532486, -0.539360523223877, -0.23982666432857513, -0.3567153811454773, -0.34381625056266785, -0.5923218131065369, 0.07361695170402527, -0.020576292648911476, -0.13108323514461517, -0.799648106098175, -0.49265313148498535, -0.5542500615119934, 0.2290816307067871, -0.282083660364151, -0.3666515052318573], [-0.5954325199127197, -0.09093836694955826, -0.230742946267128, 0.09784011542797089, 0.0786474272608757, 0.7494899034500122, 0.806792140007019, -0.03628772497177124, -0.013592603616416454, -0.40166738629341125, -0.09393011033535004, -0.13548368215560913, -0.8173178434371948, 0.0866105705499649, 0.6391305327415466, 0.30345824360847473], [-0.5066227316856384, -0.3301617503166199, -0.2449139952659607, -0.11845208704471588, 0.22527047991752625, 0.25099775195121765, 0.283742219209671, -0.3906499743461609, -0.5995483994483948, -0.16639666259288788, -0.08252094686031342, -0.10975218564271927, -0.9044564962387085, 0.19496828317642212, 0.38011422753334045, 0.7246016263961792], [-0.32859697937965393, -0.033078428357839584, -0.5018384456634521, -0.26701095700263977, -0.22033625841140747, 0.7194336652755737, 0.5175821185112, -0.07993032038211823, -0.28884169459342957, -0.37138494849205017, 0.07374207675457001, -0.5509259700775146, -1.0733411312103271, 0.5923528075218201, 0.13487549126148224, 0.5412253737449646], [-0.8107413053512573, 0.3104516565799713, -0.4024578034877777, -0.4554544687271118, -0.577003002166748, -0.34286051988601685, 0.10338408499956131, -0.03550561144948006, -0.136553093791008, -0.13847067952156067, -1.0775656700134277, -0.8698605298995972, -0.4952332377433777, 0.6808926463127136, 0.0015402070712298155, -0.6421747803688049]], "1_weights": [[-0.5198216438293457, 0.09773039072751999, -0.286292165517807, -0.12467847764492035, -0.001491412054747343, -0.2025464028120041, 0.1963343471288681, -0.270390123128891, -0.17628435790538788, -0.17056484520435333, 0.49911099672317505, -0.02550148032605648, 0.4205701947212219, 0.08871112018823624, 0.04194910079240799, -0.1600196659564972], [0.20625977218151093, 0.0933263972401619, 0.16481901705265045, 0.33385777473449707, 0.010685642249882221, 0.024405011907219887, -0.22533467411994934, 0.2973800599575043, -0.5424177050590515, 0.03969556838274002, 0.2847355306148529, -0.10868344455957413, 0.1970076560974121, 0.13314664363861084, -0.14084987342357635, 0.16173681616783142], [-0.25401073694229126, 0.2742137312889099, 0.049025095999240875, -0.310280978679657, 0.06416398286819458, -0.011400682851672173, 0.19084811210632324, 0.017899587750434875, -0.40389692783355713, 0.5273016095161438, 0.5861341953277588, 0.16079412400722504, 0.5719717144966125, 0.10122046619653702, -0.24326230585575104, 0.05759619176387787], [0.10802887380123138, -0.18530097603797913, -0.17375797033309937, 0.33951327204704285, 0.2324175089597702, 0.015884941443800926, -0.2074631005525589, 0.2561049461364746, 0.09131793677806854, 0.010919956490397453, 0.2329646199941635, 0.1762406826019287, 0.04748697578907013, 0.021156318485736847, 0.013166822493076324, 0.08317912369966507], [-0.22984448075294495, -0.1403198391199112, 0.18400444090366364, 0.3219681978225708, 0.2973168194293976, -0.1072077602148056, -0.22930730879306793, 0.09674589335918427, -0.07687234878540039, -0.032203856855630875, 0.21650773286819458, 0.20271696150302887, 0.1610937863588333, -0.23819458484649658, -0.2657462954521179, 0.3210485577583313], [-0.1158226728439331, 0.13584864139556885, -0.42080017924308777, 0.16619469225406647, 0.4525049030780792, -0.1689252406358719, 0.12179158627986908, -0.25861644744873047, 0.009385988116264343, -0.06109873950481415, -0.15068936347961426, 0.4225222170352936, -0.4463427662849426, -0.048021331429481506, -0.051979079842567444, 0.3692878782749176], [0.06104389950633049, -0.019323404878377914, 0.12143123149871826, 0.08980278670787811, 0.42618289589881897, -0.2503988742828369, 0.1492365151643753, -0.6918736100196838, 0.35687947273254395, -0.011051860637962818, -0.007195517886430025, 0.4530789256095886, -0.46677014231681824, 0.18927179276943207, -0.08658045530319214, -0.2348131537437439], [0.4064658582210541, -0.18805067241191864, 0.38143545389175415, -0.11612197756767273, -0.21547125279903412, -0.18462902307510376, -0.1387683004140854, 0.376535028219223, 0.2234000712633133, -0.2325611710548401, -0.18522684276103973, 0.043902602046728134, 0.010785238817334175, -0.24301080405712128, -0.36749741435050964, -0.01954023353755474], [0.1468212753534317, 0.4032943546772003, 0.196809783577919, -0.1297495812177658, -0.15187691152095795, -0.12570707499980927, -0.0017588367918506265, 0.48601317405700684, -0.3828415274620056, 0.10071945190429688, 0.30048760771751404, -0.06827248632907867, -0.05205637961626053, 0.17296163737773895, 0.11378900706768036, 0.2558661103248596], [-0.07080160826444626, 0.20942862331867218, -0.27469247579574585, 0.18180833756923676, -0.002278972649946809, -0.08710338175296783, -0.031062981113791466, -0.10640746355056763, -0.7214681506156921, 0.3292244076728821, 0.5051615834236145, 0.13153845071792603, 0.34242120385169983, 0.27676159143447876, 0.12166212499141693, 0.30640944838523865], [-0.11917906254529953, -0.08818820863962173, 0.07370040565729141, 0.010797977447509766, -0.13960930705070496, 0.06603889167308807, -0.003075821790844202, -0.33570748567581177, -0.08511856943368912, -0.26875224709510803, 0.11886212229728699, 0.045013103634119034, 0.29021233320236206, -0.10006492584943771, -0.22318898141384125, -0.23115183413028717], [0.028590302914381027, -0.01543581485748291, 0.10037755221128464, 0.09323131293058395, 0.20864081382751465, 0.008560816757380962, -0.0710626170039177, -0.17548799514770508, -0.39232489466667175, -0.32025963068008423, 0.26843684911727905, -0.19439493119716644, 0.12158768624067307, 0.13615159690380096, -0.13183270394802094, -0.10230322927236557], [-0.7623218297958374, -0.32691842317581177, -0.11658212542533875, -0.2422233372926712, -0.7000537514686584, 0.004155751783400774, -0.08292471617460251, -0.29187172651290894, -0.23403897881507874, 0.7963908910751343, 0.8319557905197144, -0.4293172359466553, 0.605101466178894, 0.14166316390037537, 1.1340715885162354, -0.06354470551013947], [0.27941328287124634, 0.09737876802682877, -0.31409838795661926, -0.2794252336025238, 0.2745816707611084, 0.23102447390556335, 0.25050342082977295, 0.07091569155454636, -0.047659385949373245, 0.2983652949333191, -0.6035338044166565, -0.037333112210035324, -0.3569225072860718, -0.21820206940174103, 0.28636378049850464, 0.37516072392463684], [0.3121453523635864, 0.131968691945076, -0.1967606097459793, 0.12362026423215866, 0.0932689979672432, -0.12274632602930069, 0.06531601399183273, -0.4236341714859009, 0.12378431111574173, -0.1857091188430786, -0.06859742850065231, 0.2692461907863617, -0.08890152722597122, 0.1447829157114029, 0.11787384748458862, 0.13230720162391663], [-0.08467843383550644, 0.08388589322566986, 0.145988330245018, 0.1893453747034073, 0.37106189131736755, -0.26456961035728455, 0.020723283290863037, -0.0571218878030777, 0.4316970407962799, 0.06354830414056778, 0.23922035098075867, 0.17962385714054108, -0.22354526817798615, 0.3753783106803894, 0.18099352717399597, 0.09519442915916443]], "2_weights": [[0.22241654992103577, 0.2507168650627136, 0.17197762429714203], [0.4748699963092804, -0.21872468292713165, -0.42762672901153564], [-0.13633602857589722, 0.42857298254966736, -0.4260508120059967], [0.0633544996380806, 0.07092706859111786, -0.3391455113887787], [-0.44906172156333923, -0.553543210029602, -0.5116018652915955], [-0.6271893382072449, -0.7671858668327332, -0.4069635570049286], [-0.48543113470077515, 0.18758942186832428, -0.09273217618465424], [-4.580660242936574e-05, -0.042103271931409836, -0.13144250214099884], [-1.0940675735473633, -0.7121374011039734, -0.10270489752292633], [0.35440969467163086, 0.29909586906433105, 0.1597507894039154], [1.2676180601119995, 1.1920942068099976, 1.0820677280426025], [-0.25908201932907104, -0.42036280035972595, -0.2831810712814331], [0.48968830704689026, 0.5766453146934509, 0.6637892127037048], [-0.41786861419677734, 0.005616307258605957, 0.4006882905960083], [0.5250173211097717, 0.22471782565116882, 0.2577149271965027], [-0.3922858238220215, 0.10070332139730453, 0.2994483411312103]], "0_bias": [0.24377553164958954, 0.14213578402996063, 0.13674183189868927, 0.0030147472862154245, -0.008026541210711002, -0.008224593475461006, 0.011999137699604034, -0.06840260326862335, -0.038074951618909836, 0.25681278109550476, -0.021053694188594818, 0.04349552467465401, 0.14969216287136078, 0.02058982662856579, 0.008757208473980427, 0.06592606753110886], "1_bias": [0.11735247820615768, -0.09302166849374771, -0.15009471774101257, 0.04698929563164711, -0.016745828092098236, 0.19252915680408478, -0.054615918546915054, -0.09249654412269592, -0.2146940529346466, 0.07267645746469498, 0.3515230417251587, -0.049675919115543365, 0.028058739379048347, 0.13208657503128052, 0.11048222333192825, -0.02108420804142952], "2_bias": [-0.00730884587392211, 0.058753471821546555, 0.1127171590924263], "format": "png"}