{"voxel_size": 0.005666666666666666, "block_size": 30, "grid_width": 600, "grid_height": 600, "grid_depth": 600, "atlas_width": 2048, "atlas_height": 2048, "atlas_depth": 64, "num_slices": 16, "min_x": -1.7, "min_y": -1.7, "min_z": -1.7, "atlas_blocks_x": 64, "atlas_blocks_y": 64, "atlas_blocks_z": 2, "input_height": 800.0, "input_width": 800.0, "input_focal": 1492.820323027551, "worldspace_T_opengl": [[-1.0, 0.0, 0.0, 0.0], [0.0, 0.0, 1.0, 0.0], [0.0, 1.0, 0.0, 0.0], [0.0, 0.0, 0.0, 1.0]], "ndc": false, "0_weights": [[0.1748799979686737, 0.05234558880329132, -0.2707024812698364, 0.049931615591049194, -0.10069553554058075, -0.18082737922668457, -0.17576082050800323, 0.12331568449735641, -0.10492295771837234, 0.15325938165187836, 0.06252816319465637, -0.1533183455467224, 0.11318984627723694, -0.014808072708547115, 0.21842940151691437, -0.17105412483215332], [-0.1318708211183548, 0.19115471839904785, -0.186432346701622, -0.07125279307365417, -0.26221978664398193, -0.24451018869876862, -0.042617376893758774, 0.12745484709739685, 0.2842951714992523, -0.1683272421360016, -0.12103890627622604, 0.07780175656080246, -0.020188074558973312, 0.10036079585552216, -0.002696769777685404, 0.2636963427066803], [0.32041093707084656, -0.20597940683364868, -0.09766095131635666, 0.2555260956287384, 0.12160567939281464, 0.20644611120224, 0.3514169156551361, -0.181264728307724, -0.32452091574668884, 0.27598512172698975, 0.18255150318145752, 0.09751664102077484, -0.3371299207210541, -0.3312534689903259, 0.1282159388065338, -0.13543540239334106], [0.14549365639686584, -0.17121002078056335, -0.034427475184202194, 0.13650186359882355, -0.13092166185379028, 0.10708236694335938, 0.32941561937332153, 0.2699580192565918, 0.20410500466823578, 0.12496473640203476, -0.26606717705726624, -0.22225962579250336, -0.12107452005147934, 0.021013174206018448, -0.2010483294725418, -0.006111302878707647], [-0.05502541363239288, -0.30060875415802, 0.11758709698915482, 0.24655979871749878, 0.12951748073101044, -0.25345855951309204, 0.2962176501750946, 0.18023781478405, -0.09245038032531738, 0.23005156219005585, 0.0834173634648323, -0.014045295305550098, -0.3014928996562958, -0.23179228603839874, 0.1798289716243744, -0.27161648869514465], [0.08525589108467102, -0.16808323562145233, -0.05461439490318298, -0.404020756483078, -0.02100555971264839, -0.043514564633369446, -0.25295373797416687, -0.2453659176826477, 0.12921303510665894, -0.3099365234375, -0.08369533717632294, -0.04211098328232765, 0.19561734795570374, 0.0009574176510795951, -0.15563617646694183, -0.09148688614368439], [-0.2534565031528473, 0.15137392282485962, 0.2629365921020508, 0.2873774468898773, 0.30574288964271545, 0.04198112338781357, -0.11915257573127747, 0.16242468357086182, -0.13834239542484283, -0.22808818519115448, 0.13600312173366547, -0.1581304371356964, 0.01745886355638504, 0.015698833391070366, -0.023255476728081703, 0.18077492713928223], [0.15537206828594208, 0.12085489928722382, 0.20230767130851746, -0.21470622718334198, -0.08032049983739853, 0.2869475781917572, -0.1256781369447708, -0.05314527451992035, -0.16186393797397614, -0.1024773046374321, 0.037563372403383255, 0.3025148808956146, 0.058813758194446564, 0.15405194461345673, -0.1940683275461197, 0.03326428309082985], [-0.2939087152481079, 0.00513972295448184, 0.07739749550819397, 0.1672469526529312, 0.23826457560062408, -0.020554326474666595, -0.02139068767428398, -0.04610208421945572, -0.3190835118293762, 0.041999731212854385, -0.03567718714475632, 0.003979840781539679, 0.014752420596778393, 0.183982715010643, 0.007718283217400312, 0.050986625254154205], [0.04388919845223427, -0.13032041490077972, -0.07152098417282104, -0.2915838658809662, 0.37833845615386963, 0.06230282038450241, 0.011008799076080322, -0.042266640812158585, 0.07317224144935608, 0.05331128090620041, -0.04471917077898979, 0.2778643071651459, 0.06236450746655464, -0.07383134216070175, 0.19182506203651428, -0.07926604896783829], [-0.03891649469733238, -0.07914853096008301, -0.13517796993255615, 0.16240930557250977, 0.13169635832309723, 0.017487766221165657, -0.040745873004198074, -0.09984616935253143, 0.08151355385780334, 0.05930359661579132, -0.04221112281084061, -0.23943695425987244, 0.04532543942332268, -0.09736203402280807, 0.13127925992012024, -0.033012423664331436], [0.05597314238548279, 0.1240411028265953, -0.010711046867072582, -0.060204941779375076, -0.03842248395085335, -0.17563217878341675, 0.08454921096563339, 0.15070942044258118, -0.26306217908859253, 0.016452079638838768, 0.04339035972952843, 0.017124075442552567, 0.019420623779296875, 0.11814028769731522, 0.20420722663402557, 0.05785103887319565], [-0.01699778437614441, -0.04689187556505203, 0.049261026084423065, 0.08236649632453918, 0.19480672478675842, 0.02175571583211422, 0.008327532559633255, -0.03987063467502594, 0.05035346746444702, -0.010106937028467655, 0.004580121487379074, -0.042450498789548874, 0.006179196760058403, -0.0070607541128993034, -0.006915639620274305, -0.01018494926393032], [0.002853951184079051, 0.011380198411643505, 0.020327912643551826, -0.0089254854246974, 0.14776089787483215, -0.00853584986180067, 6.89420776325278e-05, -0.317940354347229, -0.0274702999740839, -0.005837856791913509, 0.0007589090964756906, 0.06139029935002327, 0.02963915280997753, 0.013749872334301472, 0.03150093927979469, 0.007853155955672264], [-0.01870695687830448, -0.0021947608329355717, -0.03171601518988609, 0.004822034388780594, 0.10153719037771225, -0.007102650124579668, -0.007224602624773979, 0.10727723687887192, -0.031336601823568344, 0.021289363503456116, 9.086783393286169e-05, -0.0022208476439118385, -0.0027931900694966316, 0.014455712400376797, 0.11864733695983887, -0.015963926911354065], [0.3935319185256958, 0.2880949079990387, 0.3448403775691986, -0.14692454040050507, -0.3666272759437561, 0.2788499593734741, 0.33090078830718994, -0.16245874762535095, -0.1461782455444336, 0.15779338777065277, 0.33085501194000244, -0.0735945776104927, -0.0660400465130806, 0.31324201822280884, -0.4372216761112213, -0.18207751214504242], [0.016986200585961342, -0.09225127846002579, 0.3826330602169037, -0.05756796523928642, -0.12850594520568848, 0.007350362371653318, 0.40085679292678833, -0.20386072993278503, -0.17248710989952087, -0.034602101892232895, 0.2066066861152649, 0.33356356620788574, -0.18034358322620392, 0.34447190165519714, -0.03424258157610893, -0.05701310187578201], [0.028014853596687317, -0.1889159381389618, -0.1439717710018158, 0.40701910853385925, -0.3341841697692871, 0.2673608064651489, 0.11969911307096481, -0.17012910544872284, -0.21534642577171326, 0.47583168745040894, 0.3578885793685913, -0.004803033545613289, 0.31836003065109253, -0.12136292457580566, -0.14258378744125366, -0.25773459672927856], [0.03770716115832329, 0.192372664809227, -0.2797795832157135, 0.2484588325023651, 0.09925076365470886, -0.030497368425130844, -0.18342559039592743, -0.1472548544406891, -0.3118076026439667, 0.5704677104949951, 0.009853759780526161, -0.007776232436299324, 0.1437046080827713, -0.26882055401802063, -0.1175115779042244, 0.22227954864501953], [0.2389729917049408, 0.3230171501636505, 0.318596750497818, -0.2077055722475052, 0.31550875306129456, -0.06506035476922989, 0.028237538412213326, 0.19236572086811066, 0.018204951658844948, 0.3236563503742218, 0.05572672188282013, -0.011949213221669197, 0.2553257942199707, -0.20572276413440704, -0.3660382330417633, 0.23957306146621704], [0.08215799182653427, 0.34149882197380066, 0.14036448299884796, 0.10605019330978394, -0.14654172956943512, -0.08623581379652023, 0.05686325207352638, -0.20393545925617218, -0.04248219355940819, 0.2695958912372589, 0.035676151514053345, 0.2515058219432831, -0.046121057122945786, -0.07832683622837067, 0.24192902445793152, 0.26122498512268066], [0.011326322332024574, -0.22058545053005219, 0.12889067828655243, 0.019243033602833748, 0.21633882820606232, 0.03363198786973953, 0.02075847052037716, 0.12161916494369507, 0.40340694785118103, -0.07449669390916824, -0.04033401235938072, 0.03734198212623596, 0.01983090490102768, -0.004776565823704004, 0.25554829835891724, -0.14976486563682556], [-0.04619701951742172, -0.15011456608772278, -0.2245320826768875, 0.09426666796207428, -0.13230924308300018, 0.01774022728204727, -0.09126464277505875, 0.07579220086336136, -0.2019360363483429, 0.12329491227865219, -0.015308234840631485, -0.10662677884101868, 0.10369095951318741, 0.03612109273672104, 0.29542768001556396, -0.1332671344280243], [0.06932083517313004, -0.1231607124209404, -0.16493664681911469, -0.2725697159767151, 0.2087167650461197, -0.05915537104010582, 0.05133131146430969, 0.24024836719036102, 0.044229790568351746, 0.053975705057382584, 0.011486124247312546, -0.19677527248859406, 0.076009102165699, 0.0432460717856884, -0.2805241346359253, -0.04827425256371498], [0.03141990676522255, 0.04138868302106857, -0.017293453216552734, -0.020139753818511963, 0.032663293182849884, -0.02231140248477459, 0.028760375455021858, -0.11208698153495789, -0.1147504672408104, -0.012044855393469334, 0.013253218494355679, -0.04330100491642952, -0.046505436301231384, 0.007024446502327919, 0.017319602891802788, 0.05372904613614082], [0.028737125918269157, 0.06030764803290367, 0.07115847617387772, -0.07969487458467484, 0.03457824885845184, -0.02159203216433525, -0.01088701095432043, -0.08053932338953018, 0.04254467040300369, -0.033200934529304504, -0.010049844160676003, 0.05022089183330536, -0.06338659673929214, 0.016075018793344498, -0.015357831493020058, 0.03452165424823761], [-0.011267104186117649, 0.10770709067583084, 0.033445585519075394, 0.10158020257949829, -0.34563198685646057, -0.0822644829750061, -0.0079980893060565, -0.0730699822306633, -0.1178143322467804, -0.003949133679270744, 0.005547780077904463, -0.005594667978584766, -0.0069700004532933235, 0.0749245211482048, 0.014250663109123707, 0.05178612098097801], [-1.1814759969711304, -0.2921959161758423, -0.08605249226093292, -0.2720779478549957, -0.6226984262466431, -0.1927124410867691, -0.6174599528312683, -0.42103704810142517, -0.3616688549518585, -0.3492066264152527, -0.7324532866477966, -0.6988918781280518, -0.4129503071308136, 0.44308003783226013, 0.35036927461624146, 0.3577019274234772], [-1.0279138088226318, -0.37301963567733765, -0.45022571086883545, -0.8069288730621338, -0.649188220500946, 0.07115143537521362, -0.23157374560832977, -0.3094695806503296, -0.29208895564079285, -0.4211907684803009, -0.8710734844207764, -0.7155845761299133, -0.8315567374229431, 0.09752370417118073, -0.007645924109965563, 0.5459321737289429], [-1.1302658319473267, -0.02800125814974308, -0.1321890652179718, -0.43476933240890503, -0.5807998776435852, -0.3110741078853607, -0.3089546263217926, -0.0484333336353302, -0.07305852323770523, -0.2940371036529541, -1.238518238067627, -0.9071705937385559, -0.365481972694397, -0.007516012992709875, 0.13041867315769196, -0.3314553499221802], [-1.1513471603393555, 0.3175080418586731, 0.006510206963866949, 0.09907527267932892, -0.3201756775379181, 0.05927964299917221, 0.09178002178668976, 0.0813773050904274, 0.12056764960289001, -0.3207812011241913, -0.4554740786552429, -0.15541598200798035, -0.2587495446205139, -0.3507740795612335, 0.18960706889629364, -0.40279272198677063], [-1.4038724899291992, -0.3785734176635742, -0.20748285949230194, -0.5076596140861511, 0.26643577218055725, 0.4157775342464447, 0.034101054072380066, -0.3639447093009949, -0.6649168729782104, -0.4258173704147339, 0.06931867450475693, -0.31337475776672363, -0.4521632492542267, 0.41601327061653137, 0.22338047623634338, 0.502443790435791], [-1.0723572969436646, 0.036220163106918335, -0.2833365797996521, -0.5385801196098328, -0.23139330744743347, 0.7136618494987488, 0.12469960749149323, -0.09686993062496185, -0.34267592430114746, -0.4873628318309784, 0.29827776551246643, -0.644225001335144, -0.5918044447898865, 0.6320089101791382, -0.15443938970565796, 0.43472209572792053], [-0.981683075428009, 0.4035441279411316, 0.3182067275047302, -0.13754601776599884, -0.16798168420791626, -0.22280506789684296, 0.04433544725179672, -0.29130589962005615, -0.25019967555999756, 0.1290658414363861, -0.6881104111671448, -0.46896353363990784, -0.1610916256904602, 0.3457266688346863, 0.08595632761716843, -0.5095162987709045]], "1_weights": [[0.572108805179596, -0.461343377828598, -0.2761068642139435, -0.3145025074481964, -0.6233243942260742, -0.0473681315779686, -0.143290176987648, -0.2502326965332031, 1.8375041484832764, 0.905613899230957, 0.9204522371292114, -0.7963721752166748, 0.09363853186368942, 0.2668546438217163, 1.5218114852905273, 0.5911113619804382], [0.23576219379901886, 0.07929696142673492, 0.19585654139518738, 0.39274436235427856, -0.024477249011397362, -0.09377537667751312, -0.23333871364593506, 0.43228769302368164, -0.21234558522701263, 0.0335305891931057, 0.3336566686630249, -0.11931975185871124, 0.14868095517158508, 0.08173125237226486, -0.14137907326221466, 0.20320256054401398], [-0.07091234624385834, 0.1438516229391098, 0.026833172887563705, -0.31319454312324524, -0.09774236381053925, -0.16884292662143707, 0.1398833841085434, 0.22249507904052734, 0.03127193823456764, 0.22453509271144867, 0.34467554092407227, 0.02176978439092636, 0.012321890331804752, 0.007474308833479881, -0.10638610273599625, -0.0007817185251042247], [0.5395606756210327, -0.10295284539461136, -0.18929937481880188, 0.16379210352897644, 0.1491185575723648, -0.3104820251464844, -0.07077492028474808, 0.4261823892593384, 0.5575093626976013, 0.298412948846817, 0.1336539387702942, 0.1288038194179535, 0.1525428593158722, 0.020865775644779205, 0.392581582069397, -0.014308616518974304], [0.027941051870584488, -0.03170429915189743, 0.226424440741539, -0.10912302136421204, 0.39839547872543335, -0.33925455808639526, -0.38523489236831665, 0.03243719041347504, 0.08565661311149597, 0.08226671069860458, -0.013111628592014313, 0.3118380010128021, 0.5241373181343079, -0.07925345003604889, -0.12000355869531631, 0.24080447852611542], [0.004421910271048546, 0.11603812873363495, -0.3505195081233978, 0.2928026020526886, 0.24247358739376068, -0.20876719057559967, 0.022585351020097733, -0.01444657240062952, -0.04950286075472832, 0.14511516690254211, -0.2149752974510193, 0.1986294686794281, -0.4032157361507416, 0.01279656495898962, 0.06992261856794357, 0.2002885341644287], [0.12623408436775208, -0.09651246666908264, 0.15152713656425476, -0.05631386116147041, 0.23118925094604492, -0.09861897677183151, 0.016536086797714233, -0.19301889836788177, 0.2704285681247711, 0.20418789982795715, 0.3117079734802246, 0.2658098340034485, -0.1673787534236908, 0.1620154082775116, 0.0633033812046051, -0.2672037184238434], [0.4229455590248108, -0.2402818650007248, 0.3829578757286072, 0.13235579431056976, -0.41864630579948425, -0.1722009778022766, -0.32426801323890686, 0.22105346620082855, 0.4928128123283386, -0.320807546377182, -0.08662228286266327, -0.043002258986234665, 0.29297390580177307, -0.2102201133966446, 0.06768343597650528, -0.017506085336208344], [0.0589551143348217, 0.16262052953243256, 0.1930563896894455, -0.22898030281066895, -0.13519294559955597, 0.1147594079375267, 0.11844068020582199, 0.4568486213684082, 0.3611670434474945, 0.2721453309059143, 0.31307360529899597, -0.09930447489023209, 0.3573123514652252, 0.08027148991823196, 0.6882461905479431, 0.5767620205879211], [0.038253508508205414, 0.2515328526496887, -0.2875908613204956, 0.15422552824020386, 0.00843606237322092, -0.14673049747943878, -0.07865914702415466, 0.2238711267709732, -0.35290199518203735, 0.23518873751163483, 0.8002572059631348, 0.1267404705286026, 0.4207572340965271, 0.3207159638404846, -0.0205838680267334, 0.2813347280025482], [-0.21649837493896484, -0.14617779850959778, 0.07731734961271286, -0.23968735337257385, 0.19137635827064514, 0.3243495523929596, 0.20691993832588196, -0.5848830938339233, -0.23641717433929443, -0.5618798136711121, 0.2880260944366455, 0.36834707856178284, 0.6156972050666809, 0.08788410574197769, -0.5132692456245422, -0.11583788692951202], [0.1701139211654663, 0.13753962516784668, 0.09292015433311462, 0.1280524730682373, 0.2034497708082199, 0.019250521436333656, 0.30268558859825134, -0.25270456075668335, -0.12067123502492905, -0.3455233573913574, 0.30054971575737, -0.19759975373744965, 0.17689380049705505, -0.1373135894536972, 0.39610615372657776, -0.17246101796627045], [0.15272162854671478, 0.2638261616230011, -0.1080019623041153, -0.03654249757528305, -0.31146958470344543, -0.36019787192344666, 0.2735336422920227, -0.06377579271793365, 0.1797519028186798, 0.21742938458919525, 0.3503579795360565, 0.06733185797929764, 0.23848722875118256, 0.5431195497512817, 0.6573175191879272, 0.13724857568740845], [0.1749611347913742, 0.26471295952796936, -0.2912348508834839, -0.24738088250160217, 0.3900059461593628, -0.044725239276885986, 0.31086868047714233, 0.07631733268499374, 0.09557145088911057, 0.2745259702205658, -0.6873844265937805, 0.11374519020318985, -0.5269237756729126, -0.1848219335079193, 0.13146179914474487, 0.24925418198108673], [0.3035174310207367, 0.07218749076128006, -0.18531347811222076, 0.12477374821901321, -0.014322947710752487, -0.05868292972445488, 0.0922078788280487, 0.12856708467006683, -0.14881277084350586, -0.06996151804924011, -0.34419265389442444, 0.16292090713977814, 0.22785817086696625, 0.15298862755298615, 0.16712307929992676, 0.21652038395404816], [-0.11014334112405777, 0.019085386767983437, 0.1950724869966507, 0.15438631176948547, 0.34446871280670166, -0.13579633831977844, -0.0038548214361071587, -0.39908599853515625, 0.24116553366184235, 0.05508790165185928, -0.14951255917549133, 0.1726643145084381, -0.12699081003665924, 0.40678268671035767, 0.3336980938911438, 0.2376980185508728]], "2_weights": [[0.27977874875068665, 0.25223180651664734, 0.1228148341178894], [0.44518303871154785, -0.16346575319766998, -0.5109700560569763], [-0.12835019826889038, 0.40814009308815, -0.4382420480251312], [0.1325640082359314, 0.2314191460609436, -0.40657272934913635], [-0.30491313338279724, -0.37112852931022644, -0.5432233810424805], [-0.22305038571357727, -0.44769033789634705, 0.24810299277305603], [-0.35710981488227844, 0.2299632430076599, -0.18549904227256775], [-0.3114359676837921, -0.3101009130477905, -0.13668614625930786], [0.41220882534980774, 0.36543673276901245, 0.19905158877372742], [0.3790610730648041, 0.3838237226009369, -0.024342989549040794], [1.473641276359558, 1.3476088047027588, 1.4118274450302124], [-0.1509348303079605, -0.26107680797576904, -0.31016889214515686], [0.8859332203865051, 1.2064311504364014, 0.7937564849853516], [-0.18008540570735931, -0.06051626056432724, 0.3838755190372467], [0.6126305460929871, 0.29868218302726746, 0.4374527931213379], [-0.20379191637039185, 0.18870007991790771, 0.362069308757782]], "0_bias": [0.2126213163137436, 0.07910625636577606, 0.07353755086660385, 0.1060451865196228, -0.11999982595443726, 0.0045075747184455395, 0.12463071197271347, -0.008536048233509064, 0.0126707898452878, 0.22257307171821594, 0.10709746181964874, 0.029835594817996025, 0.07255212217569351, 0.03709592670202255, -0.11370953172445297, 0.040052466094493866], "1_bias": [0.11467514932155609, 0.014169883914291859, -0.09832612425088882, 0.19234409928321838, 0.001748073031194508, -0.0591486431658268, -0.04174405708909035, 0.033733680844306946, 0.09422112256288528, 0.10999825596809387, 0.275212824344635, -0.0072683971375226974, -0.08067621290683746, 0.11087026447057724, 0.08296824246644974, -0.11613072454929352], "2_bias": [0.04075361415743828, 0.09996822476387024, -0.06277938932180405], "format": "png"}