{"voxel_size": 0.005666666666666666, "block_size": 30, "grid_width": 600, "grid_height": 600, "grid_depth": 600, "atlas_width": 2048, "atlas_height": 2048, "atlas_depth": 64, "num_slices": 16, "min_x": -1.7, "min_y": -1.7, "min_z": -1.7, "atlas_blocks_x": 64, "atlas_blocks_y": 64, "atlas_blocks_z": 2, "input_height": 800.0, "input_width": 800.0, "input_focal": 1492.820323027551, "worldspace_T_opengl": [[-1.0, 0.0, 0.0, 0.0], [0.0, 0.0, 1.0, 0.0], [0.0, 1.0, 0.0, 0.0], [0.0, 0.0, 0.0, 1.0]], "ndc": false, "0_weights": [[0.2969758212566376, 0.11555619537830353, -0.25736507773399353, 1.532196438347455e-05, -0.23389120399951935, -0.11042776703834534, -0.1773272156715393, -0.0731000080704689, -0.10768512636423111, 0.17742738127708435, 0.07585038244724274, -0.1451202630996704, -0.02873953804373741, -0.0879342183470726, 0.26394644379615784, -0.07483997941017151], [-0.17724204063415527, 0.2651474177837372, -0.2139616310596466, 0.09605645388364792, -0.2419310212135315, -0.326073557138443, -0.07584711164236069, 0.04200492799282074, 0.21703092753887177, -0.11065934598445892, -0.12818503379821777, -0.01555681973695755, 0.07483191788196564, 0.13726994395256042, -0.010297988541424274, 0.2980121672153473], [0.33157891035079956, -0.06538821011781693, -0.03175948187708855, 0.46522507071495056, -0.06463443487882614, 0.21852271258831024, 0.31156036257743835, -0.0036941301077604294, -0.2982359826564789, 0.24435372650623322, 0.18002572655677795, 0.06162532791495323, -0.1633942425251007, -0.38728001713752747, 0.05110820010304451, -0.18303123116493225], [0.23619724810123444, -0.11810621619224548, -0.022053025662899017, 0.08594710379838943, -0.2748437225818634, 0.19235126674175262, 0.32749995589256287, 0.07733084261417389, 0.20434129238128662, 0.14212365448474884, -0.2533127963542938, -0.23091305792331696, -0.27219533920288086, -0.04252193868160248, -0.15066438913345337, 0.08556455373764038], [-0.11659153550863266, -0.24417604506015778, 0.0901094377040863, 0.38163936138153076, 0.15504209697246552, -0.3075242042541504, 0.2714710533618927, 0.10068056732416153, -0.15785819292068481, 0.27459076046943665, 0.07647562772035599, -0.10949517041444778, -0.21639680862426758, -0.18218713998794556, 0.17074424028396606, -0.23477685451507568], [0.09183357656002045, -0.04136521741747856, 0.0005716099985875189, -0.20038488507270813, -0.2049565315246582, -0.021886495873332024, -0.2905031740665436, -0.08176153898239136, 0.16320273280143738, -0.3407500088214874, -0.08606129884719849, -0.06635309755802155, 0.3650336265563965, -0.04222263768315315, -0.2431008219718933, -0.13421550393104553], [-0.27085375785827637, 0.17049235105514526, 0.2745547890663147, 0.23516276478767395, 0.12175644934177399, 0.17122723162174225, -0.12250225991010666, -0.01697801798582077, -0.12459428608417511, -0.23518557846546173, 0.15016040205955505, -0.22544613480567932, -0.16290588676929474, -0.023121288046240807, 0.04016527533531189, 0.2536705732345581], [0.03212004154920578, 0.12257202714681625, 0.17543980479240417, -0.1759270429611206, -0.038673389703035355, 0.314615935087204, -0.12342239916324615, -0.10487385094165802, -0.2211773842573166, -0.09780125319957733, 0.03292221203446388, 0.20483733713626862, 0.11753159761428833, 0.23454782366752625, -0.20768824219703674, 0.07544048875570297], [-0.29894593358039856, 0.08412281423807144, 0.09683655202388763, 0.3446449041366577, 0.06582968682050705, 0.023727456107735634, -0.051495954394340515, 0.06685405224561691, -0.2593769431114197, 0.01902814954519272, -0.03714709356427193, 0.012597267515957355, 0.1669614613056183, 0.18282978236675262, -0.11327879875898361, 0.02670469507575035], [-0.33157193660736084, -0.23969998955726624, -0.029788197949528694, -0.3617207109928131, 0.08295062929391861, 0.18283799290657043, 0.03420044109225273, 0.010398286394774914, 0.14067716896533966, -0.000730756379198283, -0.037999171763658524, 0.02198566496372223, -0.032645855098962784, -0.19130076467990875, 0.256548672914505, -0.20225889980793], [-0.34483152627944946, -0.1531643122434616, -0.13684706389904022, -0.09717872738838196, 0.12407578527927399, 0.05466847121715546, 0.00016790757945273072, 0.010664350353181362, 0.2293170839548111, 0.024999739602208138, -0.009656812064349651, -0.20820996165275574, 0.04532846808433533, -0.21436254680156708, 0.1493009626865387, -0.05495676025748253], [-0.04210975393652916, -0.033962588757276535, -0.0753278136253357, -0.352343887090683, -0.15271537005901337, -0.3041733205318451, 0.03612514212727547, -0.016410160809755325, -0.10838990658521652, 0.05788211524486542, 0.030369054526090622, 0.04605911672115326, 0.09262306243181229, 0.21941064298152924, 0.08027152717113495, 0.1466185599565506], [-0.30263060331344604, -0.1251300722360611, 0.05459835007786751, 0.1882394552230835, -0.03461483493447304, -0.0037960312329232693, 0.031950026750564575, 0.009525730274617672, -0.05501352995634079, -0.0075234901160001755, -0.02825355716049671, 0.041850753128528595, 0.25751492381095886, -0.04128526523709297, 0.1506955921649933, -0.04829030483961105], [-0.12123239040374756, 0.09100786596536636, -0.006423871498554945, 0.4209330379962921, 0.03889697790145874, -0.10452808439731598, -0.01392329391092062, -0.004709495697170496, -0.0726890116930008, 0.02676958404481411, 0.025753816589713097, 0.11587807536125183, 0.16818773746490479, 0.11977015435695648, -0.15213671326637268, 0.06356480717658997], [-0.253343403339386, -0.03890790045261383, -0.03890811651945114, -0.030454352498054504, 0.1791437864303589, -0.0008575863321311772, 0.014151807874441147, 0.01361220795661211, -0.4046187698841095, -0.02254079282283783, 0.00946322362869978, 0.04548031836748123, -0.0434667244553566, 0.0345788337290287, 0.09563802927732468, 0.002816845430061221], [0.19602631032466888, 0.26667529344558716, 0.3160162568092346, -0.39508798718452454, -0.17805016040802002, 0.4171886742115021, 0.26848822832107544, -0.06563469022512436, -0.21924027800559998, -0.04177752509713173, 0.05101221427321434, 0.08793722093105316, -0.2708953320980072, 0.4021350145339966, -0.15771467983722687, -0.1130809634923935], [-0.3073517382144928, -0.09860891848802567, 0.28812992572784424, -0.26804664731025696, 0.07338152080774307, 0.07671749591827393, 0.3075665533542633, -0.1539473980665207, -0.2432200312614441, -0.2322029024362564, -0.07971597462892532, 0.5396573543548584, -0.37922248244285583, 0.4165698289871216, 0.2755264341831207, 0.020201222971081734], [-0.27315476536750793, -0.24821262061595917, -0.18925341963768005, 0.15410321950912476, -0.08939022570848465, 0.3659243583679199, 0.023730799555778503, -0.02423541061580181, -0.31971311569213867, 0.2893064022064209, 0.07488285005092621, 0.20074865221977234, 0.16018255054950714, -0.0161774642765522, 0.14976462721824646, -0.1853935867547989], [0.05299919471144676, 0.20228835940361023, -0.22217170894145966, 0.030172891914844513, 0.1446557492017746, 0.17591874301433563, -0.1640864610671997, -0.030435357242822647, -0.3594781756401062, 0.4127330780029297, -0.18909963965415955, 0.07529102265834808, -0.005684956442564726, -0.22541065514087677, 0.07573358714580536, 0.268142431974411], [-0.07141628861427307, 0.3877231180667877, 0.13091693818569183, -0.3029874563217163, 0.3463056981563568, -0.11017726361751556, -0.06562986224889755, 0.05913740396499634, 0.11854061484336853, 0.13046947121620178, -0.1614498645067215, 0.19215664267539978, 0.010733116418123245, -0.20993703603744507, -0.06805501878261566, 0.32361385226249695], [-0.2585778534412384, 0.2028861790895462, 0.15871238708496094, -0.11991463601589203, 0.13104379177093506, -0.024617429822683334, -0.04616440832614899, 0.01905497908592224, -0.20895668864250183, 0.15350480377674103, -0.20555879175662994, 0.46533647179603577, -0.09065618366003036, 0.0413968451321125, 0.3825051188468933, 0.30755025148391724], [0.13535556197166443, -0.22826367616653442, 0.1463746726512909, 0.02343924343585968, -0.0512467660009861, -0.02306300774216652, 0.03177933767437935, 0.026489894837141037, 0.3888057768344879, -0.08857297152280807, 0.00270478636957705, 0.05550599843263626, -0.07928673923015594, -0.21758486330509186, 0.271750807762146, -0.12814311683177948], [-0.27788516879081726, -0.13477392494678497, -0.1591707468032837, 0.3821875751018524, -0.2096167951822281, 0.046647798269987106, -0.03247939422726631, -0.009765207767486572, -0.07110559195280075, 0.14315813779830933, 0.010477341711521149, 0.007641179487109184, -0.0005290424451231956, 0.04780254885554314, 0.17188464105129242, -0.056203167885541916], [0.12720511853694916, -0.05227178707718849, -0.08858060091733932, -0.1392928659915924, -0.03782568499445915, -0.1178440973162651, 0.00922305416315794, -2.6849014830077067e-05, -0.010602753609418869, 0.015054288320243359, 0.0102968355640769, 0.04209426790475845, 0.4020307958126068, -0.010872060433030128, -0.19321578741073608, -0.1406508982181549], [0.12229941785335541, 0.06355289369821548, 0.02077203430235386, -0.0009376452653668821, 0.08608697354793549, -0.06549519300460815, -0.0012079492444172502, 0.013543226756155491, -0.34681466221809387, -0.038277167826890945, -0.01684141531586647, 0.043203212320804596, -0.0643489882349968, 0.13767346739768982, 0.05698870122432709, 0.058967817574739456], [0.007314971648156643, 0.11167240887880325, 0.035381074994802475, -0.209217831492424, 0.15112240612506866, -0.06916123628616333, -0.0033389958553016186, 0.009845932014286518, -0.03101910836994648, -0.04769527167081833, 0.012814659625291824, 0.037804268300533295, -0.07304758578538895, 0.057395245879888535, -0.07551968097686768, 0.05112123861908913], [-0.16760782897472382, 0.035824909806251526, 0.0258256196975708, 0.1516726016998291, -0.14384181797504425, -0.1078689694404602, -0.016222413629293442, 0.0009313402697443962, -0.07112114876508713, 0.0069084782153368, 0.03429281711578369, -0.015232482925057411, -0.04912640526890755, 0.13261693716049194, 0.006227205041795969, 0.07237154245376587], [-0.28286799788475037, 0.37042316794395447, 0.01815543882548809, -0.018833428621292114, -0.3832102119922638, -0.4160458445549011, -1.1137585639953613, -0.16665898263454437, -0.1060483381152153, -0.1000744104385376, 0.3442245423793793, 0.5245327949523926, 0.22590449452400208, 0.29498088359832764, 0.8041195273399353, -0.20495884120464325], [-0.1478518396615982, 0.16576679050922394, 0.09520794451236725, -0.5265779495239258, 0.052400268614292145, 0.03560126945376396, -0.06144966185092926, 0.33645033836364746, -0.0887758731842041, 0.38710516691207886, 0.4152124226093292, 0.2355387657880783, -0.3495446443557739, 0.16328631341457367, 0.21457143127918243, 0.10579495131969452], [-0.3923494517803192, -0.010677321814000607, 0.03609279543161392, -0.05971278250217438, 0.23677225410938263, 0.08253517001867294, -0.3372883200645447, 0.5479056239128113, 0.1162322536110878, 0.2841781675815582, -0.13665205240249634, -0.09035839140415192, 0.09078394621610641, 0.5441088080406189, 0.22082354128360748, -0.18228060007095337], [-0.35969921946525574, 0.9889537692070007, -1.231369972229004, 0.07955926656723022, -1.1111366748809814, -0.529033362865448, -0.48691681027412415, 0.4822995960712433, 0.3606402575969696, -1.173485279083252, 0.43240705132484436, 0.8901559114456177, 0.3902486264705658, -1.1939939260482788, 0.6074024438858032, -0.9691799283027649], [-0.37726491689682007, -0.4227508008480072, -0.13925588130950928, -0.2740901708602905, 0.42541366815567017, 0.026531698182225227, 0.36807891726493835, -0.9958032965660095, -0.21952642500400543, -0.20188561081886292, -1.6428526639938354, 0.1595761477947235, -0.07229876518249512, 0.032991908490657806, 0.26366469264030457, 0.5594894289970398], [-0.07091488689184189, 0.0854540765285492, -0.9079234600067139, 0.0017631333321332932, -0.6604687571525574, 0.4493640661239624, 0.4115014374256134, 0.41618016362190247, -0.009409886784851551, -0.9121429324150085, -0.1499367207288742, 0.5888186097145081, -0.25826743245124817, 0.10415826737880707, -0.3274809718132019, 0.7218778729438782], [-0.08804476261138916, 0.4906935393810272, 0.6035345196723938, 0.09019637852907181, 0.32428061962127686, -0.4035247564315796, 0.6470851302146912, -0.2815856337547302, 0.027308005839586258, 0.8380317091941833, -1.8737151622772217, -0.9472768902778625, 0.1939001828432083, 0.5197173357009888, 0.41902655363082886, -0.6906083822250366]], "1_weights": [[-0.2213137298822403, -0.31704604625701904, -0.2908262312412262, -0.06765427440404892, -0.35494500398635864, -0.1211775466799736, 0.07081754505634308, -0.416584849357605, -0.17116181552410126, -0.36666542291641235, 0.2033831775188446, -0.40307295322418213, -0.2058023065328598, 0.10895546525716782, -0.03479430451989174, -0.23272259533405304], [0.3226239085197449, -0.11352232098579407, 0.12365487962961197, 0.20318816602230072, -0.14966244995594025, -0.19687744975090027, -0.3646047115325928, 0.3581761121749878, -0.4678933322429657, -0.29996904730796814, -0.26103344559669495, -0.26906290650367737, 0.4300708472728729, 0.2954972982406616, -0.035425715148448944, 0.46642422676086426], [-0.18176262080669403, 0.3548485338687897, -0.6851264238357544, -0.6214103698730469, 0.1725001484155655, 0.07827197015285492, 0.3921365439891815, 0.22565077245235443, -0.1409362554550171, 0.6280157566070557, -0.044408343732357025, 0.24955865740776062, -0.18876320123672485, -0.31079256534576416, -0.16108669340610504, -0.04188733175396919], [0.5537562966346741, -0.34964489936828613, -0.05831419304013252, -0.03456642106175423, 0.0549808070063591, -0.27394798398017883, -0.38110318779945374, 0.12431040406227112, -0.03468264266848564, -0.07432098686695099, 0.3118531405925751, 0.027108408510684967, 0.12595373392105103, 0.20747525990009308, -0.07866727560758591, 0.17118780314922333], [-0.1049690917134285, -0.05426781252026558, -0.08142310380935669, -0.2218574434518814, 0.4497567117214203, -0.07245838642120361, -0.20845744013786316, 0.3051794469356537, 0.017436370253562927, 0.2378513664007187, -0.12617787718772888, 0.35490158200263977, 0.17310966551303864, -0.3076840937137604, -0.1156659722328186, 0.4977605938911438], [-0.0005115095409564674, 0.08322525769472122, -0.16592510044574738, 0.10546291619539261, 0.2764236330986023, 0.0365474633872509, 0.027905941009521484, -0.04753267765045166, 0.2138957381248474, -0.27888423204421997, -0.3616843521595001, 0.24315887689590454, -0.029396168887615204, -0.05122865363955498, 0.1415586769580841, 0.34579673409461975], [-0.14584490656852722, 0.3150125741958618, 0.9599258899688721, -0.024848343804478645, 0.576277494430542, 0.21554741263389587, 0.2878844141960144, -0.011962011456489563, 0.5917753577232361, 0.07018061727285385, 0.02771570533514023, 0.6355567574501038, -0.5523415207862854, -0.09497087448835373, -0.24016980826854706, -0.5321111083030701], [-0.22751279175281525, 0.8104751110076904, 0.2880173623561859, 0.6644018888473511, 0.4987761676311493, 0.641970157623291, 0.24420616030693054, 1.0535489320755005, 0.15962755680084229, -0.11016298830509186, -0.0811551883816719, 0.8763598203659058, -0.33125218749046326, -0.7457433342933655, -0.20885519683361053, -0.2994158864021301], [-0.50238037109375, 0.48735538125038147, 0.13069534301757812, -0.20281347632408142, -0.05970899388194084, 0.22925885021686554, 0.10292093455791473, 0.6009557843208313, 0.02551964670419693, -0.1446830928325653, 0.2265392243862152, 0.06462859362363815, -0.317816823720932, 0.08991501480340958, -0.12725353240966797, 0.47701019048690796], [-0.17304371297359467, 0.5350730419158936, -0.569893479347229, -0.1059018075466156, 0.3531206250190735, 0.11937303841114044, 0.3139805793762207, 0.2809608280658722, -0.6305213570594788, 0.45402660965919495, 0.15156295895576477, 0.4477039575576782, -0.07401342689990997, 0.016437914222478867, -0.07361512631177902, 0.2983297109603882], [-1.9314475059509277, -0.12044922262430191, -0.3692706823348999, 2.007852554321289, 1.6910643577575684, 2.0135531425476074, 2.6609227657318115, 2.0354456901550293, 3.9280905723571777, 0.827561616897583, -0.35414284467697144, 1.7849762439727783, -1.3095800876617432, -0.537172257900238, -1.2392686605453491, 1.0139756202697754], [0.34564703702926636, -0.09552761167287827, 0.06503195315599442, 0.2948724031448364, 0.03282801806926727, 0.033990975469350815, -0.09159760922193527, -0.14400865137577057, 0.153536856174469, -0.6291970610618591, -0.05295412614941597, -0.4523422420024872, 0.02257022075355053, 0.287625789642334, 0.016394535079598427, -0.2919480800628662], [0.13796161115169525, 0.3297710418701172, -0.14731401205062866, -0.12296086549758911, -0.35718342661857605, -0.3803570866584778, 0.3270091116428375, -0.30282342433929443, -0.22098839282989502, 0.2275269776582718, 0.0005070041515864432, 0.21297062933444977, -0.1997344046831131, 0.4461379051208496, 0.29378607869148254, -0.2581532895565033], [0.15202216804027557, 0.19068391621112823, -0.3486490845680237, -0.39820078015327454, 0.49988096952438354, 0.16066864132881165, 0.42210471630096436, 0.35495811700820923, -0.02375912107527256, 0.11731423437595367, -0.4152180850505829, 0.2153717279434204, 0.054643306881189346, -0.17066621780395508, 0.27745360136032104, 0.4570079445838928], [0.3205922245979309, -0.022826526314020157, -0.10450702905654907, -0.03036731854081154, -0.019587071612477303, -0.07817025482654572, 0.08952099084854126, -0.11682935804128647, -0.3454599976539612, -0.2795374095439911, -0.320625901222229, 0.1419571191072464, 0.5299291014671326, 0.32194679975509644, 0.3159203827381134, 0.45053285360336304], [-0.15369603037834167, 0.12497495859861374, 0.1390392780303955, 0.3053892254829407, 0.42223697900772095, -0.04156060516834259, -0.07518362253904343, -0.04348684102296829, 0.6470441818237305, -0.3018263578414917, -0.1252719610929489, 0.27694088220596313, 0.0736558586359024, 0.5297538638114929, 0.35848578810691833, -0.12100082635879517]], "2_weights": [[0.48726481199264526, 0.43423905968666077, 0.38861051201820374], [0.3072173595428467, -0.566046953201294, -0.6153221130371094], [-1.2975322008132935, -0.3854043185710907, 0.057674553245306015], [-0.22720113396644592, -0.5267862677574158, -0.9520533680915833], [-0.43605706095695496, -0.6468428373336792, -0.5789248943328857], [-0.6602445244789124, -0.7647846341133118, -0.12656636536121368], [-0.7620764374732971, -0.056764617562294006, -0.5213962197303772], [-0.3553924858570099, -0.3138819634914398, -0.299443781375885], [0.23764033615589142, -2.1294474601745605, -2.270709276199341], [-2.211704969406128, -1.6493040323257446, -1.3461138010025024], [0.5387328267097473, 0.15057626366615295, 0.11440954357385635], [-0.38681742548942566, -0.5880168080329895, -0.4323927164077759], [0.5031673312187195, 0.4259156584739685, -0.06507379561662674], [-0.18435631692409515, 0.2876148521900177, 0.4896654784679413], [0.6559316515922546, 0.16353528201580048, 0.34798744320869446], [-0.3756093978881836, 0.0823061615228653, 0.19648301601409912]], "0_bias": [-0.0593295656144619, 0.04982006922364235, 0.016673386096954346, -0.13188011944293976, 0.09753722697496414, 0.10813160240650177, 0.03959979861974716, 0.09017998725175858, -0.06920582801103592, 0.027691947296261787, -0.1785057932138443, 0.22222201526165009, -0.11302167177200317, 0.12776167690753937, 0.18164537847042084, 0.1135420948266983], "1_bias": [0.0044512622989714146, -0.01128503680229187, -0.0768662616610527, -0.0072899009101092815, 0.15903712809085846, 0.19101500511169434, 0.13049185276031494, 0.11851519346237183, -0.01079445518553257, -0.37593045830726624, -0.023707803338766098, 0.13878490030765533, 0.07901846617460251, 0.08709721267223358, 0.07592170685529709, 0.012247230857610703], "2_bias": [-0.08066743612289429, -0.12079039961099625, -0.09942629188299179], "format": "png"}